-0.000000 
-0.000000 
-0.000000 
-0.000000 
-0.000000 
-0.000000 
0.000000 
-0.116356 
-0.000000 
0.000000 
0.000000 
-0.000000 
-0.000000 
-0.116356 
-0.000000 
0.000000 
0.116356 
0.000000 
-0.000000 
0.000000 
-0.000000 
-0.000000 
0.000000 
-0.116356 
-0.000000 
-0.000000 
0.000000 
0.000000 
-0.116356 
-0.000000 
-0.000000 
0.116356 
-0.000000 
0.000000 
-0.000000 
-0.000000 
0.000000 
-0.000000 
0.000000 
0.000000 
0.000000 
-0.116356 
0.116356 
0.000000 
0.000000 
0.000000 
0.000000 
-0.000000 
-0.000000 
-0.116356 
-0.000000 
-0.000000 
0.116356 
-0.116356 
0.116356 
-0.116356 
0.000000 
-0.000000 
-0.116356 
0.000000 
0.000000 
0.000000 
-0.116356 
0.116356 
-0.000000 
0.000000 
0.000000 
-0.000000 
0.232713 
0.000000 
-0.000000 
-0.116356 
-0.000000 
0.000000 
-0.000000 
0.000000 
0.116356 
-0.000000 
-0.000000 
-0.116356 
-0.000000 
0.000000 
-0.000000 
-0.000000 
0.116356 
0.000000 
-0.000000 
0.000000 
-0.000000 
0.000000 
0.000000 
0.000000 
0.116356 
-0.000000 
0.000000 
-0.000000 
-0.000000 
0.000000 
-0.000000 
-0.000000 
0.000000 
-0.000000 
-0.000000 
-0.000000 
0.000000 
0.116356 
-0.116356 
-0.000000 
-0.116356 
0.000000 
-0.116356 
-0.000000 
0.000000 
-0.000000 
-0.000000 
0.000000 
-0.000000 
-0.000000 
-0.000000 
0.116356 
-0.000000 
-0.000000 
0.000000 
-0.000000 
-0.000000 
-0.000000 
0.000000 
0.116356 
0.000000 
-0.116356 
0.000000 
0.000000 
-0.000000 
0.116356 
0.000000 
0.116356 
-0.232713 
0.000000 
-0.000000 
0.000000 
-0.000000 
-0.116356 
-0.000000 
-0.349069 
-0.000000 
-0.116356 
-0.000000 
-0.000000 
-0.000000 
0.000000 
0.000000 
0.116356 
0.116356 
-0.000000 
-0.000000 
-0.116356 
-0.116356 
0.116356 
-0.232713 
0.000000 
0.000000 
0.000000 
0.116356 
0.116356 
-0.116356 
0.000000 
0.000000 
-0.000000 
-0.116356 
0.000000 
-0.000000 
-0.000000 
0.000000 
0.116356 
0.000000 
-0.000000 
-0.000000 
0.000000 
-0.116356 
-0.116356 
-0.000000 
0.116356 
0.000000 
0.116356 
0.116356 
0.000000 
-0.116356 
-0.000000 
0.000000 
-0.116356 
0.000000 
0.000000 
-0.000000 
-0.116356 
0.000000 
-0.000000 
0.116356 
0.000000 
0.000000 
-0.000000 
-0.116356 
-0.000000 
-0.000000 
0.000000 
0.000000 
0.000000 
-0.000000 
-0.116356 
-0.000000 
0.232713 
-0.000000 
-0.000000 
-0.116356 
-0.000000 
0.116356 
0.116356 
0.000000 
0.000000 
-0.000000 
0.000000 
0.000000 
-0.000000 
0.232713 
0.000000 
-0.116356 
0.116356 
-0.116356 
-0.000000 
-0.000000 
-0.000000 
0.116356 
-0.000000 
0.000000 
-0.000000 
0.000000 
0.000000 
-0.000000 
0.000000 
0.116356 
-0.000000 
0.000000 
0.116356 
-0.000000 
0.000000 
-0.000000 
0.116356 
-0.000000 
-0.000000 
-0.000000 
-0.000000 
-0.000000 
-0.000000 
0.000000 
-0.000000 
-0.000000 
-0.000000 
-0.000000 
-0.000000 
0.000000 
-0.000000 
0.000000 
0.000000 
0.000000 
-0.000000 
-0.000000 
0.000000 
0.000000 
-0.000000 
-0.000000 
0.000000 
0.000000 
0.000000 
-0.000000 
-0.000000 
-0.116356 
-0.000000 
0.116356 
0.232713 
-0.000000 
-0.000000 
0.116356 
-0.000000 
-0.000000 
-0.116356 
-0.116356 
-0.000000 
0.000000 
-0.232713 
0.000000 
0.116356 
-0.116356 
-0.000000 
-0.000000 
0.000000 
0.000000 
-0.000000 
-0.000000 
0.000000 
-0.000000 
-0.000000 
-0.000000 
0.000000 
0.000000 
0.000000 
-0.000000 
0.000000 
-0.000000 
-0.000000 
0.000000 
-0.000000 
-0.000000 
0.116356 
-0.000000 
-0.000000 
0.000000 
0.000000 
-0.000000 
0.000000 
0.000000 
-0.116356 
-0.116356 
0.116356 
-0.000000 
-0.116356 
0.000000 
0.000000 
0.000000 
0.000000 
-0.116356 
-0.232713 
0.000000 
-0.000000 
-0.000000 
0.000000 
-0.000000 
-0.116356 
-0.000000 
-0.000000 
-0.116356 
-0.000000 
-0.116356 
-0.000000 
-0.000000 
0.000000 
-0.000000 
-0.232713 
0.000000 
0.116356 
-0.000000 
0.000000 
0.000000 
-0.000000 
-0.000000 
-0.000000 
0.116356 
0.000000 
-0.232713 
-0.000000 
0.000000 
-0.000000 
-0.000000 
0.000000 
-0.116356 
-0.000000 
-0.000000 
0.116356 
-0.000000 
-0.000000 
-0.000000 
0.116356 
0.000000 
0.000000 
-0.000000 
-0.000000 
-0.116356 
-0.116356 
-0.000000 
-0.000000 
-0.000000 
-0.116356 
0.116356 
-0.000000 
-0.000000 
-0.000000 
0.116356 
0.000000 
0.000000 
0.000000 
0.116356 
0.000000 
0.000000 
-0.000000 
0.000000 
-0.116356 
-0.000000 
0.000000 
-0.116356 
0.000000 
-0.000000 
-0.116356 
-0.000000 
0.000000 
0.232713 
0.000000 
0.000000 
-0.000000 
0.000000 
0.000000 
0.000000 
0.000000 
-0.000000 
0.000000 
0.000000 
0.116356 
-0.000000 
-0.116356 
0.232713 
0.116356 
-0.000000 
-0.000000 
-0.116356 
-0.000000 
-0.116356 
0.000000 
-0.000000 
-0.000000 
-0.000000 
-0.000000 
-0.000000 
0.116356 
0.000000 
-0.000000 
0.000000 
0.116356 
0.000000 
-0.000000 
0.000000 
-0.116356 
0.116356 
0.000000 
0.000000 
-0.000000 
0.000000 
-0.116356 
-0.000000 
-0.232713 
-0.000000 
-0.116356 
-0.116356 
0.000000 
0.000000 
0.116356 
0.000000 
-0.000000 
0.000000 
-0.116356 
-0.000000 
-0.116356 
-0.000000 
0.000000 
0.116356 
0.000000 
-0.000000 
-0.000000 
0.000000 
0.116356 
0.000000 
0.116356 
0.000000 
-0.000000 
0.000000 
0.000000 
0.000000 
-0.000000 
-0.000000 
-0.116356 
0.232713 
-0.116356 
0.000000 
0.000000 
0.000000 
0.000000 
-0.000000 
-0.000000 
0.000000 
0.000000 
-0.116356 
0.000000 
-0.000000 
-0.000000 
0.000000 
0.116356 
-0.000000 
-0.000000 
0.000000 
-0.000000 
-0.000000 
-0.000000 
-0.000000 
0.000000 
0.000000 
0.000000 
0.000000 
0.000000 
0.116356 
-0.000000 
0.000000 
-0.000000 
-0.116356 
-0.116356 
0.000000 
0.116356 
0.000000 
-0.000000 
0.000000 
0.000000 
-0.000000 
0.116356 
-0.000000 
0.000000 
0.000000 
-0.116356 
0.000000 
-0.116356 
-0.000000 
0.000000 
-0.000000 
-0.116356 
0.000000 
-0.000000 
0.000000 
-0.000000 
-0.000000 
-0.000000 
-0.116356 
0.000000 
0.000000 
-0.116356 
-0.116356 
-0.116356 
0.116356 
0.000000 
-0.000000 
-0.000000 
0.000000 
-0.000000 
-0.000000 
0.000000 
-0.000000 
0.000000 
-0.116356 
0.000000 
0.000000 
0.000000 
-0.000000 
0.000000 
0.000000 
-0.000000 
0.000000 
-0.000000 
-0.116356 
0.116356 
-0.000000 
0.116356 
-0.000000 
-0.116356 
0.000000 
-0.000000 
0.000000 
0.000000 
-0.000000 
0.000000 
-0.000000 
0.000000 
-0.000000 
0.000000 
0.000000 
-0.000000 
-0.116356 
-0.000000 
-0.000000 
-0.000000 
-0.116356 
0.000000 
0.116356 
-0.000000 
0.000000 
-0.000000 
-0.000000 
-0.000000 
0.116356 
-0.116356 
-0.000000 
0.116356 
-0.116356 
-0.116356 
-0.000000 
0.000000 
-0.000000 
0.000000 
-0.000000 
0.000000 
0.000000 
0.116356 
-0.000000 
0.000000 
-0.000000 
-0.116356 
0.000000 
0.000000 
0.000000 
0.000000 
0.000000 
0.000000 
0.000000 
0.000000 
-0.000000 
-0.000000 
-0.000000 
0.116356 
0.000000 
-0.116356 
0.000000 
-0.116356 
-0.000000 
-0.000000 
-0.000000 
0.000000 
-0.000000 
-0.232713 
-0.000000 
0.000000 
0.000000 
0.116356 
0.000000 
0.000000 
0.000000 
-0.000000 
-0.000000 
-0.232713 
0.000000 
-0.000000 
0.000000 
0.116356 
-0.000000 
0.000000 
-0.116356 
-0.116356 
0.000000 
-0.000000 
-0.000000 
-0.116356 
0.000000 
-0.000000 
0.000000 
-0.000000 
-0.000000 
0.000000 
0.000000 
-0.000000 
-0.000000 
-0.000000 
0.000000 
0.000000 
-0.116356 
0.116356 
0.000000 
0.000000 
0.000000 
0.116356 
-0.000000 
-0.000000 
-0.000000 
0.000000 
-0.000000 
0.000000 
0.000000 
0.116356 
0.000000 
0.000000 
0.116356 
0.000000 
-0.000000 
-0.000000 
-0.000000 
-0.000000 
0.116356 
0.000000 
-0.000000 
0.000000 
0.000000 
-0.116356 
0.000000 
0.000000 
-0.000000 
0.000000 
-0.116356 
0.116356 
0.000000 
0.000000 
-0.000000 
-0.232713 
-0.000000 
-0.000000 
0.000000 
0.116356 
0.000000 
-0.000000 
-0.116356 
-0.116356 
0.000000 
0.000000 
0.000000 
-0.000000 
-0.000000 
0.116356 
-0.000000 
-0.000000 
-0.000000 
-0.000000 
-0.000000 
-0.116356 
-0.000000 
-0.116356 
-0.000000 
0.116356 
-0.000000 
-0.000000 
0.116356 
-0.000000 
-0.000000 
-0.000000 
-0.000000 
-0.000000 
-0.000000 
-0.116356 
-0.000000 
-0.000000 
0.000000 
0.116356 
-0.000000 
0.116356 
-0.000000 
0.000000 
-0.000000 
-0.000000 
-0.116356 
0.116356 
-0.000000 
-0.000000 
-0.116356 
-0.000000 
0.116356 
0.000000 
0.116356 
-0.000000 
-0.000000 
0.000000 
0.000000 
0.000000 
-0.116356 
-0.116356 
-0.000000 
0.000000 
-0.000000 
0.000000 
-0.000000 
-0.000000 
-0.000000 
0.116356 
0.116356 
0.000000 
-0.000000 
0.000000 
-0.116356 
-0.116356 
0.000000 
-0.116356 
-0.000000 
-0.000000 
-0.000000 
-0.116356 
-0.000000 
-0.000000 
-0.000000 
-0.116356 
0.000000 
0.000000 
-0.116356 
0.116356 
0.116356 
-0.000000 
0.000000 
-0.000000 
-0.000000 
0.000000 
-0.000000 
-0.000000 
-0.000000 
-0.000000 
-0.000000 
-0.116356 
0.000000 
-0.000000 
-0.000000 
-0.000000 
-0.000000 
0.116356 
-0.232713 
-0.000000 
-0.000000 
-0.000000 
0.000000 
0.116356 
-0.000000 
0.000000 
-0.000000 
0.000000 
0.000000 
0.000000 
0.116356 
0.116356 
-0.000000 
-0.000000 
-0.116356 
0.116356 
-0.116356 
0.116356 
-0.000000 
-0.000000 
0.116356 
-0.000000 
0.000000 
0.000000 
0.000000 
-0.000000 
-0.116356 
0.000000 
0.000000 
-0.116356 
-0.000000 
-0.000000 
0.000000 
-0.116356 
-0.000000 
0.000000 
0.000000 
0.000000 
0.000000 
0.000000 
-0.116356 
-0.000000 
-0.000000 
0.116356 
-0.116356 
0.232713 
0.116356 
-0.000000 
0.116356 
0.000000 
0.116356 
0.000000 
-0.116356 
-0.000000 
0.000000 
-0.116356 
-0.000000 
-0.000000 
-0.000000 
-0.000000 
0.116356 
0.000000 
-0.116356 
-0.116356 
0.000000 
0.116356 
-0.000000 
0.000000 
-0.116356 
0.116356 
-0.000000 
-0.000000 
0.000000 
0.000000 
0.000000 
-0.000000 
-0.000000 
-0.000000 
-0.000000 
-0.000000 
0.000000 
0.000000 
-0.000000 
0.232713 
-0.000000 
-0.000000 
0.000000 
0.000000 
0.116356 
0.000000 
-0.000000 
-0.000000 
0.116356 
0.116356 
0.116356 
-0.116356 
-0.000000 
-0.000000 
0.000000 
0.000000 
-0.116356 
0.000000 
-0.116356 
0.000000 
-0.000000 
0.000000 
-0.116356 
-0.000000 
0.000000 
-0.000000 
0.000000 
0.116356 
0.000000 
0.000000 
0.000000 
0.000000 
-0.000000 
0.116356 
0.000000 
-0.000000 
0.000000 
0.116356 
0.000000 
0.000000 
-0.000000 
0.000000 
-0.000000 
0.000000 
-0.000000 
-0.000000 
0.000000 
-0.000000 
0.116356 
0.000000 
0.000000 
-0.000000 
0.000000 
0.000000 
0.000000 
-0.349069 
0.000000 
-0.000000 
0.000000 
-0.000000 
0.000000 
-0.000000 
-0.000000 
0.000000 
-0.000000 
-0.116356 
0.116356 
-0.000000 
0.116356 
0.000000 
-0.000000 
0.000000 
-0.000000 
0.000000 
-0.000000 
0.000000 
-0.000000 
-0.116356 
-0.000000 
0.000000 
0.000000 
0.000000 
-0.000000 
0.000000 
-0.000000 
-0.116356 
0.000000 
-0.000000 
0.000000 
0.000000 
-0.116356 
0.000000 
-0.000000 
-0.000000 
0.000000 
0.000000 
0.000000 
-0.000000 
-0.000000 
0.000000 
0.000000 
0.000000 
0.116356 
0.000000 
0.116356 
-0.000000 
0.000000 
-0.000000 
-0.000000 
-0.000000 
-0.000000 
0.000000 
-0.000000 
0.000000 
0.000000 
-0.000000 
-0.000000 
0.000000 
0.000000 
0.000000 
0.000000 
0.000000 
0.000000 
-0.000000 
0.000000 
-0.000000 
0.000000 
0.000000 
-0.000000 
-0.000000 
-0.000000 
-0.000000 
-0.000000 
0.000000 
0.116356 
-0.000000 
0.000000 
-0.000000 
-0.000000 
0.000000 
0.000000 
-0.000000 
0.000000 
0.000000 
0.000000 
0.000000 
0.000000 
-0.000000 
0.000000 
0.000000 
0.000000 
-0.000000 
-0.000000 
-0.000000 
0.000000 
-0.000000 
0.000000 
0.000000 
-0.000000 
0.000000 
-0.000000 
0.000000 
-0.000000 
0.000000 
-0.000000 
-0.000000 
0.000000 
-0.000000 
-0.116356 
0.116356 
-0.000000 
-0.116356 
0.000000 
0.000000 
0.000000 
0.116356 
0.000000 
0.000000 
-0.116356 
-0.000000 
-0.000000 
-0.000000 
0.000000 
-0.000000 
-0.000000 
0.000000 
-0.000000 
-0.116356 
0.000000 
0.000000 
-0.000000 
-0.116356 
-0.000000 
-0.000000 
-0.000000 
-0.000000 
0.000000 
-0.000000 
-0.000000 
0.000000 
-0.000000 
-0.000000 
0.000000 
0.000000 
-0.000000 
-0.000000 
-0.000000 
0.116356 
0.000000 
-0.000000 
0.000000 
-0.000000 
0.000000 
-0.000000 
0.000000 
-0.000000 
-0.000000 
0.000000 
-0.000000 
-0.000000 
0.000000 
-0.000000 
-0.116356 
0.000000 
0.000000 
-0.000000 
-0.000000 
-0.000000 
0.000000 
0.000000 
-0.000000 
-0.116356 
-0.000000 
0.116356 
-0.000000 
-0.000000 
-0.000000 
-0.000000 
-0.000000 
-0.000000 
-0.000000 
0.000000 
-0.000000 
-0.000000 
0.000000 
0.000000 
0.000000 
0.000000 
0.000000 
-0.000000 
-0.000000 
-0.000000 
0.000000 
-0.000000 
-0.116356 
0.000000 
0.116356 
0.116356 
0.116356 
0.000000 
0.000000 
-0.000000 
-0.000000 
0.000000 
-0.000000 
-0.000000 
-0.000000 
-0.000000 
0.000000 
0.116356 
0.000000 
-0.000000 
-0.000000 
0.000000 
-0.000000 
-0.000000 
0.000000 
0.116356 
-0.000000 
0.000000 
0.000000 
0.000000 
-0.000000 
0.000000 
-0.000000 
0.000000 
-0.000000 
0.000000 
-0.000000 
0.000000 
0.000000 
0.000000 
0.000000 
0.000000 
0.000000 
-0.000000 
-0.000000 
0.000000 
0.000000 
0.000000 
-0.000000 
0.000000 
-0.000000 
-0.000000 
0.000000 
0.000000 
-0.000000 
0.000000 
-0.000000 
-0.000000 
-0.000000 
0.000000 
-0.000000 
0.116356 
-0.000000 
-0.000000 
-0.000000 
0.000000 
-0.000000 
0.000000 
-0.000000 
0.000000 
0.000000 
-0.000000 
-0.000000 
0.000000 
0.000000 
0.000000 
-0.000000 
0.000000 
-0.000000 
-0.000000 
0.000000 
-0.116356 
-0.000000 
-0.000000 
-0.116356 
-0.000000 
0.116356 
0.000000 
-0.000000 
0.116356 
0.000000 
0.000000 
-0.000000 
0.116356 
-0.000000 
0.000000 
0.000000 
0.000000 
0.116356 
-0.000000 
0.000000 
0.000000 
-0.000000 
-0.000000 
-0.116356 
0.000000 
-0.000000 
0.000000 
-0.000000 
-0.116356 
0.000000 
0.000000 
-0.000000 
0.000000 
-0.000000 
-0.000000 
0.116356 
-0.000000 
0.000000 
-0.000000 
-0.000000 
-0.000000 
-0.000000 
0.000000 
0.000000 
0.000000 
-0.116356 
-0.000000 
0.000000 
-0.000000 
-0.000000 
0.000000 
-0.000000 
-0.000000 
-0.000000 
0.000000 
0.000000 
-0.116356 
-0.000000 
-0.000000 
-0.000000 
-0.116356 
0.000000 
-0.000000 
-0.000000 
0.000000 
-0.000000 
-0.000000 
0.000000 
-0.000000 
-0.000000 
0.000000 
0.116356 
-0.000000 
0.116356 
0.116356 
0.116356 
-0.116356 
0.000000 
0.000000 
-0.000000 
0.000000 
0.000000 
-0.000000 
-0.000000 
-0.000000 
0.000000 
0.000000 
-0.000000 
0.000000 
0.000000 
0.000000 
-0.116356 
-0.000000 
-0.116356 
-0.000000 
0.116356 
-0.000000 
-0.000000 
-0.000000 
0.000000 
-0.000000 
0.000000 
0.000000 
-0.000000 
-0.000000 
0.116356 
-0.000000 
-0.000000 
-0.000000 
-0.000000 
-0.000000 
-0.000000 
-0.000000 
-0.000000 
-0.000000 
0.000000 
-0.000000 
-0.000000 
0.000000 
-0.000000 
-0.116356 
-0.000000 
-0.000000 
0.000000 
0.000000 
0.000000 
-0.000000 
0.000000 
-0.000000 
-0.000000 
-0.116356 
-0.000000 
0.000000 
-0.116356 
-0.000000 
-0.000000 
-0.000000 
-0.000000 
0.000000 
0.000000 
-0.000000 
0.000000 
-0.000000 
-0.000000 
0.000000 
-0.000000 
-0.000000 
0.000000 
-0.000000 
-0.000000 
-0.000000 
0.000000 
-0.000000 
-0.000000 
0.000000 
-0.000000 
-0.000000 
-0.000000 
-0.000000 
-0.000000 
-0.116356 
0.000000 
-0.000000 
0.000000 
-0.116356 
0.000000 
0.000000 
0.000000 
0.116356 
0.000000 
0.000000 
0.000000 
-0.000000 
-0.000000 
0.000000 
-0.000000 
0.116356 
-0.000000 
0.000000 
-0.000000 
-0.000000 
0.000000 
-0.000000 
-0.000000 
-0.000000 
-0.000000 
0.000000 
-0.000000 
0.000000 
0.000000 
-0.000000 
-0.000000 
0.116356 
-0.000000 
-0.000000 
-0.116356 
0.000000 
-0.000000 
0.000000 
-0.000000 
0.000000 
-0.000000 
0.000000 
-0.000000 
-0.000000 
0.000000 
0.116356 
-0.000000 
0.000000 
-0.000000 
0.000000 
-0.116356 
-0.000000 
-0.000000 
0.000000 
-0.000000 
-0.000000 
-0.000000 
0.000000 
0.000000 
0.000000 
0.000000 
-0.116356 
-0.000000 
-0.000000 
-0.000000 
0.000000 
0.000000 
0.000000 
-0.000000 
-0.000000 
-0.000000 
0.000000 
0.116356 
-0.000000 
-0.000000 
-0.000000 
-0.000000 
0.000000 
-0.000000 
0.000000 
-0.116356 
0.000000 
-0.000000 
0.000000 
-0.116356 
-0.000000 
-0.000000 
0.000000 
-0.116356 
-0.000000 
0.116356 
-0.000000 
0.000000 
0.116356 
0.000000 
-0.000000 
0.000000 
-0.000000 
-0.000000 
0.116356 
0.000000 
-0.000000 
0.000000 
0.000000 
-0.000000 
-0.000000 
0.000000 
-0.000000 
0.000000 
0.000000 
0.000000 
0.000000 
0.116356 
0.000000 
0.000000 
-0.000000 
0.000000 
-0.000000 
0.000000 
0.000000 
0.000000 
0.000000 
0.000000 
-0.000000 
0.000000 
-0.000000 
-0.000000 
-0.000000 
-0.000000 
0.000000 
-0.000000 
-0.000000 
-0.000000 
0.000000 
0.116356 
-0.000000 
-0.000000 
-0.000000 
-0.000000 
0.000000 
-0.000000 
-0.000000 
0.000000 
0.000000 
0.000000 
-0.000000 
0.000000 
-0.000000 
-0.000000 
-0.000000 
-0.116356 
-0.000000 
0.000000 
0.000000 
-0.000000 
-0.000000 
-0.000000 
0.000000 
-0.000000 
0.000000 
-0.000000 
0.000000 
0.000000 
-0.000000 
0.000000 
0.000000 
0.116356 
-0.000000 
0.000000 
0.000000 
-0.000000 
-0.000000 
-0.000000 
-0.000000 
-0.000000 
0.000000 
0.000000 
0.000000 
-0.000000 
0.000000 
0.000000 
0.000000 
0.000000 
0.000000 
-0.000000 
0.000000 
-0.000000 
-0.116356 
-0.000000 
-0.000000 
-0.116356 
0.000000 
-0.000000 
-0.000000 
0.000000 
-0.000000 
-0.000000 
-0.000000 
-0.000000 
-0.000000 
0.000000 
0.000000 
-0.000000 
0.116356 
-0.000000 
0.000000 
0.000000 
0.000000 
0.000000 
-0.000000 
-0.000000 
-0.000000 
0.000000 
-0.000000 
0.000000 
0.000000 
-0.000000 
0.000000 
-0.000000 
-0.000000 
-0.000000 
-0.000000 
0.000000 
0.000000 
0.000000 
-0.116356 
0.000000 
-0.000000 
0.000000 
0.000000 
0.000000 
-0.000000 
0.000000 
0.116356 
-0.116356 
0.000000 
-0.000000 
0.000000 
-0.000000 
-0.000000 
-0.000000 
-0.000000 
-0.000000 
0.000000 
0.000000 
-0.000000 
-0.000000 
-0.000000 
-0.000000 
-0.000000 
-0.000000 
0.000000 
-0.000000 
-0.000000 
0.000000 
0.232713 
-0.116356 
0.000000 
-0.000000 
0.000000 
-0.116356 
-0.000000 
-0.000000 
0.000000 
-0.116356 
-0.000000 
-0.000000 
-0.000000 
-0.000000 
0.116356 
0.000000 
0.000000 
-0.000000 
0.000000 
0.000000 
-0.000000 
-0.000000 
-0.000000 
0.116356 
-0.000000 
-0.000000 
-0.000000 
-0.116356 
0.000000 
-0.000000 
0.116356 
0.000000 
0.000000 
0.000000 
-0.116356 
-0.000000 
-0.000000 
-0.116356 
0.000000 
-0.000000 
-0.000000 
-0.000000 
-0.000000 
0.000000 
0.000000 
0.000000 
-0.116356 
-0.116356 
0.000000 
0.000000 
0.000000 
0.000000 
-0.000000 
-0.000000 
-0.116356 
0.116356 
-0.000000 
-0.000000 
0.000000 
0.000000 
-0.000000 
0.000000 
-0.000000 
-0.000000 
-0.000000 
-0.000000 
0.000000 
0.000000 
-0.000000 
0.116356 
0.000000 
0.000000 
-0.000000 
-0.116356 
0.116356 
-0.000000 
-0.000000 
-0.000000 
0.000000 
-0.000000 
0.000000 
-0.116356 
-0.000000 
-0.000000 
-0.000000 
0.000000 
0.000000 
0.000000 
0.000000 
0.000000 
0.000000 
-0.000000 
-0.000000 
0.000000 
-0.000000 
0.000000 
0.116356 
0.000000 
0.000000 
-0.000000 
0.000000 
-0.000000 
0.000000 
-0.000000 
-0.000000 
0.116356 
0.116356 
0.000000 
-0.116356 
0.000000 
0.000000 
0.000000 
0.000000 
0.000000 
0.000000 
0.000000 
0.000000 
0.000000 
-0.000000 
-0.000000 
0.000000 
-0.000000 
-0.000000 
-0.116356 
0.000000 
0.000000 
-0.000000 
-0.000000 
-0.000000 
-0.116356 
-0.116356 
0.000000 
0.000000 
0.000000 
0.116356 
0.000000 
0.000000 
-0.116356 
0.000000 
-0.000000 
-0.000000 
0.000000 
-0.000000 
0.000000 
-0.000000 
0.000000 
0.000000 
0.116356 
-0.000000 
-0.000000 
-0.000000 
-0.000000 
-0.000000 
-0.000000 
0.000000 
-0.000000 
0.000000 
0.000000 
-0.000000 
0.000000 
-0.000000 
-0.116356 
-0.000000 
0.000000 
-0.000000 
0.116356 
-0.000000 
-0.000000 
-0.000000 
0.000000 
0.000000 
0.000000 
0.000000 
0.000000 
0.000000 
0.000000 
0.000000 
-0.000000 
0.000000 
0.000000 
-0.000000 
0.116356 
-0.000000 
-0.000000 
0.000000 
-0.000000 
-0.116356 
0.000000 
-0.000000 
0.000000 
-0.116356 
0.116356 
-0.000000 
-0.116356 
-0.000000 
-0.000000 
0.000000 
0.000000 
0.000000 
-0.000000 
0.000000 
-0.116356 
0.000000 
-0.000000 
-0.000000 
-0.000000 
-0.000000 
0.000000 
-0.000000 
-0.000000 
-0.116356 
-0.000000 
0.116356 
0.000000 
-0.000000 
0.000000 
0.000000 
-0.116356 
0.000000 
-0.000000 
0.116356 
0.000000 
0.116356 
-0.116356 
0.000000 
0.000000 
-0.000000 
-0.000000 
-0.000000 
-0.000000 
-0.000000 
-0.000000 
-0.000000 
-0.000000 
0.000000 
-0.000000 
-0.116356 
0.000000 
0.000000 
-0.000000 
-0.000000 
-0.000000 
-0.000000 
0.116356 
0.000000 
-0.116356 
0.116356 
0.000000 
0.000000 
0.000000 
-0.000000 
0.000000 
-0.000000 
-0.000000 
-0.116356 
-0.000000 
0.000000 
0.000000 
0.000000 
-0.000000 
0.000000 
0.000000 
-0.000000 
0.000000 
-0.116356 
-0.000000 
-0.116356 
0.000000 
-0.000000 
-0.116356 
0.000000 
-0.000000 
-0.000000 
0.000000 
0.000000 
-0.000000 
0.116356 
0.000000 
0.000000 
0.000000 
-0.000000 
-0.000000 
0.000000 
0.000000 
-0.000000 
0.000000 
0.000000 
0.000000 
0.000000 
0.000000 
-0.000000 
0.000000 
-0.000000 
-0.116356 
-0.000000 
0.000000 
0.000000 
-0.000000 
-0.000000 
-0.000000 
0.000000 
0.000000 
0.000000 
0.000000 
-0.000000 
0.000000 
0.116356 
0.000000 
0.000000 
-0.000000 
-0.000000 
0.000000 
-0.000000 
-0.000000 
-0.000000 
-0.000000 
0.000000 
0.000000 
-0.000000 
-0.000000 
0.000000 
-0.000000 
-0.000000 
0.000000 
-0.000000 
-0.000000 
-0.000000 
-0.000000 
-0.000000 
-0.000000 
-0.000000 
0.116356 
-0.116356 
-0.000000 
-0.000000 
-0.000000 
-0.116356 
-0.000000 
0.000000 
0.000000 
0.000000 
0.000000 
0.000000 
-0.000000 
-0.000000 
0.000000 
0.000000 
0.116356 
-0.000000 
-0.000000 
0.000000 
-0.000000 
-0.000000 
-0.000000 
-0.000000 
-0.000000 
0.000000 
0.000000 
0.000000 
0.116356 
-0.116356 
0.000000 
0.000000 
-0.000000 
0.116356 
-0.000000 
-0.000000 
0.000000 
-0.000000 
0.000000 
-0.000000 
0.000000 
0.000000 
0.000000 
0.000000 
0.116356 
-0.000000 
-0.000000 
0.000000 
-0.000000 
-0.000000 
-0.000000 
-0.000000 
-0.000000 
-0.000000 
-0.000000 
0.000000 
0.000000 
0.000000 
0.000000 
0.000000 
0.000000 
-0.116356 
-0.000000 
-0.000000 
0.000000 
0.000000 
0.000000 
0.000000 
-0.000000 
0.000000 
0.000000 
0.000000 
-0.116356 
-0.000000 
0.000000 
0.000000 
-0.116356 
0.116356 
-0.000000 
0.116356 
-0.000000 
-0.000000 
0.000000 
-0.000000 
-0.000000 
0.000000 
-0.000000 
0.000000 
-0.000000 
-0.000000 
-0.116356 
0.116356 
0.000000 
0.000000 
0.000000 
-0.000000 
0.000000 
-0.000000 
0.116356 
0.000000 
0.116356 
0.116356 
-0.000000 
-0.000000 
0.116356 
-0.116356 
-0.000000 
-0.000000 
-0.000000 
0.116356 
0.000000 
-0.116356 
-0.000000 
0.000000 
0.000000 
0.116356 
0.000000 
0.116356 
-0.000000 
-0.000000 
0.000000 
-0.000000 
-0.000000 
0.000000 
-0.000000 
0.000000 
-0.116356 
-0.000000 
-0.000000 
-0.000000 
0.000000 
0.000000 
-0.000000 
0.116356 
0.000000 
-0.000000 
0.000000 
0.116356 
-0.000000 
-0.000000 
-0.000000 
0.116356 
-0.000000 
-0.000000 
-0.000000 
0.000000 
0.000000 
-0.116356 
-0.000000 
-0.000000 
0.116356 
-0.000000 
-0.000000 
-0.000000 
-0.000000 
0.000000 
-0.000000 
0.116356 
-0.000000 
-0.116356 
-0.000000 
-0.116356 
0.000000 
-0.116356 
-0.000000 
0.000000 
-0.000000 
0.000000 
-0.000000 
-0.000000 
0.000000 
0.000000 
-0.000000 
0.000000 
-0.000000 
-0.000000 
0.000000 
-0.000000 
0.116356 
0.000000 
-0.000000 
-0.000000 
0.000000 
0.000000 
0.000000 
-0.116356 
0.000000 
0.000000 
-0.000000 
0.000000 
-0.000000 
0.000000 
0.000000 
0.000000 
-0.116356 
-0.000000 
-0.000000 
-0.000000 
0.000000 
0.000000 
-0.000000 
-0.000000 
0.000000 
-0.000000 
-0.000000 
-0.000000 
0.000000 
-0.000000 
-0.116356 
-0.116356 
0.000000 
0.000000 
-0.000000 
-0.000000 
-0.000000 
-0.000000 
-0.000000 
0.000000 
-0.000000 
0.000000 
-0.000000 
-0.000000 
-0.000000 
-0.000000 
0.000000 
-0.000000 
-0.116356 
0.000000 
0.000000 
0.000000 
-0.000000 
-0.000000 
-0.000000 
0.000000 
0.000000 
0.000000 
0.116356 
-0.000000 
-0.116356 
-0.000000 
-0.000000 
0.116356 
-0.000000 
0.000000 
-0.000000 
0.000000 
0.000000 
-0.000000 
0.000000 
0.000000 
-0.000000 
0.000000 
-0.000000 
0.000000 
-0.000000 
-0.000000 
-0.000000 
-0.000000 
-0.000000 
-0.000000 
0.000000 
0.000000 
-0.000000 
0.000000 
-0.000000 
-0.000000 
0.000000 
-0.000000 
-0.000000 
0.000000 
-0.116356 
0.000000 
0.116356 
-0.000000 
-0.116356 
0.000000 
-0.000000 
0.000000 
0.116356 
-0.000000 
-0.000000 
-0.000000 
0.000000 
-0.000000 
-0.000000 
-0.116356 
-0.000000 
-0.000000 
-0.000000 
0.116356 
-0.000000 
-0.000000 
0.000000 
-0.000000 
-0.116356 
-0.116356 
-0.000000 
-0.000000 
-0.000000 
-0.000000 
0.000000 
-0.116356 
-0.000000 
0.000000 
-0.000000 
-0.000000 
-0.000000 
-0.000000 
-0.000000 
-0.000000 
-0.000000 
0.000000 
-0.116356 
-0.000000 
-0.000000 
-0.000000 
-0.000000 
0.116356 
-0.000000 
-0.116356 
0.000000 
-0.000000 
-0.000000 
-0.000000 
-0.000000 
-0.000000 
-0.000000 
-0.116356 
0.000000 
0.000000 
0.000000 
-0.000000 
-0.000000 
-0.000000 
0.000000 
-0.000000 
0.000000 
-0.000000 
-0.000000 
0.116356 
0.000000 
-0.000000 
0.000000 
0.000000 
-0.000000 
-0.000000 
0.000000 
-0.000000 
0.116356 
-0.000000 
-0.000000 
0.116356 
0.116356 
-0.000000 
0.000000 
0.116356 
0.116356 
0.116356 
-0.000000 
-0.000000 
0.000000 
-0.000000 
-0.000000 
0.000000 
-0.000000 
-0.000000 
0.000000 
-0.000000 
-0.000000 
0.000000 
0.000000 
0.000000 
0.000000 
-0.000000 
-0.000000 
-0.000000 
-0.000000 
0.000000 
0.000000 
0.000000 
0.000000 
-0.000000 
-0.116356 
0.000000 
0.000000 
0.000000 
-0.000000 
0.000000 
0.000000 
-0.000000 
0.000000 
0.000000 
-0.000000 
0.000000 
-0.000000 
0.000000 
-0.000000 
0.000000 
0.000000 
-0.000000 
-0.000000 
0.116356 
-0.000000 
-0.000000 
-0.000000 
-0.000000 
-0.116356 
0.000000 
-0.000000 
0.000000 
-0.000000 
0.000000 
-0.116356 
-0.116356 
0.116356 
0.000000 
0.000000 
0.000000 
0.000000 
-0.000000 
-0.000000 
0.000000 
-0.000000 
-0.000000 
0.000000 
-0.116356 
0.000000 
0.000000 
0.116356 
-0.116356 
-0.000000 
0.000000 
0.000000 
0.000000 
-0.116356 
-0.000000 
-0.000000 
-0.000000 
-0.000000 
-0.000000 
0.000000 
0.000000 
-0.000000 
0.000000 
0.000000 
0.000000 
0.000000 
-0.000000 
0.000000 
0.000000 
-0.000000 
0.000000 
-0.000000 
0.000000 
0.000000 
-0.116356 
0.116356 
0.000000 
0.000000 
0.000000 
-0.000000 
0.000000 
-0.116356 
0.000000 
-0.000000 
-0.116356 
0.000000 
0.000000 
-0.000000 
-0.000000 
0.000000 
-0.000000 
-0.000000 
-0.116356 
-0.000000 
-0.000000 
0.000000 
0.116356 
0.000000 
-0.116356 
0.000000 
-0.000000 
-0.000000 
-0.000000 
0.116356 
0.000000 
-0.000000 
-0.116356 
0.000000 
0.000000 
-0.000000 
0.000000 
0.000000 
0.000000 
-0.000000 
0.000000 
-0.000000 
-0.116356 
-0.000000 
-0.000000 
0.000000 
-0.116356 
-0.000000 
-0.000000 
-0.000000 
0.000000 
-0.000000 
-0.000000 
0.000000 
-0.000000 
0.000000 
-0.000000 
0.000000 
0.000000 
-0.000000 
0.116356 
0.000000 
0.116356 
0.000000 
-0.000000 
0.000000 
0.000000 
-0.000000 
-0.000000 
0.000000 
0.000000 
-0.000000 
-0.000000 
-0.116356 
-0.000000 
0.000000 
0.000000 
0.000000 
0.000000 
-0.000000 
0.000000 
0.000000 
0.000000 
-0.000000 
0.116356 
0.116356 
0.000000 
0.000000 
-0.000000 
-0.116356 
0.000000 
0.000000 
0.116356 
-0.000000 
0.000000 
-0.000000 
-0.000000 
0.000000 
0.000000 
0.000000 
-0.000000 
-0.000000 
-0.000000 
-0.000000 
0.000000 
0.000000 
0.000000 
-0.000000 
0.000000 
0.000000 
-0.000000 
-0.000000 
0.000000 
-0.000000 
0.116356 
-0.000000 
0.000000 
-0.000000 
-0.000000 
0.116356 
0.000000 
-0.000000 
-0.000000 
0.116356 
-0.000000 
-0.000000 
0.000000 
-0.000000 
-0.000000 
0.000000 
0.000000 
0.000000 
0.116356 
-0.000000 
-0.116356 
0.000000 
0.116356 
-0.000000 
-0.000000 
-0.000000 
-0.000000 
-0.000000 
-0.000000 
-0.000000 
0.000000 
-0.000000 
0.116356 
0.000000 
-0.000000 
0.116356 
-0.000000 
-0.000000 
-0.000000 
-0.000000 
-0.000000 
0.000000 
0.000000 
-0.116356 
0.000000 
-0.000000 
0.000000 
0.000000 
-0.116356 
-0.000000 
0.000000 
-0.000000 
0.000000 
-0.000000 
-0.116356 
-0.000000 
-0.000000 
-0.000000 
-0.000000 
0.000000 
-0.000000 
-0.000000 
-0.000000 
-0.000000 
0.000000 
-0.000000 
-0.000000 
0.116356 
-0.000000 
-0.000000 
0.000000 
-0.000000 
0.000000 
0.000000 
0.000000 
-0.000000 
-0.116356 
-0.116356 
-0.000000 
0.116356 
0.000000 
-0.000000 
0.000000 
-0.116356 
-0.000000 
0.000000 
-0.000000 
-0.116356 
0.000000 
-0.116356 
0.000000 
-0.000000 
-0.000000 
0.000000 
-0.000000 
0.000000 
0.116356 
-0.000000 
0.000000 
-0.000000 
0.000000 
-0.000000 
0.000000 
0.000000 
0.000000 
0.000000 
-0.116356 
-0.000000 
0.000000 
0.000000 
-0.000000 
0.000000 
-0.000000 
-0.000000 
-0.000000 
-0.116356 
-0.000000 
-0.116356 
-0.000000 
-0.000000 
0.000000 
0.000000 
-0.000000 
0.000000 
-0.000000 
-0.000000 
0.000000 
-0.116356 
0.116356 
-0.000000 
0.000000 
0.000000 
0.000000 
0.116356 
0.000000 
-0.000000 
0.000000 
0.116356 
-0.000000 
0.000000 
0.000000 
0.000000 
-0.000000 
-0.116356 
0.000000 
0.000000 
0.000000 
0.000000 
-0.000000 
0.000000 
0.000000 
-0.000000 
-0.116356 
0.000000 
0.000000 
-0.000000 
-0.116356 
0.116356 
0.000000 
-0.000000 
-0.116356 
-0.116356 
-0.000000 
-0.000000 
-0.000000 
-0.000000 
-0.000000 
0.000000 
0.000000 
0.000000 
0.000000 
0.000000 
0.000000 
0.000000 
-0.000000 
-0.000000 
-0.000000 
0.000000 
-0.000000 
0.000000 
0.116356 
-0.000000 
0.000000 
-0.000000 
0.000000 
-0.116356 
-0.000000 
0.116356 
-0.000000 
0.000000 
-0.000000 
-0.000000 
-0.000000 
0.000000 
-0.000000 
0.116356 
0.000000 
-0.000000 
-0.000000 
-0.000000 
-0.000000 
0.000000 
-0.000000 
-0.000000 
0.000000 
-0.000000 
0.000000 
-0.116356 
0.000000 
0.116356 
-0.000000 
0.000000 
-0.000000 
0.116356 
-0.116356 
0.000000 
-0.000000 
-0.000000 
0.000000 
-0.000000 
-0.000000 
0.000000 
-0.000000 
-0.116356 
-0.000000 
0.000000 
-0.116356 
0.000000 
-0.000000 
0.116356 
0.000000 
-0.000000 
-0.116356 
0.000000 
-0.000000 
-0.000000 
-0.000000 
0.116356 
0.000000 
0.000000 
-0.000000 
-0.000000 
-0.000000 
-0.000000 
0.000000 
-0.116356 
-0.000000 
0.116356 
0.000000 
0.000000 
-0.000000 
-0.116356 
0.000000 
-0.116356 
-0.000000 
-0.000000 
0.116356 
0.116356 
-0.000000 
-0.000000 
0.000000 
-0.000000 
-0.000000 
0.116356 
-0.000000 
-0.000000 
-0.000000 
0.000000 
-0.000000 
-0.000000 
-0.000000 
-0.000000 
-0.000000 
-0.000000 
0.000000 
-0.116356 
-0.000000 
-0.000000 
-0.000000 
0.116356 
0.000000 
0.116356 
0.000000 
0.000000 
0.000000 
0.000000 
-0.000000 
-0.000000 
-0.000000 
-0.000000 
0.000000 
0.116356 
-0.000000 
-0.000000 
-0.000000 
0.116356 
0.000000 
0.000000 
-0.000000 
-0.000000 
-0.000000 
0.000000 
-0.000000 
-0.116356 
0.000000 
-0.116356 
0.116356 
0.116356 
-0.000000 
0.000000 
-0.000000 
-0.000000 
-0.000000 
-0.000000 
0.000000 
0.000000 
0.000000 
0.000000 
0.000000 
0.000000 
0.000000 
-0.116356 
0.000000 
-0.000000 
-0.000000 
0.000000 
-0.000000 
0.000000 
-0.000000 
-0.000000 
0.000000 
0.116356 
-0.000000 
-0.000000 
0.000000 
-0.000000 
0.000000 
-0.000000 
-0.000000 
0.116356 
-0.116356 
0.000000 
-0.000000 
0.000000 
0.000000 
-0.000000 
0.116356 
0.000000 
-0.000000 
-0.000000 
-0.116356 
0.000000 
-0.000000 
-0.000000 
0.000000 
-0.000000 
0.116356 
-0.000000 
-0.000000 
0.000000 
0.000000 
0.000000 
-0.000000 
-0.000000 
-0.000000 
0.000000 
0.000000 
-0.000000 
0.000000 
-0.000000 
0.000000 
-0.000000 
0.116356 
-0.000000 
-0.000000 
0.116356 
-0.000000 
0.000000 
-0.000000 
0.000000 
-0.000000 
0.116356 
0.000000 
0.116356 
0.000000 
-0.000000 
0.000000 
0.116356 
-0.000000 
-0.000000 
0.116356 
0.000000 
-0.000000 
0.000000 
0.000000 
-0.000000 
-0.000000 
-0.000000 
-0.000000 
0.000000 
0.000000 
0.000000 
0.000000 
0.000000 
-0.116356 
0.000000 
-0.000000 
-0.000000 
-0.000000 
0.000000 
-0.000000 
0.000000 
-0.000000 
-0.000000 
-0.000000 
-0.000000 
0.116356 
-0.000000 
0.000000 
0.000000 
-0.000000 
0.000000 
-0.000000 
0.000000 
0.116356 
0.000000 
0.116356 
-0.116356 
-0.000000 
-0.000000 
0.000000 
-0.000000 
-0.116356 
-0.000000 
0.116356 
-0.000000 
0.000000 
-0.000000 
0.000000 
0.000000 
0.116356 
0.000000 
-0.000000 
0.116356 
0.000000 
-0.000000 
-0.000000 
0.116356 
0.000000 
-0.000000 
0.000000 
0.000000 
0.000000 
-0.000000 
-0.000000 
-0.000000 
-0.000000 
-0.000000 
-0.116356 
-0.000000 
-0.000000 
-0.000000 
0.000000 
-0.000000 
0.000000 
-0.000000 
-0.000000 
-0.000000 
-0.000000 
-0.000000 
-0.000000 
0.000000 
-0.116356 
-0.000000 
-0.000000 
0.000000 
0.000000 
0.000000 
-0.116356 
0.116356 
-0.000000 
-0.000000 
-0.000000 
-0.000000 
-0.000000 
-0.000000 
-0.000000 
0.116356 
0.116356 
-0.116356 
0.116356 
-0.000000 
-0.000000 
0.000000 
0.000000 
-0.000000 
0.000000 
-0.116356 
0.000000 
-0.000000 
-0.000000 
0.000000 
0.000000 
0.000000 
0.000000 
-0.000000 
0.116356 
-0.000000 
0.000000 
-0.000000 
0.116356 
0.000000 
-0.000000 
-0.000000 
-0.116356 
0.116356 
-0.000000 
-0.116356 
0.000000 
-0.116356 
-0.000000 
-0.000000 
-0.000000 
-0.000000 
0.116356 
-0.000000 
0.116356 
0.000000 
-0.000000 
0.000000 
0.000000 
0.116356 
-0.000000 
0.000000 
-0.000000 
-0.000000 
0.000000 
-0.116356 
0.116356 
-0.000000 
-0.000000 
-0.000000 
-0.000000 
-0.000000 
-0.000000 
-0.000000 
0.000000 
0.000000 
0.000000 
0.116356 
0.000000 
0.000000 
-0.000000 
-0.000000 
-0.000000 
0.000000 
0.000000 
-0.000000 
-0.000000 
-0.116356 
0.000000 
-0.000000 
-0.000000 
-0.000000 
-0.000000 
0.000000 
-0.000000 
-0.000000 
0.000000 
-0.000000 
-0.000000 
0.116356 
0.000000 
0.000000 
0.116356 
0.000000 
-0.000000 
-0.000000 
-0.000000 
-0.000000 
-0.000000 
0.000000 
0.000000 
0.116356 
-0.000000 
0.000000 
-0.000000 
-0.000000 
0.000000 
0.000000 
0.000000 
-0.000000 
0.000000 
-0.000000 
-0.000000 
0.000000 
-0.000000 
0.000000 
0.000000 
0.000000 
-0.000000 
-0.000000 
-0.116356 
-0.000000 
-0.000000 
-0.000000 
-0.000000 
-0.000000 
-0.000000 
-0.000000 
-0.000000 
-0.000000 
0.000000 
0.116356 
-0.116356 
-0.000000 
0.000000 
-0.000000 
0.000000 
-0.000000 
-0.116356 
-0.000000 
0.000000 
-0.000000 
-0.116356 
-0.000000 
-0.000000 
-0.000000 
-0.000000 
0.000000 
-0.000000 
0.000000 
-0.116356 
0.000000 
0.000000 
0.000000 
0.000000 
-0.116356 
-0.000000 
-0.000000 
0.116356 
-0.116356 
-0.000000 
-0.000000 
-0.000000 
-0.000000 
0.000000 
0.000000 
0.000000 
-0.000000 
-0.000000 
-0.000000 
0.000000 
-0.000000 
0.000000 
-0.000000 
0.000000 
-0.000000 
-0.000000 
-0.000000 
0.000000 
0.000000 
0.000000 
-0.000000 
0.000000 
-0.000000 
-0.000000 
-0.000000 
-0.000000 
0.000000 
-0.116356 
-0.000000 
0.116356 
-0.116356 
-0.000000 
0.000000 
0.000000 
0.000000 
0.000000 
-0.000000 
0.116356 
0.116356 
-0.116356 
0.116356 
0.116356 
-0.000000 
0.000000 
-0.116356 
0.000000 
-0.000000 
0.000000 
0.000000 
0.000000 
-0.000000 
-0.000000 
-0.000000 
-0.000000 
-0.116356 
0.000000 
-0.000000 
-0.000000 
0.000000 
-0.000000 
-0.116356 
-0.000000 
0.000000 
-0.000000 
0.000000 
-0.000000 
0.000000 
0.000000 
0.000000 
0.000000 
-0.000000 
-0.000000 
-0.000000 
0.000000 
-0.116356 
-0.116356 
-0.116356 
-0.000000 
0.000000 
0.116356 
0.000000 
0.000000 
-0.000000 
-0.000000 
-0.000000 
0.000000 
0.000000 
0.000000 
-0.000000 
-0.000000 
0.000000 
0.000000 
-0.116356 
-0.000000 
-0.000000 
-0.000000 
0.000000 
-0.000000 
-0.000000 
-0.000000 
0.116356 
0.000000 
-0.116356 
0.000000 
0.000000 
-0.000000 
-0.116356 
-0.000000 
-0.000000 
0.000000 
-0.116356 
0.000000 
-0.000000 
0.000000 
-0.000000 
-0.000000 
0.000000 
0.000000 
0.000000 
-0.000000 
-0.000000 
0.000000 
-0.000000 
-0.000000 
0.000000 
0.000000 
0.000000 
-0.000000 
-0.116356 
-0.000000 
-0.116356 
-0.116356 
0.000000 
0.000000 
0.000000 
0.000000 
-0.000000 
0.000000 
0.000000 
0.000000 
-0.000000 
0.000000 
0.000000 
0.000000 
-0.000000 
0.000000 
-0.000000 
-0.000000 
0.000000 
0.000000 
0.000000 
-0.000000 
-0.000000 
-0.000000 
-0.000000 
0.000000 
0.000000 
-0.116356 
-0.000000 
-0.000000 
0.000000 
-0.116356 
0.116356 
0.116356 
-0.116356 
0.000000 
0.000000 
-0.000000 
-0.000000 
-0.000000 
-0.000000 
0.000000 
-0.000000 
-0.000000 
0.000000 
-0.000000 
0.000000 
0.000000 
-0.000000 
-0.000000 
0.000000 
0.000000 
-0.000000 
0.000000 
0.000000 
-0.000000 
-0.000000 
-0.000000 
0.000000 
-0.000000 
0.116356 
0.000000 
-0.000000 
-0.000000 
-0.000000 
-0.000000 
-0.000000 
0.116356 
-0.000000 
-0.000000 
-0.116356 
0.116356 
-0.000000 
-0.000000 
0.000000 
0.000000 
0.000000 
0.116356 
-0.000000 
-0.000000 
-0.000000 
0.000000 
-0.116356 
0.232713 
-0.116356 
-0.000000 
0.000000 
0.000000 
-0.116356 
-0.000000 
0.000000 
-0.000000 
-0.116356 
-0.000000 
-0.000000 
-0.116356 
-0.000000 
-0.000000 
-0.000000 
0.000000 
0.000000 
0.000000 
0.000000 
0.000000 
-0.000000 
-0.000000 
-0.116356 
0.000000 
0.000000 
-0.000000 
0.000000 
0.000000 
-0.000000 
0.000000 
0.000000 
0.000000 
0.000000 
0.000000 
0.000000 
0.349069 
-0.000000 
0.000000 
0.000000 
-0.000000 
-0.000000 
0.116356 
-0.000000 
0.000000 
-0.000000 
0.000000 
-0.116356 
-0.116356 
0.000000 
-0.116356 
-0.000000 
-0.000000 
-0.000000 
-0.000000 
-0.232713 
-0.000000 
0.000000 
0.000000 
-0.000000 
0.000000 
0.000000 
0.000000 
-0.000000 
-0.000000 
0.000000 
-0.000000 
0.000000 
-0.000000 
-0.000000 
-0.000000 
-0.000000 
-0.000000 
-0.000000 
-0.000000 
0.000000 
0.000000 
-0.000000 
0.000000 
0.000000 
0.000000 
-0.000000 
0.000000 
0.000000 
-0.000000 
-0.000000 
-0.000000 
-0.116356 
0.000000 
0.000000 
0.000000 
-0.000000 
-0.000000 
-0.000000 
-0.116356 
0.000000 
0.000000 
0.000000 
-0.000000 
-0.000000 
0.000000 
-0.116356 
-0.000000 
0.000000 
0.000000 
0.000000 
0.000000 
-0.000000 
0.000000 
0.000000 
0.000000 
0.116356 
0.000000 
-0.000000 
-0.116356 
-0.000000 
-0.000000 
-0.000000 
-0.000000 
0.000000 
-0.116356 
-0.000000 
0.000000 
-0.000000 
0.000000 
0.000000 
-0.116356 
-0.000000 
-0.000000 
-0.000000 
0.000000 
0.000000 
-0.116356 
0.000000 
0.000000 
-0.000000 
-0.000000 
0.000000 
0.116356 
-0.000000 
0.000000 
-0.000000 
-0.000000 
0.000000 
-0.000000 
0.000000 
0.000000 
-0.000000 
-0.116356 
0.116356 
0.000000 
-0.000000 
-0.000000 
0.000000 
0.116356 
0.116356 
0.000000 
-0.000000 
0.000000 
0.000000 
0.000000 
-0.000000 
0.000000 
0.000000 
0.000000 
-0.000000 
0.000000 
-0.000000 
-0.000000 
-0.000000 
-0.000000 
0.000000 
-0.000000 
0.000000 
-0.000000 
-0.000000 
0.000000 
0.000000 
0.000000 
-0.000000 
0.000000 
-0.000000 
0.000000 
0.000000 
0.116356 
0.000000 
-0.000000 
0.000000 
-0.000000 
-0.000000 
0.000000 
-0.000000 
0.000000 
-0.000000 
-0.000000 
-0.000000 
-0.000000 
0.000000 
0.000000 
-0.000000 
-0.000000 
0.000000 
-0.000000 
0.000000 
-0.000000 
-0.000000 
-0.000000 
-0.000000 
0.000000 
0.000000 
0.000000 
0.000000 
-0.000000 
-0.000000 
0.000000 
-0.000000 
-0.000000 
0.000000 
0.000000 
-0.000000 
-0.000000 
0.000000 
0.000000 
-0.000000 
0.000000 
0.000000 
0.116356 
0.000000 
-0.000000 
0.116356 
-0.000000 
0.000000 
-0.000000 
-0.000000 
-0.000000 
-0.000000 
0.000000 
0.116356 
0.000000 
0.000000 
-0.000000 
-0.000000 
0.000000 
-0.000000 
0.000000 
-0.000000 
0.000000 
-0.000000 
-0.000000 
0.000000 
0.000000 
-0.116356 
-0.000000 
0.000000 
0.000000 
-0.000000 
0.000000 
-0.000000 
0.000000 
0.000000 
0.000000 
0.000000 
-0.000000 
0.000000 
-0.000000 
0.000000 
0.000000 
0.000000 
-0.116356 
-0.000000 
-0.000000 
0.000000 
0.000000 
-0.000000 
-0.000000 
-0.000000 
0.000000 
0.000000 
0.000000 
-0.000000 
0.000000 
-0.000000 
-0.000000 
-0.000000 
0.000000 
0.000000 
0.000000 
-0.000000 
0.000000 
-0.000000 
-0.000000 
0.000000 
0.000000 
0.000000 
-0.116356 
0.000000 
-0.000000 
-0.000000 
0.000000 
0.000000 
0.000000 
0.000000 
0.000000 
0.000000 
0.000000 
-0.000000 
-0.000000 
-0.000000 
0.000000 
0.000000 
-0.000000 
-0.116356 
0.000000 
-0.116356 
-0.000000 
0.000000 
-0.000000 
-0.000000 
0.000000 
-0.116356 
-0.000000 
-0.000000 
-0.116356 
0.116356 
0.000000 
0.116356 
-0.000000 
-0.000000 
-0.000000 
0.116356 
0.000000 
-0.000000 
0.000000 
-0.000000 
0.000000 
0.116356 
0.000000 
-0.000000 
-0.000000 
-0.000000 
0.000000 
0.116356 
-0.000000 
0.000000 
0.000000 
-0.000000 
0.000000 
0.000000 
0.000000 
0.000000 
-0.000000 
-0.000000 
0.000000 
0.000000 
0.000000 
0.000000 
-0.000000 
-0.000000 
-0.000000 
-0.116356 
0.000000 
0.000000 
-0.000000 
0.000000 
0.000000 
-0.000000 
-0.000000 
-0.000000 
-0.000000 
-0.232713 
0.116356 
0.000000 
-0.000000 
-0.000000 
-0.000000 
-0.000000 
0.000000 
-0.000000 
0.116356 
0.000000 
-0.000000 
0.000000 
-0.000000 
-0.000000 
0.000000 
0.000000 
-0.000000 
-0.000000 
0.116356 
-0.000000 
-0.000000 
-0.000000 
0.000000 
-0.116356 
-0.000000 
-0.000000 
-0.000000 
0.116356 
0.000000 
-0.000000 
0.000000 
-0.116356 
-0.000000 
-0.000000 
-0.000000 
-0.000000 
0.000000 
0.000000 
-0.000000 
-0.000000 
-0.000000 
-0.000000 
0.000000 
-0.000000 
0.116356 
0.000000 
0.000000 
-0.000000 
0.116356 
0.000000 
0.000000 
-0.000000 
-0.116356 
-0.000000 
0.000000 
0.116356 
-0.000000 
0.000000 
0.000000 
0.000000 
-0.000000 
0.116356 
0.000000 
-0.000000 
-0.000000 
-0.000000 
0.000000 
-0.000000 
-0.000000 
-0.000000 
-0.000000 
0.000000 
0.000000 
0.116356 
-0.000000 
-0.116356 
0.000000 
-0.000000 
-0.000000 
-0.000000 
0.000000 
0.000000 
0.000000 
0.000000 
-0.000000 
-0.000000 
-0.000000 
-0.000000 
-0.000000 
0.000000 
0.000000 
-0.116356 
0.116356 
0.116356 
-0.000000 
0.000000 
-0.000000 
-0.116356 
0.000000 
-0.000000 
-0.000000 
-0.000000 
0.000000 
-0.116356 
0.000000 
0.116356 
-0.000000 
0.000000 
0.000000 
0.000000 
0.000000 
-0.000000 
-0.000000 
0.116356 
-0.116356 
-0.000000 
-0.116356 
0.000000 
-0.116356 
-0.116356 
-0.000000 
0.000000 
0.000000 
0.116356 
0.116356 
-0.000000 
-0.000000 
0.000000 
0.000000 
-0.000000 
0.000000 
0.000000 
-0.000000 
0.000000 
0.000000 
-0.000000 
0.000000 
-0.000000 
-0.000000 
-0.116356 
0.000000 
-0.000000 
-0.000000 
0.000000 
-0.000000 
0.116356 
-0.000000 
-0.116356 
-0.116356 
0.000000 
0.000000 
-0.000000 
0.000000 
-0.000000 
0.000000 
0.000000 
-0.000000 
0.000000 
0.000000 
0.116356 
-0.000000 
0.000000 
0.116356 
0.116356 
0.000000 
-0.000000 
-0.000000 
-0.000000 
0.116356 
-0.000000 
-0.000000 
-0.000000 
0.000000 
0.000000 
-0.116356 
-0.000000 
0.000000 
0.000000 
-0.000000 
0.116356 
-0.000000 
-0.000000 
0.000000 
-0.116356 
-0.000000 
0.000000 
0.000000 
-0.000000 
0.000000 
-0.000000 
-0.000000 
-0.000000 
0.000000 
-0.000000 
0.000000 
0.000000 
0.000000 
0.000000 
-0.000000 
0.000000 
-0.000000 
0.000000 
0.000000 
-0.000000 
0.000000 
0.000000 
-0.000000 
0.000000 
0.000000 
-0.000000 
0.000000 
0.000000 
-0.000000 
0.000000 
0.000000 
-0.000000 
-0.000000 
0.000000 
0.000000 
-0.000000 
-0.000000 
0.000000 
0.000000 
-0.000000 
0.000000 
0.116356 
-0.000000 
0.000000 
-0.000000 
-0.000000 
0.000000 
0.000000 
0.000000 
-0.116356 
-0.000000 
0.000000 
-0.000000 
-0.000000 
-0.000000 
0.116356 
-0.000000 
0.000000 
0.000000 
-0.116356 
0.000000 
0.116356 
0.116356 
0.000000 
0.000000 
0.000000 
0.000000 
-0.000000 
-0.000000 
0.000000 
-0.000000 
0.116356 
-0.116356 
-0.000000 
0.116356 
-0.000000 
0.116356 
-0.000000 
-0.116356 
0.000000 
0.116356 
-0.000000 
-0.000000 
-0.000000 
-0.000000 
0.000000 
0.000000 
-0.000000 
-0.000000 
-0.000000 
0.000000 
-0.000000 
-0.000000 
0.116356 
0.116356 
-0.000000 
0.000000 
-0.000000 
-0.000000 
0.000000 
-0.000000 
-0.000000 
0.116356 
-0.000000 
0.116356 
-0.000000 
0.000000 
0.116356 
0.000000 
0.000000 
0.000000 
0.000000 
-0.000000 
-0.000000 
0.000000 
0.000000 
-0.000000 
0.000000 
0.000000 
0.000000 
-0.116356 
-0.000000 
-0.000000 
0.000000 
0.000000 
-0.000000 
0.000000 
0.000000 
-0.116356 
-0.000000 
0.000000 
0.000000 
-0.116356 
0.000000 
-0.000000 
-0.000000 
-0.000000 
-0.000000 
-0.116356 
-0.000000 
0.000000 
-0.000000 
-0.000000 
0.000000 
0.000000 
-0.000000 
0.000000 
-0.000000 
-0.000000 
-0.116356 
-0.000000 
-0.000000 
-0.000000 
-0.000000 
0.000000 
-0.000000 
-0.000000 
0.000000 
0.116356 
0.000000 
-0.000000 
-0.000000 
-0.000000 
-0.000000 
-0.000000 
-0.116356 
0.000000 
-0.000000 
-0.116356 
-0.000000 
-0.116356 
-0.000000 
0.000000 
-0.116356 
-0.000000 
-0.000000 
0.000000 
0.000000 
0.116356 
0.000000 
-0.000000 
0.116356 
-0.000000 
-0.000000 
-0.116356 
-0.000000 
-0.000000 
0.232713 
-0.116356 
0.000000 
0.000000 
0.000000 
-0.000000 
0.000000 
-0.116356 
0.000000 
0.000000 
0.000000 
-0.000000 
0.000000 
-0.000000 
0.116356 
-0.000000 
0.000000 
-0.116356 
-0.000000 
0.000000 
0.000000 
0.000000 
-0.000000 
-0.116356 
0.000000 
-0.000000 
-0.000000 
-0.000000 
0.000000 
-0.000000 
0.000000 
-0.000000 
-0.000000 
0.000000 
-0.000000 
-0.000000 
-0.116356 
0.000000 
-0.000000 
-0.116356 
0.000000 
-0.000000 
-0.000000 
-0.116356 
-0.000000 
-0.116356 
-0.000000 
-0.000000 
-0.000000 
-0.000000 
-0.000000 
0.000000 
-0.000000 
0.116356 
-0.000000 
-0.116356 
-0.000000 
-0.000000 
-0.000000 
0.000000 
-0.000000 
0.000000 
0.116356 
-0.000000 
-0.000000 
0.000000 
-0.116356 
0.000000 
-0.000000 
-0.000000 
-0.000000 
-0.000000 
-0.000000 
0.000000 
-0.000000 
0.000000 
-0.000000 
-0.000000 
-0.000000 
-0.000000 
-0.000000 
-0.000000 
0.000000 
0.000000 
-0.116356 
0.000000 
-0.000000 
0.232713 
-0.116356 
-0.000000 
0.000000 
-0.000000 
-0.000000 
0.116356 
-0.000000 
0.000000 
0.000000 
-0.000000 
-0.116356 
-0.000000 
-0.000000 
-0.000000 
0.000000 
0.116356 
-0.000000 
0.000000 
0.116356 
-0.116356 
0.000000 
0.000000 
0.000000 
-0.000000 
-0.000000 
-0.000000 
-0.000000 
0.000000 
0.000000 
0.116356 
-0.000000 
0.116356 
-0.116356 
-0.000000 
-0.000000 
-0.000000 
-0.000000 
0.000000 
-0.000000 
0.116356 
-0.000000 
0.000000 
0.000000 
-0.000000 
-0.000000 
0.000000 
-0.000000 
-0.000000 
0.000000 
0.000000 
-0.000000 
0.116356 
0.000000 
0.116356 
-0.116356 
-0.000000 
-0.000000 
-0.116356 
-0.000000 
0.000000 
0.000000 
-0.116356 
0.000000 
0.000000 
0.116356 
-0.000000 
0.000000 
0.000000 
0.116356 
-0.116356 
-0.000000 
0.000000 
-0.116356 
-0.000000 
-0.000000 
-0.000000 
-0.116356 
-0.000000 
0.000000 
-0.116356 
-0.116356 
-0.116356 
-0.000000 
0.000000 
0.000000 
0.116356 
0.000000 
0.000000 
0.000000 
0.000000 
0.116356 
-0.000000 
-0.000000 
0.116356 
0.000000 
0.000000 
-0.116356 
0.000000 
0.000000 
0.116356 
0.000000 
-0.000000 
0.000000 
0.000000 
0.000000 
-0.116356 
0.000000 
-0.000000 
-0.116356 
0.000000 
0.000000 
-0.116356 
0.000000 
0.000000 
-0.000000 
-0.000000 
0.000000 
-0.116356 
-0.116356 
-0.000000 
0.000000 
0.000000 
0.000000 
0.116356 
-0.000000 
-0.000000 
0.000000 
-0.116356 
-0.000000 
-0.000000 
-0.000000 
0.000000 
0.000000 
-0.000000 
0.000000 
-0.000000 
-0.000000 
-0.116356 
0.000000 
0.000000 
0.000000 
-0.000000 
-0.000000 
-0.000000 
-0.116356 
-0.000000 
-0.000000 
0.000000 
0.000000 
0.000000 
-0.116356 
-0.116356 
0.000000 
0.000000 
-0.000000 
0.000000 
-0.000000 
0.000000 
0.000000 
0.000000 
-0.000000 
-0.000000 
0.116356 
0.000000 
-0.000000 
0.000000 
-0.116356 
-0.000000 
0.000000 
-0.000000 
-0.000000 
-0.000000 
-0.000000 
-0.000000 
0.000000 
-0.000000 
0.116356 
-0.116356 
-0.000000 
0.000000 
-0.000000 
-0.116356 
0.000000 
-0.000000 
-0.000000 
0.000000 
0.000000 
0.000000 
-0.000000 
-0.000000 
0.000000 
-0.000000 
-0.000000 
-0.000000 
0.000000 
-0.116356 
0.000000 
-0.000000 
-0.000000 
0.000000 
-0.000000 
-0.000000 
0.000000 
0.000000 
-0.000000 
0.000000 
-0.000000 
-0.000000 
0.000000 
-0.000000 
-0.000000 
0.000000 
0.000000 
0.000000 
0.000000 
0.000000 
-0.116356 
-0.000000 
-0.000000 
-0.000000 
-0.000000 
-0.000000 
-0.116356 
0.000000 
0.000000 
-0.000000 
0.000000 
-0.116356 
-0.000000 
0.000000 
0.000000 
-0.000000 
0.000000 
0.000000 
0.000000 
-0.000000 
-0.000000 
-0.116356 
0.000000 
0.000000 
0.000000 
0.116356 
-0.000000 
0.000000 
-0.000000 
0.000000 
-0.116356 
0.000000 
-0.000000 
-0.000000 
-0.000000 
0.000000 
0.116356 
-0.000000 
0.000000 
-0.000000 
0.000000 
0.000000 
-0.000000 
0.000000 
0.000000 
-0.000000 
-0.116356 
0.116356 
-0.000000 
-0.116356 
-0.000000 
-0.000000 
-0.000000 
-0.000000 
-0.116356 
0.000000 
0.000000 
-0.000000 
0.000000 
-0.000000 
0.000000 
0.000000 
-0.000000 
-0.000000 
0.000000 
0.000000 
-0.000000 
-0.116356 
-0.000000 
0.000000 
0.000000 
0.000000 
-0.000000 
-0.000000 
-0.000000 
0.000000 
-0.116356 
0.000000 
-0.000000 
-0.000000 
-0.000000 
-0.000000 
-0.116356 
-0.000000 
-0.000000 
-0.116356 
-0.000000 
-0.000000 
-0.000000 
0.000000 
-0.000000 
0.000000 
0.000000 
-0.000000 
0.000000 
-0.000000 
-0.000000 
0.000000 
0.000000 
-0.000000 
-0.116356 
-0.000000 
-0.000000 
0.116356 
-0.116356 
0.000000 
-0.000000 
-0.000000 
0.000000 
0.000000 
0.116356 
-0.000000 
-0.000000 
-0.000000 
-0.000000 
0.116356 
0.000000 
-0.000000 
-0.000000 
-0.116356 
0.116356 
-0.000000 
-0.000000 
-0.000000 
-0.000000 
-0.000000 
-0.000000 
-0.000000 
-0.000000 
-0.116356 
0.000000 
0.000000 
0.000000 
0.000000 
-0.000000 
0.000000 
0.000000 
-0.000000 
-0.000000 
-0.000000 
0.116356 
-0.116356 
0.116356 
-0.000000 
-0.000000 
0.116356 
-0.000000 
-0.000000 
0.116356 
-0.000000 
-0.000000 
0.000000 
0.116356 
-0.116356 
-0.000000 
0.000000 
-0.116356 
-0.000000 
0.000000 
0.000000 
-0.000000 
-0.000000 
0.116356 
-0.000000 
0.000000 
-0.000000 
-0.000000 
0.000000 
0.000000 
0.000000 
0.000000 
0.000000 
0.000000 
0.116356 
0.000000 
0.000000 
-0.000000 
-0.000000 
-0.000000 
-0.000000 
0.000000 
0.000000 
-0.000000 
-0.116356 
-0.000000 
-0.000000 
-0.000000 
-0.000000 
0.000000 
-0.000000 
-0.000000 
-0.116356 
0.000000 
0.116356 
0.000000 
0.000000 
0.000000 
0.000000 
0.000000 
-0.000000 
0.000000 
-0.000000 
-0.000000 
0.000000 
0.000000 
-0.000000 
-0.000000 
0.000000 
-0.000000 
-0.000000 
0.000000 
-0.000000 
-0.000000 
0.000000 
0.000000 
-0.000000 
-0.000000 
0.000000 
-0.116356 
-0.116356 
-0.000000 
-0.116356 
0.116356 
0.116356 
0.000000 
-0.000000 
-0.000000 
-0.000000 
-0.000000 
-0.000000 
-0.000000 
0.000000 
-0.000000 
0.000000 
-0.000000 
0.116356 
0.000000 
-0.116356 
-0.000000 
-0.116356 
-0.000000 
-0.000000 
0.116356 
-0.116356 
-0.000000 
-0.000000 
-0.000000 
-0.116356 
0.000000 
0.000000 
-0.116356 
0.000000 
0.116356 
0.000000 
0.000000 
-0.000000 
-0.000000 
0.000000 
-0.000000 
-0.000000 
0.000000 
-0.000000 
0.000000 
-0.000000 
-0.000000 
0.000000 
0.000000 
0.000000 
-0.116356 
-0.000000 
-0.000000 
-0.000000 
0.116356 
0.116356 
-0.000000 
-0.000000 
0.000000 
0.000000 
-0.116356 
0.000000 
-0.116356 
-0.000000 
0.000000 
0.000000 
-0.116356 
-0.000000 
-0.000000 
-0.000000 
0.000000 
0.000000 
-0.116356 
0.000000 
-0.000000 
-0.000000 
0.000000 
-0.000000 
-0.000000 
0.000000 
0.000000 
-0.116356 
-0.116356 
-0.000000 
-0.000000 
0.000000 
-0.000000 
-0.000000 
-0.000000 
0.000000 
-0.000000 
-0.000000 
-0.116356 
0.000000 
-0.000000 
-0.000000 
-0.000000 
-0.000000 
-0.000000 
-0.000000 
-0.000000 
-0.000000 
-0.116356 
-0.000000 
0.000000 
-0.000000 
0.000000 
0.232713 
-0.000000 
0.000000 
0.000000 
-0.000000 
0.000000 
-0.000000 
0.116356 
-0.000000 
-0.000000 
0.000000 
-0.116356 
-0.000000 
-0.000000 
0.116356 
0.116356 
0.000000 
-0.000000 
-0.116356 
-0.000000 
-0.000000 
-0.000000 
-0.000000 
0.000000 
0.232713 
-0.000000 
0.116356 
-0.000000 
0.000000 
-0.000000 
-0.000000 
-0.000000 
-0.000000 
0.000000 
0.000000 
0.000000 
-0.000000 
0.000000 
-0.000000 
-0.000000 
-0.116356 
-0.000000 
0.116356 
-0.000000 
-0.000000 
-0.000000 
0.116356 
-0.000000 
-0.000000 
0.000000 
-0.116356 
-0.000000 
0.116356 
-0.000000 
-0.116356 
0.116356 
-0.000000 
0.000000 
0.000000 
-0.116356 
-0.000000 
0.000000 
-0.116356 
-0.000000 
0.000000 
0.000000 
-0.000000 
-0.000000 
0.000000 
-0.000000 
0.116356 
-0.000000 
-0.000000 
0.000000 
-0.000000 
0.116356 
-0.000000 
-0.000000 
-0.000000 
0.116356 
-0.000000 
-0.000000 
0.116356 
-0.000000 
0.116356 
0.000000 
-0.116356 
0.000000 
-0.000000 
-0.000000 
-0.116356 
0.000000 
-0.000000 
-0.000000 
-0.000000 
-0.000000 
-0.000000 
0.116356 
-0.000000 
0.000000 
0.116356 
-0.000000 
-0.000000 
-0.116356 
0.000000 
0.116356 
0.000000 
0.000000 
-0.000000 
-0.000000 
-0.000000 
0.000000 
-0.116356 
-0.000000 
-0.000000 
0.000000 
0.000000 
-0.000000 
0.000000 
-0.000000 
0.000000 
-0.000000 
0.000000 
0.000000 
-0.000000 
-0.000000 
-0.000000 
-0.000000 
0.232713 
-0.000000 
-0.000000 
-0.000000 
0.000000 
0.000000 
-0.000000 
-0.000000 
0.000000 
0.000000 
-0.000000 
0.000000 
0.000000 
-0.000000 
0.116356 
0.116356 
-0.000000 
0.000000 
0.000000 
0.232713 
0.000000 
-0.000000 
0.000000 
-0.116356 
-0.116356 
0.232713 
0.116356 
0.000000 
-0.000000 
-0.000000 
-0.116356 
0.116356 
0.232713 
0.000000 
-0.000000 
0.000000 
0.000000 
0.000000 
0.116356 
-0.000000 
-0.116356 
0.116356 
-0.116356 
0.000000 
0.000000 
-0.000000 
-0.000000 
0.000000 
-0.116356 
-0.000000 
0.000000 
-0.000000 
0.000000 
0.000000 
0.000000 
0.232713 
0.000000 
-0.000000 
0.116356 
0.000000 
-0.000000 
-0.116356 
0.000000 
-0.000000 
0.000000 
-0.116356 
-0.000000 
-0.000000 
0.116356 
-0.000000 
0.000000 
0.000000 
-0.000000 
-0.000000 
-0.000000 
-0.000000 
-0.116356 
0.000000 
0.000000 
0.000000 
-0.000000 
-0.000000 
-0.000000 
0.116356 
-0.000000 
-0.000000 
-0.116356 
0.000000 
-0.116356 
-0.000000 
-0.000000 
-0.000000 
0.116356 
-0.000000 
-0.000000 
0.000000 
0.000000 
0.000000 
-0.000000 
-0.000000 
0.116356 
0.000000 
-0.116356 
-0.000000 
-0.000000 
0.000000 
-0.116356 
0.116356 
-0.000000 
-0.116356 
0.000000 
-0.000000 
0.000000 
0.000000 
-0.000000 
-0.000000 
-0.000000 
0.000000 
-0.000000 
0.116356 
0.116356 
-0.000000 
-0.000000 
0.000000 
0.000000 
0.000000 
-0.000000 
0.000000 
-0.000000 
0.000000 
-0.000000 
0.000000 
-0.000000 
-0.116356 
-0.116356 
-0.116356 
0.000000 
-0.000000 
-0.000000 
0.000000 
0.000000 
-0.000000 
-0.000000 
0.000000 
0.000000 
0.000000 
0.000000 
0.000000 
-0.000000 
-0.000000 
0.000000 
0.116356 
-0.116356 
0.000000 
-0.000000 
-0.000000 
0.000000 
0.000000 
-0.000000 
0.000000 
-0.000000 
0.116356 
-0.000000 
0.116356 
0.000000 
0.000000 
0.116356 
0.116356 
0.000000 
-0.000000 
0.000000 
0.000000 
-0.000000 
0.000000 
0.116356 
0.000000 
-0.116356 
0.000000 
0.000000 
-0.116356 
0.000000 
0.000000 
0.000000 
-0.000000 
-0.000000 
0.000000 
-0.000000 
0.000000 
0.000000 
-0.000000 
-0.116356 
-0.000000 
0.000000 
0.000000 
-0.000000 
-0.000000 
-0.116356 
-0.000000 
0.000000 
-0.000000 
-0.116356 
-0.000000 
-0.000000 
-0.000000 
-0.000000 
-0.000000 
-0.000000 
0.000000 
-0.000000 
-0.000000 
-0.000000 
0.000000 
-0.116356 
0.000000 
0.000000 
0.116356 
-0.000000 
-0.116356 
0.000000 
0.116356 
-0.000000 
-0.116356 
-0.116356 
0.116356 
-0.116356 
-0.000000 
-0.116356 
0.000000 
-0.116356 
-0.116356 
0.116356 
-0.000000 
0.000000 
0.116356 
0.000000 
-0.000000 
0.000000 
-0.000000 
0.000000 
-0.000000 
0.000000 
-0.000000 
-0.000000 
0.000000 
-0.000000 
-0.000000 
0.000000 
0.000000 
-0.116356 
-0.000000 
-0.000000 
-0.000000 
0.000000 
-0.000000 
0.000000 
0.000000 
-0.000000 
-0.000000 
-0.000000 
-0.000000 
-0.000000 
-0.000000 
-0.116356 
-0.000000 
0.116356 
0.000000 
-0.000000 
0.116356 
0.000000 
0.116356 
-0.116356 
-0.000000 
-0.000000 
0.000000 
-0.000000 
-0.000000 
-0.000000 
-0.000000 
0.000000 
-0.000000 
0.000000 
0.000000 
-0.000000 
0.000000 
-0.116356 
-0.000000 
0.000000 
-0.000000 
0.000000 
-0.000000 
-0.000000 
-0.000000 
-0.000000 
0.000000 
0.000000 
0.000000 
-0.000000 
-0.000000 
-0.000000 
-0.116356 
-0.116356 
0.349069 
-0.000000 
-0.000000 
-0.000000 
0.000000 
-0.000000 
-0.000000 
-0.000000 
0.000000 
0.116356 
0.000000 
-0.116356 
-0.000000 
0.000000 
-0.116356 
0.000000 
0.116356 
-0.000000 
-0.116356 
0.000000 
-0.000000 
0.000000 
0.000000 
0.000000 
-0.000000 
-0.000000 
-0.000000 
0.000000 
-0.116356 
-0.000000 
-0.000000 
-0.000000 
-0.000000 
0.116356 
0.000000 
0.000000 
-0.000000 
-0.000000 
0.000000 
0.116356 
0.000000 
-0.000000 
-0.116356 
-0.000000 
-0.000000 
-0.000000 
-0.000000 
-0.000000 
-0.000000 
-0.000000 
0.000000 
-0.000000 
0.000000 
0.116356 
-0.116356 
0.000000 
-0.000000 
0.000000 
0.000000 
-0.116356 
-0.000000 
0.000000 
0.000000 
0.000000 
0.116356 
0.000000 
-0.116356 
0.000000 
0.000000 
0.116356 
-0.000000 
-0.000000 
-0.000000 
0.116356 
0.000000 
-0.116356 
0.000000 
-0.000000 
-0.116356 
0.000000 
-0.000000 
-0.116356 
0.000000 
-0.116356 
0.000000 
0.000000 
0.000000 
0.000000 
-0.116356 
0.000000 
0.000000 
0.000000 
0.116356 
0.000000 
-0.000000 
0.000000 
-0.000000 
0.116356 
-0.000000 
-0.000000 
-0.000000 
-0.116356 
0.000000 
0.000000 
0.000000 
-0.000000 
-0.116356 
0.000000 
0.000000 
-0.116356 
0.000000 
-0.000000 
0.000000 
0.000000 
0.116356 
-0.000000 
0.000000 
-0.000000 
0.000000 
-0.000000 
0.232713 
-0.000000 
-0.000000 
-0.000000 
0.232713 
-0.000000 
-0.000000 
-0.000000 
-0.000000 
-0.000000 
0.000000 
-0.000000 
0.000000 
0.000000 
-0.000000 
0.116356 
0.000000 
-0.116356 
0.000000 
-0.000000 
0.000000 
-0.000000 
-0.000000 
0.000000 
0.000000 
0.000000 
0.000000 
0.116356 
-0.116356 
-0.000000 
0.000000 
0.000000 
0.000000 
-0.000000 
0.116356 
0.000000 
0.000000 
0.000000 
-0.116356 
-0.000000 
-0.116356 
-0.000000 
-0.000000 
0.000000 
-0.000000 
-0.000000 
-0.000000 
0.000000 
0.000000 
-0.000000 
-0.000000 
-0.000000 
0.000000 
-0.000000 
-0.000000 
0.000000 
-0.000000 
-0.000000 
-0.000000 
-0.000000 
0.000000 
0.116356 
-0.000000 
0.000000 
0.000000 
-0.116356 
0.000000 
-0.000000 
0.000000 
-0.000000 
-0.000000 
-0.000000 
-0.000000 
-0.116356 
0.000000 
0.000000 
0.116356 
0.000000 
-0.000000 
0.000000 
-0.116356 
-0.116356 
0.000000 
-0.116356 
-0.000000 
-0.000000 
0.000000 
-0.116356 
-0.000000 
0.116356 
-0.000000 
0.116356 
0.000000 
-0.000000 
0.000000 
-0.116356 
0.000000 
-0.000000 
0.000000 
0.000000 
-0.116356 
0.000000 
-0.000000 
-0.000000 
-0.000000 
0.000000 
-0.000000 
0.116356 
0.116356 
-0.000000 
-0.000000 
-0.000000 
-0.116356 
0.000000 
0.000000 
0.000000 
-0.000000 
0.000000 
-0.116356 
-0.116356 
0.116356 
-0.000000 
-0.000000 
-0.000000 
-0.000000 
-0.000000 
-0.000000 
-0.000000 
-0.000000 
0.116356 
-0.000000 
-0.000000 
0.000000 
-0.000000 
-0.000000 
0.000000 
-0.000000 
-0.116356 
-0.000000 
-0.000000 
0.000000 
0.000000 
0.000000 
0.000000 
0.116356 
0.000000 
-0.000000 
0.000000 
0.000000 
0.116356 
-0.000000 
0.000000 
0.116356 
-0.116356 
-0.000000 
-0.000000 
-0.000000 
-0.116356 
0.116356 
-0.000000 
-0.116356 
-0.116356 
0.000000 
0.000000 
-0.000000 
-0.000000 
0.116356 
0.116356 
0.116356 
-0.116356 
0.000000 
-0.000000 
0.116356 
-0.000000 
0.000000 
-0.000000 
-0.116356 
-0.000000 
-0.000000 
-0.000000 
-0.000000 
-0.116356 
0.000000 
0.116356 
0.000000 
-0.000000 
0.000000 
-0.000000 
-0.000000 
0.000000 
-0.000000 
0.000000 
-0.116356 
0.000000 
0.000000 
-0.116356 
-0.000000 
-0.000000 
-0.116356 
-0.116356 
0.000000 
-0.000000 
0.000000 
-0.000000 
0.000000 
-0.000000 
-0.000000 
0.232713 
0.000000 
-0.000000 
-0.116356 
-0.000000 
-0.000000 
0.000000 
0.000000 
-0.116356 
-0.000000 
-0.000000 
-0.000000 
0.000000 
-0.000000 
-0.000000 
-0.000000 
-0.000000 
-0.000000 
-0.000000 
0.116356 
-0.000000 
0.000000 
0.000000 
0.000000 
0.000000 
0.000000 
-0.116356 
-0.000000 
-0.000000 
0.000000 
-0.000000 
-0.000000 
-0.000000 
-0.000000 
0.000000 
0.000000 
-0.000000 
0.000000 
-0.000000 
-0.000000 
0.000000 
-0.000000 
0.116356 
0.000000 
0.116356 
0.000000 
-0.000000 
-0.000000 
0.000000 
-0.000000 
-0.000000 
0.000000 
0.000000 
0.000000 
-0.116356 
0.000000 
-0.000000 
-0.116356 
-0.000000 
-0.000000 
0.116356 
-0.000000 
0.000000 
-0.000000 
-0.000000 
-0.000000 
-0.000000 
0.000000 
-0.000000 
-0.000000 
0.000000 
-0.000000 
0.000000 
-0.000000 
0.000000 
0.000000 
-0.116356 
-0.000000 
-0.000000 
-0.000000 
0.000000 
-0.116356 
-0.000000 
-0.116356 
0.000000 
0.000000 
-0.000000 
-0.000000 
0.000000 
0.000000 
0.000000 
-0.000000 
0.116356 
0.000000 
-0.000000 
0.000000 
-0.116356 
-0.000000 
0.000000 
0.116356 
0.000000 
-0.000000 
0.000000 
-0.000000 
-0.000000 
-0.000000 
0.000000 
-0.000000 
-0.000000 
-0.116356 
0.000000 
0.116356 
-0.000000 
0.000000 
-0.116356 
0.000000 
0.000000 
-0.000000 
-0.000000 
0.000000 
0.116356 
0.116356 
0.116356 
-0.000000 
-0.000000 
0.000000 
-0.116356 
-0.000000 
-0.000000 
0.000000 
0.000000 
-0.000000 
-0.000000 
0.000000 
0.000000 
0.116356 
0.116356 
-0.000000 
-0.000000 
0.116356 
0.000000 
0.000000 
0.000000 
-0.116356 
-0.000000 
0.000000 
0.000000 
0.000000 
0.000000 
-0.000000 
-0.000000 
-0.116356 
-0.000000 
0.000000 
-0.116356 
-0.000000 
-0.000000 
-0.116356 
-0.000000 
-0.116356 
0.000000 
-0.000000 
-0.000000 
-0.116356 
-0.000000 
0.000000 
-0.000000 
0.000000 
-0.000000 
0.000000 
-0.000000 
0.000000 
-0.000000 
-0.000000 
0.000000 
0.000000 
-0.000000 
-0.116356 
-0.116356 
0.000000 
-0.000000 
0.000000 
0.000000 
0.000000 
-0.000000 
-0.000000 
-0.000000 
0.000000 
-0.000000 
-0.000000 
-0.000000 
-0.116356 
0.000000 
0.000000 
0.000000 
0.000000 
-0.000000 
0.000000 
-0.000000 
-0.000000 
0.000000 
0.116356 
0.000000 
0.000000 
0.000000 
-0.000000 
-0.000000 
-0.116356 
-0.000000 
-0.000000 
0.000000 
0.000000 
0.000000 
-0.000000 
0.000000 
0.000000 
0.116356 
0.000000 
0.000000 
-0.116356 
0.000000 
-0.000000 
-0.000000 
-0.000000 
0.000000 
0.000000 
-0.000000 
-0.116356 
-0.000000 
0.000000 
-0.000000 
-0.000000 
0.000000 
-0.000000 
0.000000 
0.000000 
-0.000000 
0.000000 
0.000000 
-0.116356 
0.000000 
0.000000 
0.000000 
-0.000000 
0.000000 
0.000000 
-0.000000 
-0.000000 
0.000000 
-0.000000 
-0.116356 
-0.000000 
0.000000 
0.000000 
-0.000000 
0.000000 
-0.000000 
0.000000 
-0.000000 
0.116356 
-0.000000 
-0.000000 
-0.000000 
-0.000000 
-0.000000 
0.116356 
-0.000000 
-0.116356 
-0.000000 
-0.000000 
-0.000000 
-0.116356 
-0.000000 
-0.000000 
-0.000000 
-0.000000 
-0.000000 
0.000000 
0.000000 
0.000000 
0.000000 
0.000000 
0.000000 
0.000000 
-0.000000 
0.000000 
-0.000000 
-0.116356 
0.000000 
-0.116356 
-0.116356 
-0.000000 
-0.000000 
-0.000000 
-0.000000 
-0.000000 
-0.000000 
-0.000000 
-0.000000 
-0.000000 
0.000000 
-0.116356 
-0.000000 
0.000000 
-0.000000 
-0.000000 
-0.000000 
0.000000 
0.000000 
0.000000 
-0.000000 
-0.000000 
0.116356 
-0.116356 
-0.116356 
0.000000 
-0.000000 
-0.000000 
-0.000000 
0.116356 
0.000000 
-0.116356 
-0.000000 
0.116356 
0.000000 
-0.000000 
-0.116356 
0.232713 
-0.000000 
0.000000 
-0.116356 
-0.000000 
0.000000 
-0.000000 
0.000000 
0.000000 
-0.000000 
-0.000000 
0.116356 
-0.000000 
0.116356 
-0.000000 
-0.000000 
-0.000000 
0.000000 
0.000000 
-0.116356 
0.000000 
0.000000 
-0.000000 
-0.000000 
0.000000 
0.000000 
-0.000000 
-0.116356 
-0.000000 
-0.000000 
-0.000000 
-0.116356 
0.116356 
-0.000000 
-0.000000 
-0.000000 
-0.116356 
0.000000 
0.000000 
0.000000 
0.000000 
-0.116356 
-0.116356 
-0.000000 
0.000000 
0.000000 
-0.000000 
0.000000 
-0.000000 
-0.116356 
0.000000 
0.000000 
0.000000 
-0.000000 
-0.000000 
-0.000000 
-0.000000 
-0.000000 
0.000000 
0.116356 
0.000000 
-0.000000 
-0.000000 
-0.000000 
0.000000 
-0.000000 
-0.116356 
-0.116356 
0.000000 
-0.000000 
-0.116356 
-0.000000 
-0.000000 
0.000000 
-0.000000 
-0.000000 
-0.000000 
-0.000000 
-0.000000 
0.000000 
-0.000000 
0.000000 
0.000000 
0.116356 
-0.000000 
0.000000 
0.116356 
-0.000000 
0.116356 
0.000000 
-0.000000 
-0.000000 
-0.000000 
0.000000 
-0.000000 
-0.000000 
0.000000 
-0.000000 
-0.000000 
0.000000 
0.000000 
-0.000000 
0.000000 
-0.116356 
0.000000 
0.000000 
0.000000 
-0.000000 
-0.000000 
0.232713 
0.116356 
0.000000 
-0.000000 
-0.000000 
-0.000000 
-0.000000 
0.000000 
-0.116356 
-0.000000 
-0.116356 
-0.000000 
-0.000000 
0.000000 
0.000000 
0.232713 
-0.000000 
0.000000 
0.000000 
-0.000000 
0.000000 
0.116356 
-0.000000 
-0.000000 
-0.000000 
-0.000000 
-0.000000 
-0.000000 
0.116356 
0.116356 
-0.000000 
-0.000000 
-0.000000 
0.000000 
0.000000 
0.000000 
-0.116356 
0.000000 
0.000000 
0.116356 
-0.000000 
-0.000000 
0.000000 
0.116356 
-0.116356 
0.000000 
0.000000 
0.000000 
0.000000 
-0.116356 
0.000000 
-0.116356 
0.000000 
0.000000 
0.000000 
-0.000000 
-0.000000 
0.116356 
-0.000000 
-0.116356 
0.000000 
0.116356 
-0.000000 
0.000000 
-0.000000 
0.000000 
0.116356 
0.000000 
-0.000000 
-0.000000 
-0.116356 
-0.000000 
-0.000000 
0.000000 
-0.000000 
0.116356 
0.116356 
-0.116356 
0.000000 
0.116356 
-0.000000 
-0.000000 
0.000000 
0.000000 
0.000000 
-0.000000 
0.000000 
0.116356 
-0.000000 
-0.116356 
0.116356 
-0.116356 
-0.000000 
0.000000 
0.116356 
0.000000 
0.116356 
-0.000000 
-0.000000 
-0.116356 
-0.000000 
-0.000000 
0.000000 
-0.000000 
0.000000 
0.000000 
0.000000 
-0.116356 
0.000000 
-0.000000 
-0.000000 
0.000000 
0.000000 
-0.116356 
0.000000 
0.000000 
0.000000 
0.000000 
-0.000000 
0.116356 
-0.000000 
-0.000000 
-0.000000 
0.000000 
0.000000 
-0.000000 
-0.000000 
0.000000 
-0.116356 
-0.000000 
0.116356 
0.000000 
-0.000000 
-0.116356 
-0.000000 
0.000000 
-0.116356 
0.000000 
-0.000000 
0.000000 
-0.000000 
-0.116356 
0.000000 
-0.000000 
-0.000000 
-0.000000 
0.000000 
-0.000000 
-0.000000 
-0.000000 
-0.000000 
-0.116356 
-0.000000 
0.000000 
-0.000000 
-0.000000 
0.116356 
0.000000 
-0.000000 
-0.000000 
-0.116356 
0.000000 
-0.116356 
0.116356 
0.000000 
-0.116356 
-0.000000 
-0.000000 
-0.000000 
-0.000000 
-0.000000 
0.000000 
-0.000000 
0.000000 
-0.000000 
-0.000000 
0.000000 
-0.116356 
0.000000 
-0.000000 
0.000000 
-0.116356 
-0.000000 
-0.000000 
0.116356 
-0.000000 
-0.000000 
-0.000000 
0.000000 
0.000000 
0.000000 
-0.000000 
-0.116356 
0.000000 
-0.000000 
0.000000 
-0.000000 
-0.000000 
-0.116356 
0.116356 
-0.000000 
-0.000000 
0.000000 
-0.000000 
0.000000 
-0.000000 
-0.000000 
-0.000000 
0.000000 
-0.116356 
0.000000 
0.000000 
-0.000000 
-0.000000 
-0.116356 
-0.116356 
0.000000 
0.000000 
-0.000000 
0.000000 
0.000000 
-0.000000 
0.000000 
0.000000 
-0.000000 
0.000000 
-0.000000 
0.116356 
-0.000000 
-0.116356 
0.000000 
0.000000 
-0.000000 
0.000000 
0.000000 
0.000000 
0.000000 
-0.116356 
0.000000 
0.116356 
-0.000000 
0.000000 
-0.000000 
-0.116356 
-0.000000 
0.000000 
-0.000000 
-0.000000 
0.000000 
-0.000000 
-0.000000 
0.000000 
-0.000000 
0.000000 
0.000000 
-0.000000 
0.000000 
0.116356 
-0.000000 
-0.000000 
-0.000000 
-0.000000 
-0.000000 
0.000000 
-0.000000 
-0.000000 
-0.116356 
0.000000 
0.000000 
-0.000000 
0.000000 
0.116356 
0.000000 
0.000000 
0.000000 
-0.000000 
-0.000000 
-0.000000 
0.000000 
-0.000000 
-0.000000 
0.000000 
-0.000000 
0.000000 
0.000000 
0.000000 
0.000000 
-0.116356 
-0.116356 
-0.000000 
0.000000 
-0.000000 
-0.000000 
-0.000000 
0.116356 
-0.000000 
-0.000000 
0.000000 
-0.000000 
-0.000000 
0.000000 
-0.000000 
-0.000000 
0.000000 
-0.000000 
0.000000 
0.000000 
-0.000000 
-0.000000 
0.116356 
-0.000000 
-0.116356 
0.000000 
-0.116356 
-0.000000 
-0.116356 
-0.000000 
0.000000 
0.000000 
-0.116356 
-0.000000 
0.116356 
0.000000 
-0.000000 
0.000000 
-0.000000 
-0.000000 
0.116356 
-0.000000 
0.000000 
-0.000000 
-0.000000 
-0.000000 
-0.000000 
0.116356 
-0.000000 
0.000000 
0.000000 
0.000000 
-0.000000 
-0.000000 
-0.000000 
-0.000000 
0.000000 
-0.000000 
0.116356 
-0.116356 
-0.116356 
-0.000000 
-0.000000 
-0.000000 
0.000000 
-0.000000 
-0.116356 
-0.116356 
-0.000000 
-0.000000 
-0.000000 
-0.000000 
-0.000000 
0.000000 
0.000000 
-0.000000 
-0.000000 
-0.000000 
-0.000000 
-0.116356 
0.000000 
0.000000 
-0.000000 
-0.000000 
-0.000000 
0.000000 
-0.000000 
-0.000000 
-0.000000 
-0.000000 
-0.000000 
0.000000 
0.000000 
0.000000 
-0.000000 
-0.116356 
0.000000 
-0.000000 
0.000000 
0.000000 
-0.000000 
-0.000000 
0.000000 
0.116356 
-0.000000 
-0.000000 
-0.000000 
-0.000000 
-0.000000 
-0.116356 
0.000000 
0.000000 
-0.116356 
-0.116356 
-0.000000 
0.116356 
0.000000 
0.000000 
0.000000 
-0.000000 
0.000000 
0.000000 
-0.000000 
-0.000000 
-0.000000 
0.000000 
0.000000 
0.232713 
0.116356 
-0.000000 
-0.000000 
0.000000 
-0.000000 
0.000000 
0.116356 
-0.116356 
0.000000 
-0.116356 
0.116356 
-0.000000 
0.000000 
0.000000 
-0.000000 
0.116356 
-0.000000 
0.116356 
-0.000000 
-0.000000 
-0.000000 
-0.000000 
-0.000000 
-0.000000 
-0.000000 
-0.000000 
-0.000000 
-0.000000 
0.000000 
0.116356 
0.116356 
0.000000 
-0.000000 
0.000000 
-0.116356 
-0.000000 
0.116356 
-0.000000 
0.000000 
0.116356 
-0.000000 
0.000000 
-0.116356 
-0.000000 
0.000000 
-0.000000 
-0.000000 
0.116356 
-0.116356 
0.000000 
-0.000000 
-0.000000 
-0.000000 
-0.116356 
0.000000 
0.000000 
-0.000000 
-0.000000 
0.000000 
-0.000000 
-0.000000 
0.000000 
0.000000 
-0.000000 
-0.000000 
-0.000000 
-0.000000 
-0.000000 
-0.000000 
0.000000 
-0.000000 
0.000000 
0.232713 
-0.116356 
-0.000000 
-0.000000 
0.000000 
0.000000 
-0.000000 
-0.000000 
0.000000 
0.000000 
0.000000 
-0.116356 
-0.000000 
0.000000 
-0.000000 
0.000000 
0.000000 
-0.116356 
0.000000 
0.000000 
-0.116356 
0.000000 
0.000000 
-0.116356 
0.116356 
0.000000 
0.000000 
0.000000 
-0.000000 
0.000000 
0.000000 
-0.000000 
0.000000 
0.000000 
-0.000000 
0.116356 
0.000000 
-0.000000 
-0.000000 
-0.000000 
-0.000000 
-0.000000 
-0.000000 
0.000000 
0.000000 
0.000000 
-0.000000 
-0.000000 
-0.000000 
0.116356 
-0.000000 
0.116356 
-0.000000 
0.000000 
-0.000000 
0.000000 
0.000000 
0.000000 
-0.000000 
0.000000 
-0.000000 
0.000000 
0.000000 
0.000000 
-0.000000 
0.000000 
-0.000000 
0.000000 
0.000000 
0.000000 
-0.116356 
-0.116356 
0.116356 
-0.000000 
0.116356 
0.116356 
-0.000000 
0.000000 
-0.000000 
-0.000000 
0.000000 
-0.000000 
0.000000 
0.000000 
-0.116356 
-0.000000 
-0.000000 
-0.116356 
-0.000000 
-0.000000 
-0.000000 
0.116356 
-0.000000 
-0.000000 
-0.000000 
0.000000 
-0.000000 
-0.000000 
-0.116356 
-0.000000 
0.000000 
-0.000000 
-0.000000 
-0.000000 
0.116356 
0.000000 
-0.000000 
-0.000000 
0.000000 
-0.116356 
0.000000 
-0.000000 
-0.000000 
0.000000 
-0.000000 
0.116356 
-0.000000 
-0.116356 
-0.000000 
-0.000000 
-0.000000 
0.000000 
-0.000000 
-0.000000 
-0.000000 
-0.000000 
0.116356 
-0.000000 
-0.116356 
0.000000 
0.000000 
0.116356 
-0.000000 
0.000000 
0.000000 
-0.000000 
0.000000 
-0.000000 
-0.000000 
-0.000000 
-0.000000 
0.000000 
0.116356 
0.000000 
-0.000000 
-0.000000 
-0.000000 
-0.000000 
-0.000000 
-0.000000 
0.116356 
-0.000000 
-0.000000 
0.000000 
-0.000000 
-0.116356 
-0.000000 
-0.116356 
0.000000 
-0.000000 
-0.000000 
-0.116356 
-0.116356 
-0.000000 
0.000000 
-0.000000 
-0.000000 
-0.000000 
0.000000 
-0.000000 
-0.000000 
-0.000000 
-0.000000 
0.116356 
0.000000 
-0.000000 
-0.000000 
-0.000000 
-0.000000 
0.116356 
-0.000000 
-0.000000 
0.000000 
-0.000000 
-0.000000 
0.000000 
-0.116356 
0.000000 
-0.000000 
-0.000000 
-0.000000 
-0.116356 
-0.116356 
-0.000000 
-0.000000 
-0.000000 
-0.000000 
0.000000 
0.000000 
0.000000 
0.000000 
0.000000 
-0.000000 
0.000000 
0.116356 
-0.000000 
0.000000 
-0.000000 
-0.000000 
-0.000000 
-0.000000 
-0.000000 
0.000000 
-0.000000 
0.000000 
-0.000000 
-0.000000 
-0.116356 
-0.000000 
-0.116356 
0.000000 
-0.000000 
-0.000000 
-0.116356 
-0.000000 
-0.000000 
0.116356 
0.000000 
-0.000000 
-0.000000 
-0.000000 
0.000000 
0.116356 
0.000000 
-0.116356 
-0.116356 
-0.000000 
-0.000000 
0.000000 
-0.000000 
-0.000000 
-0.000000 
-0.000000 
0.000000 
0.000000 
0.000000 
0.000000 
-0.000000 
-0.116356 
-0.000000 
0.000000 
0.000000 
0.000000 
-0.000000 
0.000000 
0.000000 
0.116356 
0.000000 
-0.000000 
-0.000000 
-0.116356 
-0.000000 
-0.116356 
0.000000 
-0.116356 
-0.000000 
0.116356 
-0.000000 
-0.000000 
0.116356 
0.000000 
0.000000 
-0.000000 
-0.116356 
-0.000000 
0.000000 
-0.000000 
-0.116356 
0.000000 
-0.000000 
-0.000000 
-0.000000 
-0.000000 
0.116356 
-0.000000 
-0.000000 
-0.116356 
-0.116356 
-0.000000 
0.116356 
0.000000 
-0.116356 
0.000000 
0.000000 
-0.000000 
0.000000 
-0.116356 
0.000000 
-0.000000 
0.000000 
-0.000000 
0.000000 
-0.000000 
0.116356 
-0.000000 
0.000000 
-0.000000 
-0.000000 
0.000000 
-0.000000 
0.000000 
-0.000000 
0.000000 
-0.000000 
-0.000000 
-0.000000 
-0.000000 
0.000000 
0.116356 
-0.116356 
-0.000000 
-0.000000 
-0.116356 
-0.000000 
0.116356 
0.000000 
-0.000000 
-0.000000 
-0.000000 
-0.000000 
0.000000 
0.000000 
-0.000000 
0.000000 
0.000000 
-0.000000 
-0.000000 
0.000000 
-0.000000 
0.000000 
-0.000000 
0.000000 
0.000000 
-0.000000 
-0.116356 
0.116356 
-0.000000 
-0.000000 
-0.116356 
-0.000000 
-0.000000 
0.000000 
0.000000 
0.000000 
-0.116356 
-0.000000 
-0.000000 
-0.000000 
-0.000000 
0.116356 
0.000000 
-0.000000 
-0.000000 
0.000000 
-0.000000 
0.000000 
0.000000 
0.232713 
0.000000 
0.000000 
-0.000000 
0.000000 
0.000000 
-0.000000 
-0.000000 
0.000000 
-0.000000 
0.000000 
-0.000000 
0.000000 
0.000000 
-0.116356 
-0.000000 
-0.000000 
-0.116356 
0.000000 
-0.000000 
-0.000000 
-0.000000 
-0.000000 
-0.000000 
-0.000000 
-0.116356 
-0.000000 
-0.000000 
-0.000000 
0.000000 
0.000000 
0.000000 
-0.000000 
-0.116356 
0.000000 
-0.116356 
-0.000000 
0.000000 
0.000000 
-0.000000 
0.116356 
-0.000000 
-0.000000 
-0.000000 
-0.000000 
-0.000000 
-0.000000 
-0.116356 
0.116356 
0.000000 
-0.000000 
0.116356 
0.000000 
-0.000000 
0.116356 
-0.000000 
-0.000000 
0.116356 
0.000000 
-0.000000 
0.000000 
-0.116356 
0.000000 
-0.000000 
0.116356 
0.000000 
-0.000000 
0.000000 
0.000000 
0.000000 
-0.000000 
0.000000 
-0.000000 
-0.000000 
-0.000000 
-0.000000 
0.000000 
-0.116356 
-0.000000 
0.000000 
0.116356 
-0.000000 
-0.000000 
-0.000000 
-0.000000 
0.000000 
0.000000 
0.000000 
-0.116356 
0.116356 
0.000000 
0.116356 
-0.000000 
-0.000000 
-0.116356 
0.000000 
0.000000 
-0.000000 
0.000000 
-0.116356 
0.000000 
0.000000 
0.000000 
-0.000000 
-0.000000 
0.000000 
-0.000000 
0.000000 
-0.000000 
0.000000 
-0.000000 
-0.000000 
0.000000 
0.000000 
-0.116356 
-0.116356 
-0.000000 
-0.000000 
-0.000000 
0.000000 
-0.000000 
-0.000000 
0.000000 
-0.000000 
-0.000000 
-0.000000 
0.000000 
-0.000000 
0.000000 
-0.000000 
0.116356 
0.116356 
-0.000000 
0.000000 
-0.000000 
0.000000 
0.116356 
-0.000000 
0.000000 
0.000000 
0.000000 
-0.000000 
0.116356 
-0.116356 
0.116356 
0.000000 
0.000000 
0.116356 
-0.000000 
-0.000000 
-0.116356 
0.116356 
0.000000 
0.116356 
-0.000000 
0.000000 
0.000000 
-0.000000 
0.000000 
-0.000000 
-0.116356 
0.000000 
0.116356 
-0.000000 
-0.000000 
0.000000 
0.000000 
-0.000000 
-0.116356 
0.000000 
-0.000000 
-0.000000 
0.000000 
-0.116356 
-0.000000 
-0.000000 
0.000000 
-0.000000 
-0.000000 
0.000000 
-0.000000 
0.000000 
0.000000 
0.000000 
0.000000 
0.116356 
0.000000 
-0.000000 
0.000000 
0.000000 
-0.000000 
-0.116356 
0.000000 
0.000000 
-0.000000 
-0.000000 
-0.000000 
0.000000 
-0.000000 
-0.000000 
-0.000000 
-0.000000 
0.000000 
0.000000 
-0.000000 
0.000000 
0.000000 
-0.000000 
-0.000000 
0.000000 
-0.116356 
-0.000000 
-0.000000 
-0.000000 
0.000000 
-0.000000 
-0.000000 
0.000000 
-0.000000 
-0.000000 
-0.000000 
0.000000 
-0.000000 
-0.000000 
-0.000000 
-0.000000 
-0.116356 
0.000000 
-0.000000 
-0.000000 
-0.000000 
0.116356 
-0.000000 
0.000000 
0.116356 
-0.000000 
-0.116356 
0.116356 
0.000000 
-0.000000 
0.116356 
0.116356 
-0.000000 
0.000000 
-0.000000 
0.116356 
-0.116356 
-0.000000 
-0.116356 
0.000000 
0.000000 
0.000000 
0.000000 
-0.000000 
-0.000000 
0.000000 
-0.000000 
0.000000 
0.000000 
0.000000 
-0.116356 
0.000000 
0.000000 
-0.000000 
-0.000000 
0.000000 
-0.000000 
-0.000000 
0.000000 
-0.116356 
0.000000 
-0.000000 
0.000000 
-0.000000 
0.232713 
-0.000000 
-0.000000 
0.000000 
-0.000000 
0.000000 
0.000000 
-0.116356 
-0.000000 
-0.000000 
0.000000 
0.000000 
-0.000000 
-0.000000 
-0.000000 
-0.000000 
-0.116356 
0.000000 
0.000000 
0.000000 
0.000000 
-0.000000 
-0.116356 
0.000000 
0.000000 
0.000000 
-0.000000 
-0.000000 
-0.000000 
0.000000 
0.000000 
-0.116356 
0.000000 
0.116356 
-0.000000 
-0.000000 
0.000000 
-0.000000 
0.000000 
0.000000 
-0.000000 
0.000000 
-0.116356 
0.000000 
0.000000 
-0.000000 
-0.000000 
0.000000 
0.000000 
-0.000000 
0.116356 
-0.000000 
0.000000 
-0.000000 
0.000000 
-0.116356 
0.000000 
-0.000000 
0.000000 
0.232713 
0.000000 
-0.116356 
0.000000 
-0.000000 
0.000000 
-0.000000 
0.116356 
0.000000 
0.000000 
-0.116356 
0.000000 
0.000000 
0.000000 
0.116356 
0.000000 
-0.000000 
0.116356 
0.000000 
-0.116356 
-0.000000 
-0.000000 
0.232713 
-0.000000 
-0.000000 
-0.000000 
-0.116356 
-0.000000 
-0.000000 
-0.116356 
-0.116356 
-0.000000 
-0.116356 
-0.000000 
-0.000000 
0.000000 
-0.000000 
-0.000000 
-0.116356 
0.000000 
-0.116356 
-0.000000 
-0.000000 
0.000000 
0.000000 
0.000000 
0.116356 
-0.000000 
-0.116356 
-0.000000 
-0.000000 
-0.000000 
-0.000000 
0.000000 
-0.000000 
0.116356 
0.000000 
-0.000000 
0.116356 
0.116356 
-0.116356 
0.000000 
0.000000 
-0.000000 
-0.000000 
0.116356 
0.116356 
-0.116356 
0.000000 
-0.116356 
0.000000 
-0.000000 
0.116356 
0.000000 
-0.000000 
0.000000 
-0.000000 
-0.000000 
-0.116356 
0.116356 
-0.116356 
-0.116356 
-0.116356 
-0.000000 
-0.000000 
0.000000 
0.116356 
-0.000000 
-0.116356 
-0.000000 
-0.000000 
-0.000000 
-0.116356 
-0.116356 
0.000000 
-0.000000 
0.000000 
-0.000000 
0.116356 
-0.000000 
-0.000000 
0.000000 
0.000000 
0.000000 
-0.116356 
-0.000000 
0.000000 
-0.000000 
0.000000 
0.116356 
-0.000000 
0.000000 
-0.000000 
-0.000000 
0.000000 
0.000000 
-0.000000 
-0.000000 
0.116356 
-0.000000 
-0.116356 
0.000000 
0.000000 
-0.000000 
0.116356 
0.000000 
-0.000000 
-0.000000 
-0.116356 
0.000000 
-0.116356 
0.000000 
0.000000 
-0.000000 
-0.000000 
-0.000000 
0.116356 
-0.000000 
-0.116356 
0.000000 
0.000000 
-0.000000 
-0.000000 
-0.000000 
0.000000 
-0.000000 
-0.000000 
-0.000000 
-0.116356 
-0.116356 
0.000000 
0.116356 
-0.000000 
0.000000 
-0.000000 
-0.000000 
0.000000 
-0.000000 
0.000000 
0.000000 
-0.000000 
0.000000 
-0.000000 
0.000000 
-0.000000 
0.000000 
-0.000000 
-0.116356 
0.000000 
-0.000000 
0.000000 
0.232713 
0.116356 
-0.000000 
-0.116356 
0.116356 
-0.116356 
0.000000 
-0.000000 
0.116356 
0.000000 
0.116356 
0.232713 
0.000000 
-0.000000 
-0.000000 
-0.116356 
0.000000 
-0.000000 
-0.000000 
0.000000 
-0.000000 
-0.116356 
0.116356 
0.116356 
-0.000000 
-0.000000 
0.000000 
-0.000000 
-0.000000 
0.000000 
-0.000000 
-0.000000 
0.000000 
0.116356 
0.000000 
-0.000000 
-0.000000 
-0.000000 
-0.116356 
0.116356 
0.000000 
0.116356 
-0.000000 
-0.116356 
-0.000000 
-0.116356 
0.000000 
0.116356 
-0.116356 
0.000000 
-0.000000 
0.000000 
0.000000 
0.116356 
0.000000 
-0.000000 
-0.116356 
-0.000000 
-0.000000 
-0.000000 
-0.000000 
0.000000 
0.000000 
-0.000000 
0.000000 
-0.116356 
0.000000 
0.000000 
-0.116356 
-0.116356 
-0.000000 
-0.000000 
-0.000000 
0.000000 
0.000000 
0.000000 
-0.116356 
-0.000000 
0.000000 
0.000000 
0.116356 
0.116356 
-0.000000 
0.000000 
0.000000 
-0.000000 
0.000000 
-0.116356 
-0.116356 
0.000000 
0.000000 
-0.116356 
-0.000000 
-0.000000 
0.116356 
-0.000000 
-0.000000 
-0.000000 
-0.116356 
0.116356 
-0.116356 
-0.000000 
0.000000 
-0.116356 
-0.000000 
-0.000000 
-0.000000 
0.000000 
-0.000000 
-0.000000 
-0.000000 
-0.000000 
-0.116356 
-0.116356 
0.000000 
0.116356 
0.116356 
-0.000000 
0.116356 
0.116356 
0.000000 
0.000000 
-0.000000 
-0.000000 
-0.116356 
-0.000000 
-0.000000 
0.116356 
-0.000000 
0.000000 
-0.116356 
0.000000 
0.000000 
0.000000 
-0.000000 
-0.000000 
0.000000 
0.000000 
-0.000000 
0.116356 
-0.116356 
0.000000 
0.000000 
-0.000000 
-0.116356 
-0.116356 
0.116356 
0.116356 
0.000000 
-0.116356 
-0.000000 
0.000000 
0.116356 
-0.000000 
0.000000 
-0.116356 
0.116356 
0.116356 
0.000000 
-0.116356 
-0.000000 
-0.116356 
0.000000 
-0.000000 
-0.000000 
0.116356 
-0.000000 
0.000000 
0.000000 
0.000000 
-0.000000 
-0.000000 
-0.116356 
0.000000 
-0.000000 
0.232713 
0.000000 
-0.000000 
-0.116356 
0.116356 
-0.116356 
0.000000 
-0.000000 
0.116356 
-0.000000 
-0.000000 
0.116356 
0.000000 
-0.000000 
-0.000000 
0.000000 
0.000000 
-0.000000 
-0.116356 
-0.000000 
-0.116356 
-0.116356 
-0.000000 
-0.000000 
0.116356 
0.116356 
-0.000000 
-0.116356 
-0.000000 
-0.000000 
-0.000000 
0.000000 
0.000000 
-0.000000 
-0.000000 
0.000000 
-0.116356 
-0.116356 
-0.000000 
0.232713 
0.116356 
-0.000000 
0.000000 
0.000000 
0.116356 
-0.000000 
-0.116356 
-0.000000 
0.116356 
-0.000000 
0.000000 
0.116356 
-0.000000 
-0.000000 
0.000000 
0.000000 
-0.000000 
0.000000 
-0.000000 
-0.000000 
-0.000000 
-0.000000 
-0.116356 
0.000000 
-0.000000 
-0.000000 
0.000000 
-0.000000 
0.000000 
0.000000 
-0.000000 
-0.000000 
-0.000000 
0.000000 
-0.000000 
0.000000 
0.000000 
0.116356 
0.000000 
-0.116356 
-0.000000 
-0.000000 
0.116356 
-0.116356 
-0.116356 
-0.000000 
-0.000000 
0.232713 
0.116356 
-0.116356 
0.000000 
-0.000000 
-0.000000 
-0.116356 
0.116356 
0.000000 
-0.000000 
0.232713 
0.000000 
-0.000000 
0.000000 
-0.000000 
0.000000 
0.000000 
-0.116356 
-0.000000 
-0.000000 
0.116356 
0.000000 
0.000000 
0.116356 
-0.116356 
-0.000000 
0.000000 
0.000000 
0.000000 
-0.116356 
0.000000 
-0.000000 
-0.000000 
0.000000 
-0.116356 
-0.000000 
-0.116356 
0.000000 
0.000000 
0.232713 
0.000000 
0.116356 
-0.000000 
0.000000 
0.116356 
0.000000 
0.116356 
0.000000 
0.000000 
0.116356 
-0.000000 
0.000000 
0.000000 
0.000000 
-0.000000 
0.000000 
-0.116356 
0.000000 
-0.000000 
0.000000 
-0.116356 
-0.000000 
-0.116356 
0.000000 
-0.000000 
-0.000000 
0.000000 
-0.000000 
0.000000 
-0.000000 
-0.116356 
-0.000000 
0.000000 
-0.000000 
0.000000 
-0.000000 
-0.000000 
0.116356 
-0.116356 
0.000000 
0.000000 
0.000000 
0.000000 
-0.000000 
0.000000 
0.000000 
0.116356 
0.116356 
-0.000000 
-0.000000 
0.000000 
-0.000000 
0.000000 
0.000000 
0.000000 
0.000000 
-0.116356 
0.116356 
-0.000000 
0.000000 
0.000000 
0.000000 
-0.000000 
0.000000 
-0.000000 
-0.000000 
0.116356 
0.000000 
-0.000000 
-0.000000 
-0.000000 
-0.000000 
-0.000000 
0.000000 
0.116356 
-0.000000 
0.000000 
0.232713 
0.000000 
-0.000000 
-0.000000 
-0.000000 
0.000000 
0.116356 
-0.000000 
-0.116356 
0.000000 
0.000000 
-0.000000 
-0.000000 
0.000000 
0.000000 
0.000000 
-0.000000 
0.000000 
-0.000000 
0.116356 
-0.000000 
0.116356 
-0.000000 
-0.116356 
-0.116356 
-0.000000 
-0.000000 
0.000000 
0.000000 
0.000000 
-0.116356 
-0.000000 
0.000000 
0.000000 
-0.000000 
-0.000000 
0.000000 
-0.000000 
0.000000 
-0.116356 
0.116356 
-0.000000 
0.000000 
0.116356 
-0.000000 
-0.116356 
-0.000000 
-0.116356 
-0.000000 
0.000000 
-0.000000 
-0.000000 
0.116356 
-0.000000 
0.116356 
-0.000000 
0.000000 
0.000000 
-0.000000 
-0.000000 
0.000000 
-0.000000 
-0.000000 
-0.000000 
-0.000000 
0.000000 
-0.116356 
0.000000 
-0.116356 
-0.000000 
0.116356 
-0.000000 
-0.000000 
0.000000 
-0.000000 
-0.116356 
0.000000 
-0.000000 
0.116356 
0.000000 
-0.000000 
-0.000000 
-0.000000 
-0.000000 
0.116356 
0.000000 
0.000000 
0.000000 
0.232713 
-0.116356 
0.000000 
0.116356 
0.000000 
0.000000 
-0.000000 
0.000000 
-0.000000 
-0.116356 
0.000000 
0.000000 
-0.000000 
-0.116356 
0.000000 
-0.000000 
0.000000 
-0.000000 
-0.000000 
0.000000 
-0.000000 
0.000000 
0.000000 
-0.116356 
0.116356 
0.000000 
0.116356 
0.116356 
-0.000000 
-0.116356 
-0.000000 
0.000000 
-0.000000 
-0.000000 
0.000000 
-0.000000 
0.000000 
0.000000 
0.000000 
0.000000 
-0.116356 
-0.000000 
0.116356 
-0.000000 
0.000000 
-0.000000 
-0.116356 
-0.000000 
-0.116356 
-0.116356 
-0.116356 
-0.000000 
0.000000 
-0.116356 
0.000000 
0.232713 
-0.000000 
-0.000000 
-0.116356 
-0.000000 
0.116356 
-0.000000 
0.116356 
-0.116356 
-0.000000 
-0.116356 
-0.000000 
-0.000000 
-0.000000 
0.000000 
0.000000 
0.116356 
0.000000 
-0.000000 
-0.000000 
0.000000 
-0.116356 
-0.000000 
-0.000000 
-0.000000 
-0.000000 
0.000000 
-0.000000 
-0.000000 
-0.116356 
-0.000000 
-0.000000 
0.000000 
-0.000000 
0.000000 
0.000000 
-0.000000 
-0.000000 
0.116356 
0.116356 
-0.000000 
-0.000000 
-0.000000 
-0.000000 
0.000000 
-0.000000 
0.000000 
-0.116356 
-0.116356 
0.116356 
0.000000 
0.000000 
0.116356 
-0.000000 
-0.000000 
0.000000 
-0.116356 
-0.000000 
-0.000000 
0.000000 
-0.116356 
0.000000 
-0.000000 
-0.000000 
-0.000000 
-0.116356 
-0.000000 
-0.000000 
0.116356 
-0.116356 
-0.000000 
-0.000000 
-0.000000 
-0.000000 
-0.116356 
0.116356 
-0.000000 
-0.000000 
-0.000000 
0.116356 
-0.000000 
-0.116356 
-0.000000 
-0.000000 
0.116356 
0.000000 
-0.000000 
-0.000000 
-0.000000 
-0.000000 
0.000000 
0.000000 
-0.000000 
0.000000 
-0.116356 
0.000000 
-0.000000 
0.116356 
-0.000000 
0.116356 
0.000000 
-0.116356 
-0.000000 
-0.000000 
0.000000 
-0.000000 
0.116356 
-0.000000 
-0.000000 
-0.000000 
-0.000000 
-0.000000 
-0.000000 
-0.000000 
-0.116356 
0.000000 
0.000000 
-0.000000 
-0.000000 
0.000000 
-0.116356 
-0.000000 
-0.000000 
0.000000 
0.000000 
0.000000 
-0.000000 
0.116356 
-0.116356 
0.000000 
-0.000000 
-0.000000 
-0.000000 
0.000000 
-0.116356 
0.000000 
-0.000000 
0.000000 
0.000000 
-0.116356 
0.000000 
0.000000 
0.000000 
-0.000000 
-0.000000 
-0.116356 
-0.000000 
-0.000000 
0.000000 
0.000000 
0.000000 
-0.000000 
0.000000 
-0.000000 
-0.116356 
0.000000 
-0.000000 
0.000000 
-0.116356 
0.116356 
0.116356 
0.000000 
0.000000 
-0.000000 
-0.000000 
0.000000 
-0.116356 
-0.000000 
0.000000 
-0.116356 
-0.000000 
-0.000000 
-0.000000 
-0.000000 
0.000000 
-0.000000 
-0.000000 
-0.000000 
0.000000 
-0.116356 
0.116356 
-0.116356 
-0.000000 
-0.116356 
0.000000 
-0.116356 
0.000000 
0.000000 
-0.000000 
-0.000000 
0.000000 
-0.000000 
0.000000 
-0.116356 
0.000000 
0.000000 
0.000000 
0.232713 
-0.000000 
-0.000000 
-0.116356 
-0.000000 
-0.000000 
-0.000000 
0.000000 
-0.000000 
-0.116356 
0.000000 
-0.116356 
-0.000000 
0.000000 
-0.000000 
-0.000000 
0.000000 
-0.000000 
-0.116356 
-0.000000 
0.116356 
0.000000 
-0.116356 
-0.000000 
-0.000000 
-0.000000 
-0.000000 
-0.000000 
-0.116356 
-0.000000 
0.000000 
-0.000000 
-0.000000 
-0.000000 
-0.000000 
-0.116356 
0.000000 
-0.000000 
0.116356 
0.000000 
-0.116356 
-0.000000 
0.000000 
-0.000000 
-0.000000 
0.116356 
-0.000000 
-0.116356 
-0.000000 
0.000000 
0.116356 
0.000000 
-0.232713 
-0.000000 
-0.000000 
-0.000000 
-0.000000 
-0.000000 
-0.000000 
-0.116356 
0.000000 
0.116356 
0.116356 
0.000000 
0.000000 
-0.000000 
0.000000 
-0.116356 
0.116356 
-0.000000 
0.000000 
-0.000000 
0.000000 
0.000000 
0.116356 
0.116356 
0.000000 
0.000000 
-0.116356 
0.000000 
0.116356 
0.000000 
0.116356 
-0.116356 
-0.000000 
0.000000 
0.000000 
0.000000 
0.000000 
-0.000000 
-0.000000 
0.116356 
0.232713 
0.000000 
0.000000 
-0.000000 
0.000000 
0.116356 
0.000000 
-0.000000 
0.000000 
-0.000000 
-0.000000 
0.000000 
0.000000 
0.000000 
0.116356 
-0.000000 
-0.000000 
-0.000000 
-0.000000 
-0.000000 
0.000000 
0.000000 
0.000000 
-0.000000 
0.000000 
-0.116356 
-0.000000 
0.000000 
-0.000000 
-0.000000 
-0.000000 
0.116356 
-0.000000 
-0.000000 
-0.000000 
-0.000000 
0.000000 
-0.116356 
-0.116356 
-0.116356 
-0.000000 
-0.000000 
0.116356 
0.000000 
-0.000000 
0.000000 
0.000000 
0.000000 
-0.000000 
0.000000 
-0.000000 
-0.000000 
0.000000 
0.000000 
0.116356 
-0.000000 
0.116356 
-0.000000 
0.000000 
-0.116356 
-0.000000 
0.000000 
-0.000000 
-0.000000 
-0.116356 
-0.000000 
0.000000 
0.000000 
0.116356 
-0.000000 
-0.000000 
-0.000000 
-0.000000 
-0.000000 
0.000000 
-0.000000 
0.116356 
0.000000 
-0.000000 
-0.116356 
-0.000000 
0.000000 
0.000000 
-0.000000 
-0.000000 
0.000000 
0.000000 
0.116356 
-0.116356 
0.000000 
0.000000 
0.000000 
0.000000 
0.000000 
-0.000000 
0.000000 
-0.000000 
0.000000 
-0.000000 
-0.000000 
-0.000000 
-0.000000 
-0.116356 
0.000000 
0.116356 
0.000000 
0.116356 
-0.116356 
-0.116356 
-0.000000 
0.116356 
0.000000 
-0.116356 
-0.000000 
0.000000 
-0.000000 
0.116356 
0.000000 
0.000000 
-0.000000 
-0.116356 
-0.116356 
-0.000000 
-0.000000 
-0.116356 
-0.116356 
-0.000000 
-0.000000 
0.000000 
-0.000000 
-0.000000 
0.000000 
-0.000000 
-0.000000 
0.000000 
-0.116356 
-0.000000 
0.116356 
-0.116356 
-0.000000 
-0.116356 
-0.000000 
-0.000000 
0.000000 
0.116356 
-0.000000 
0.000000 
0.000000 
0.000000 
-0.000000 
0.000000 
0.116356 
-0.000000 
-0.116356 
0.000000 
0.116356 
0.000000 
0.000000 
-0.000000 
-0.000000 
0.116356 
-0.116356 
-0.000000 
-0.000000 
-0.000000 
-0.000000 
-0.116356 
-0.000000 
-0.000000 
-0.000000 
-0.000000 
-0.000000 
-0.000000 
0.116356 
0.000000 
0.000000 
-0.000000 
-0.000000 
0.000000 
0.232713 
0.116356 
0.116356 
0.000000 
-0.000000 
-0.000000 
0.000000 
-0.116356 
-0.000000 
-0.000000 
0.000000 
-0.000000 
-0.000000 
-0.000000 
-0.000000 
-0.000000 
0.000000 
0.000000 
-0.000000 
0.000000 
-0.000000 
-0.000000 
0.000000 
-0.000000 
0.116356 
-0.000000 
-0.000000 
0.116356 
0.116356 
-0.000000 
-0.000000 
-0.000000 
-0.000000 
0.000000 
-0.116356 
-0.000000 
-0.000000 
-0.000000 
0.000000 
-0.116356 
0.000000 
0.000000 
0.116356 
0.000000 
-0.000000 
0.000000 
0.116356 
-0.000000 
-0.000000 
0.116356 
-0.000000 
0.000000 
0.000000 
0.000000 
-0.000000 
-0.000000 
-0.000000 
0.000000 
-0.000000 
-0.000000 
-0.000000 
-0.000000 
-0.116356 
-0.000000 
-0.000000 
0.000000 
0.000000 
0.000000 
-0.000000 
-0.000000 
0.000000 
0.000000 
0.116356 
-0.000000 
0.116356 
0.000000 
-0.000000 
-0.116356 
0.000000 
0.116356 
-0.000000 
-0.000000 
0.000000 
0.000000 
-0.116356 
-0.116356 
0.000000 
-0.000000 
0.000000 
-0.000000 
0.116356 
0.000000 
0.116356 
-0.000000 
-0.000000 
0.000000 
-0.000000 
-0.000000 
-0.116356 
0.116356 
0.000000 
0.000000 
0.116356 
0.116356 
-0.000000 
0.000000 
-0.000000 
-0.000000 
0.000000 
-0.000000 
-0.000000 
-0.116356 
-0.000000 
-0.000000 
-0.000000 
0.000000 
-0.000000 
-0.000000 
0.116356 
-0.000000 
0.000000 
-0.000000 
0.116356 
0.000000 
0.232713 
-0.000000 
0.000000 
0.116356 
0.000000 
-0.000000 
-0.000000 
-0.116356 
0.000000 
-0.116356 
-0.116356 
-0.116356 
0.000000 
-0.000000 
0.116356 
-0.000000 
-0.000000 
-0.000000 
-0.116356 
-0.000000 
0.000000 
0.000000 
0.000000 
-0.000000 
0.000000 
0.000000 
-0.000000 
0.000000 
0.000000 
0.000000 
0.000000 
-0.000000 
0.000000 
-0.000000 
0.116356 
-0.000000 
0.000000 
0.000000 
-0.000000 
0.000000 
0.000000 
-0.000000 
0.116356 
-0.000000 
-0.000000 
0.000000 
-0.000000 
-0.000000 
0.000000 
0.000000 
-0.000000 
-0.000000 
-0.000000 
0.000000 
0.000000 
-0.000000 
-0.116356 
0.116356 
-0.000000 
-0.000000 
-0.000000 
-0.000000 
0.000000 
0.116356 
0.000000 
0.000000 
0.116356 
0.000000 
0.116356 
0.000000 
-0.116356 
-0.000000 
-0.000000 
-0.000000 
0.000000 
-0.000000 
0.000000 
0.000000 
0.116356 
-0.000000 
-0.000000 
-0.000000 
-0.000000 
0.000000 
0.000000 
-0.000000 
-0.000000 
0.000000 
0.000000 
0.000000 
-0.000000 
0.000000 
-0.000000 
0.116356 
0.000000 
-0.000000 
0.000000 
-0.000000 
-0.000000 
-0.000000 
-0.000000 
-0.000000 
-0.000000 
-0.000000 
0.000000 
0.000000 
0.000000 
-0.000000 
0.000000 
-0.000000 
-0.116356 
-0.116356 
-0.000000 
-0.116356 
0.116356 
-0.000000 
-0.000000 
0.116356 
-0.116356 
0.000000 
0.000000 
0.000000 
0.000000 
-0.000000 
-0.000000 
0.000000 
-0.000000 
-0.000000 
0.000000 
0.116356 
0.000000 
0.000000 
-0.000000 
-0.000000 
-0.000000 
0.000000 
-0.000000 
0.000000 
0.000000 
0.000000 
-0.000000 
0.000000 
-0.000000 
0.116356 
-0.000000 
0.000000 
-0.000000 
0.116356 
-0.000000 
-0.000000 
-0.116356 
0.000000 
0.000000 
-0.000000 
-0.000000 
-0.000000 
-0.000000 
-0.000000 
0.000000 
0.000000 
0.000000 
0.000000 
-0.000000 
-0.000000 
-0.000000 
-0.000000 
-0.000000 
-0.000000 
0.116356 
-0.000000 
-0.000000 
-0.000000 
0.000000 
-0.000000 
0.000000 
-0.000000 
0.000000 
-0.000000 
-0.000000 
-0.116356 
-0.116356 
0.116356 
0.000000 
-0.000000 
0.000000 
0.000000 
-0.000000 
0.000000 
-0.116356 
0.116356 
-0.000000 
-0.116356 
0.116356 
0.000000 
0.116356 
0.000000 
0.000000 
-0.116356 
0.000000 
0.000000 
0.000000 
0.000000 
-0.000000 
0.000000 
0.000000 
-0.000000 
-0.000000 
0.000000 
0.000000 
-0.000000 
-0.000000 
-0.116356 
-0.000000 
0.232713 
-0.000000 
0.000000 
-0.000000 
-0.000000 
-0.000000 
0.000000 
0.000000 
-0.000000 
0.000000 
0.000000 
-0.000000 
0.116356 
-0.000000 
-0.116356 
-0.000000 
-0.116356 
-0.000000 
-0.000000 
-0.000000 
-0.000000 
-0.000000 
0.000000 
-0.000000 
-0.000000 
-0.000000 
0.116356 
0.000000 
-0.000000 
-0.000000 
0.000000 
-0.000000 
-0.000000 
-0.000000 
-0.116356 
-0.000000 
-0.000000 
-0.000000 
-0.000000 
0.000000 
0.000000 
-0.116356 
-0.000000 
-0.000000 
-0.116356 
0.116356 
-0.116356 
0.000000 
-0.000000 
-0.000000 
0.000000 
0.000000 
0.000000 
0.000000 
0.000000 
-0.000000 
0.116356 
0.000000 
0.000000 
0.000000 
0.000000 
0.000000 
0.000000 
-0.000000 
0.000000 
0.000000 
0.000000 
-0.000000 
-0.000000 
-0.000000 
-0.000000 
0.000000 
-0.116356 
-0.000000 
0.000000 
0.000000 
-0.116356 
0.000000 
-0.000000 
-0.116356 
-0.116356 
-0.000000 
-0.000000 
-0.000000 
-0.116356 
0.000000 
-0.000000 
0.000000 
0.116356 
0.000000 
-0.116356 
-0.000000 
0.000000 
0.116356 
0.000000 
-0.000000 
0.000000 
-0.000000 
-0.116356 
-0.000000 
-0.116356 
-0.000000 
-0.116356 
-0.116356 
-0.000000 
-0.000000 
-0.116356 
-0.000000 
-0.000000 
-0.000000 
-0.000000 
0.000000 
-0.116356 
0.116356 
-0.116356 
0.116356 
-0.000000 
0.000000 
-0.000000 
0.000000 
-0.116356 
0.116356 
0.000000 
-0.116356 
0.000000 
0.000000 
-0.000000 
0.116356 
-0.000000 
-0.000000 
0.116356 
-0.000000 
-0.000000 
0.000000 
-0.000000 
-0.116356 
0.000000 
-0.000000 
0.000000 
-0.000000 
-0.000000 
-0.000000 
0.000000 
0.000000 
-0.116356 
0.000000 
-0.000000 
0.000000 
0.000000 
-0.000000 
-0.000000 
-0.000000 
0.000000 
-0.116356 
0.000000 
-0.000000 
0.000000 
-0.000000 
0.000000 
0.000000 
-0.000000 
-0.000000 
-0.000000 
0.000000 
-0.116356 
0.116356 
0.000000 
0.116356 
0.000000 
-0.000000 
-0.000000 
-0.000000 
-0.000000 
-0.000000 
-0.000000 
-0.000000 
0.000000 
0.000000 
0.000000 
0.116356 
0.000000 
-0.000000 
-0.116356 
-0.000000 
0.000000 
0.000000 
0.000000 
0.000000 
0.000000 
-0.000000 
0.000000 
-0.000000 
-0.000000 
-0.000000 
0.116356 
-0.116356 
-0.000000 
-0.000000 
-0.116356 
-0.000000 
0.116356 
-0.000000 
0.116356 
-0.000000 
0.116356 
0.000000 
-0.000000 
-0.116356 
-0.116356 
-0.000000 
-0.000000 
-0.000000 
-0.000000 
-0.000000 
0.000000 
0.000000 
0.116356 
-0.000000 
-0.000000 
-0.116356 
0.000000 
-0.000000 
0.000000 
-0.000000 
-0.000000 
-0.000000 
0.000000 
0.000000 
-0.000000 
0.000000 
-0.116356 
-0.116356 
0.000000 
-0.000000 
0.000000 
0.000000 
-0.000000 
-0.116356 
-0.000000 
0.000000 
0.000000 
-0.000000 
0.000000 
0.000000 
0.000000 
0.000000 
0.116356 
-0.000000 
-0.000000 
0.000000 
0.000000 
0.116356 
-0.000000 
-0.000000 
0.000000 
0.000000 
-0.000000 
0.000000 
0.000000 
0.000000 
0.000000 
-0.000000 
0.000000 
0.000000 
0.000000 
-0.000000 
-0.116356 
0.000000 
0.116356 
0.116356 
0.000000 
0.116356 
0.000000 
-0.000000 
0.000000 
0.000000 
0.000000 
-0.000000 
-0.000000 
-0.000000 
-0.000000 
0.116356 
-0.000000 
-0.000000 
0.000000 
-0.000000 
0.000000 
-0.000000 
-0.000000 
0.116356 
0.000000 
0.000000 
0.116356 
-0.000000 
-0.116356 
0.000000 
-0.000000 
0.000000 
0.000000 
-0.000000 
-0.000000 
-0.116356 
0.000000 
0.000000 
-0.116356 
-0.000000 
-0.000000 
-0.000000 
0.000000 
0.000000 
-0.000000 
-0.116356 
-0.000000 
-0.000000 
0.000000 
-0.000000 
-0.116356 
0.232713 
0.000000 
0.116356 
-0.000000 
0.000000 
-0.000000 
-0.000000 
-0.000000 
-0.000000 
-0.000000 
-0.000000 
0.000000 
-0.000000 
-0.000000 
0.000000 
-0.000000 
-0.000000 
-0.000000 
0.000000 
-0.116356 
-0.116356 
0.000000 
-0.000000 
0.000000 
0.000000 
-0.000000 
-0.000000 
0.000000 
-0.000000 
0.000000 
0.000000 
-0.116356 
-0.000000 
-0.116356 
-0.000000 
0.000000 
-0.000000 
0.000000 
-0.116356 
-0.000000 
0.000000 
-0.000000 
0.000000 
-0.000000 
0.232713 
0.116356 
-0.000000 
-0.116356 
-0.000000 
0.000000 
0.000000 
0.116356 
-0.116356 
0.000000 
-0.116356 
0.000000 
-0.000000 
0.000000 
0.000000 
0.000000 
-0.000000 
0.000000 
0.116356 
0.232713 
0.000000 
-0.000000 
-0.116356 
0.000000 
-0.116356 
-0.000000 
-0.000000 
0.000000 
0.000000 
-0.000000 
0.000000 
-0.000000 
0.000000 
-0.000000 
-0.116356 
-0.000000 
0.000000 
-0.000000 
0.116356 
-0.000000 
0.000000 
-0.116356 
0.116356 
0.000000 
0.116356 
0.000000 
-0.000000 
-0.000000 
-0.000000 
0.116356 
-0.000000 
-0.000000 
0.000000 
0.000000 
-0.000000 
-0.000000 
-0.000000 
0.000000 
-0.000000 
0.000000 
0.000000 
-0.000000 
-0.000000 
-0.000000 
-0.000000 
0.116356 
0.000000 
0.000000 
0.000000 
-0.000000 
-0.000000 
0.000000 
-0.000000 
-0.000000 
0.000000 
-0.000000 
0.000000 
-0.000000 
0.000000 
0.000000 
0.000000 
-0.000000 
-0.116356 
-0.000000 
-0.000000 
-0.000000 
-0.000000 
-0.232713 
-0.000000 
0.116356 
-0.000000 
-0.000000 
-0.116356 
-0.116356 
0.000000 
-0.000000 
0.000000 
0.116356 
-0.000000 
-0.116356 
-0.000000 
0.000000 
-0.000000 
-0.116356 
0.116356 
-0.000000 
0.116356 
-0.000000 
-0.000000 
-0.000000 
-0.000000 
0.349069 
0.116356 
-0.000000 
0.000000 
0.000000 
-0.116356 
0.000000 
0.000000 
-0.116356 
-0.000000 
-0.000000 
-0.116356 
-0.116356 
-0.000000 
-0.116356 
0.000000 
0.000000 
-0.000000 
0.000000 
0.000000 
0.000000 
0.000000 
-0.116356 
0.000000 
0.000000 
-0.000000 
-0.116356 
-0.000000 
0.000000 
-0.000000 
-0.000000 
0.000000 
-0.116356 
-0.000000 
-0.116356 
-0.116356 
-0.116356 
-0.000000 
-0.000000 
0.000000 
-0.000000 
-0.116356 
-0.000000 
-0.000000 
0.000000 
-0.000000 
-0.116356 
0.000000 
-0.000000 
0.000000 
-0.000000 
-0.116356 
-0.000000 
0.000000 
-0.000000 
0.000000 
-0.000000 
0.000000 
-0.000000 
0.000000 
0.000000 
-0.116356 
0.000000 
-0.000000 
-0.000000 
0.116356 
-0.000000 
-0.000000 
-0.000000 
0.000000 
-0.000000 
-0.000000 
-0.000000 
0.000000 
-0.116356 
-0.000000 
-0.000000 
-0.000000 
0.116356 
-0.000000 
-0.000000 
-0.000000 
-0.000000 
0.000000 
-0.000000 
-0.000000 
-0.116356 
0.000000 
-0.000000 
0.000000 
-0.000000 
0.000000 
0.000000 
0.116356 
-0.000000 
0.000000 
-0.000000 
-0.000000 
0.000000 
-0.000000 
0.116356 
0.116356 
-0.000000 
0.000000 
0.116356 
0.000000 
-0.000000 
0.000000 
0.000000 
-0.000000 
-0.000000 
0.000000 
-0.000000 
0.000000 
-0.116356 
-0.000000 
-0.000000 
0.000000 
-0.116356 
-0.000000 
-0.000000 
-0.000000 
0.000000 
-0.000000 
0.000000 
-0.000000 
-0.000000 
-0.000000 
-0.000000 
-0.000000 
0.000000 
-0.000000 
-0.000000 
0.000000 
-0.000000 
-0.000000 
-0.000000 
-0.000000 
-0.000000 
-0.000000 
-0.000000 
-0.000000 
0.000000 
0.000000 
0.000000 
-0.000000 
-0.000000 
0.000000 
-0.000000 
-0.116356 
0.116356 
0.000000 
-0.000000 
-0.000000 
-0.000000 
0.000000 
0.000000 
-0.000000 
-0.000000 
0.000000 
0.000000 
-0.000000 
0.000000 
0.116356 
0.000000 
0.000000 
-0.000000 
-0.116356 
-0.000000 
0.000000 
-0.000000 
-0.000000 
-0.000000 
0.000000 
-0.116356 
-0.000000 
0.000000 
-0.000000 
-0.116356 
0.000000 
0.000000 
0.000000 
-0.000000 
-0.000000 
0.000000 
-0.000000 
-0.000000 
0.000000 
-0.000000 
-0.000000 
-0.000000 
-0.000000 
0.000000 
0.000000 
-0.000000 
0.116356 
0.000000 
0.000000 
-0.000000 
-0.000000 
0.000000 
-0.000000 
0.000000 
0.000000 
0.116356 
-0.000000 
0.000000 
-0.000000 
0.000000 
0.116356 
-0.000000 
-0.000000 
-0.000000 
0.000000 
-0.000000 
-0.000000 
0.000000 
0.000000 
0.000000 
-0.000000 
-0.000000 
-0.000000 
-0.000000 
0.000000 
0.000000 
-0.000000 
0.000000 
-0.000000 
-0.000000 
-0.000000 
-0.000000 
-0.000000 
0.000000 
-0.000000 
-0.000000 
0.000000 
-0.000000 
-0.000000 
-0.000000 
0.000000 
0.000000 
0.000000 
0.000000 
0.000000 
-0.000000 
0.000000 
-0.000000 
-0.000000 
-0.000000 
0.000000 
-0.000000 
0.000000 
0.000000 
-0.000000 
-0.000000 
0.000000 
-0.000000 
0.000000 
0.000000 
-0.000000 
0.000000 
-0.000000 
0.000000 
-0.116356 
-0.000000 
0.000000 
-0.000000 
0.000000 
-0.000000 
0.000000 
-0.000000 
0.000000 
-0.000000 
-0.116356 
-0.000000 
-0.000000 
-0.000000 
-0.000000 
-0.000000 
-0.000000 
-0.000000 
-0.000000 
-0.000000 
0.116356 
-0.116356 
0.000000 
0.000000 
0.000000 
0.000000 
-0.000000 
0.000000 
-0.000000 
-0.116356 
0.116356 
0.000000 
0.000000 
-0.000000 
-0.000000 
-0.116356 
0.000000 
0.000000 
-0.000000 
-0.000000 
-0.000000 
-0.000000 
-0.000000 
-0.000000 
0.000000 
-0.000000 
0.000000 
-0.000000 
0.000000 
0.000000 
-0.000000 
0.000000 
0.000000 
0.000000 
0.000000 
0.000000 
-0.000000 
0.000000 
0.000000 
-0.000000 
0.116356 
0.116356 
0.000000 
0.000000 
0.000000 
-0.000000 
0.000000 
-0.000000 
-0.000000 
-0.000000 
-0.000000 
0.000000 
0.000000 
0.000000 
0.000000 
-0.000000 
0.000000 
-0.000000 
0.000000 
-0.000000 
0.000000 
0.000000 
0.000000 
-0.116356 
0.000000 
-0.000000 
-0.000000 
0.000000 
-0.000000 
-0.000000 
0.116356 
-0.000000 
0.000000 
0.000000 
-0.116356 
-0.116356 
-0.116356 
