-0.057720 
-0.038480 
-0.044893 
-0.019240 
-0.038480 
-0.032067 
0.032067 
-0.070547 
-0.051307 
0.012827 
0.025653 
-0.038480 
-0.012827 
-0.083373 
-0.032067 
0.012827 
0.076960 
0.012827 
-0.032067 
0.057720 
-0.051307 
-0.025653 
0.019240 
-0.147507 
-0.006413 
-0.000000 
0.025653 
0.051307 
-0.064133 
-0.032067 
-0.012827 
0.109027 
-0.019240 
0.012827 
-0.006413 
-0.025653 
0.000000 
-0.012827 
0.000000 
0.038480 
0.019240 
-0.076960 
0.083373 
0.032067 
0.006413 
0.038480 
0.044893 
-0.032067 
-0.044893 
-0.076960 
-0.006413 
-0.032067 
0.109027 
-0.121853 
0.096200 
-0.115440 
0.032067 
-0.038480 
-0.089787 
0.012827 
0.025653 
0.051307 
-0.083373 
0.083373 
-0.032067 
0.038480 
0.057720 
-0.025653 
0.256533 
0.006413 
-0.025653 
-0.083373 
-0.000000 
0.038480 
-0.000000 
0.038480 
0.070547 
-0.019240 
-0.051307 
-0.096200 
-0.025653 
0.006413 
-0.006413 
-0.000000 
0.064133 
0.025653 
-0.012827 
0.019240 
-0.012827 
0.038480 
0.006413 
0.019240 
0.064133 
-0.044893 
0.012827 
-0.019240 
-0.012827 
0.038480 
-0.006413 
-0.051307 
0.044893 
-0.019240 
-0.006413 
-0.012827 
0.012827 
0.070547 
-0.083373 
-0.006413 
-0.141093 
0.006413 
-0.096200 
-0.025653 
0.006413 
-0.012827 
-0.051307 
0.038480 
-0.032067 
-0.044893 
-0.012827 
0.134680 
-0.057720 
-0.019240 
0.000000 
-0.019240 
-0.025653 
-0.000000 
0.025653 
0.070547 
0.057720 
-0.089787 
0.000000 
0.038480 
-0.012827 
0.076960 
0.044893 
0.096200 
-0.173160 
0.000000 
-0.019240 
0.019240 
-0.006413 
-0.070547 
-0.006413 
-0.327080 
-0.012827 
-0.070547 
-0.019240 
-0.038480 
-0.006413 
0.057720 
0.038480 
0.115440 
0.173160 
-0.025653 
-0.057720 
-0.115440 
-0.121853 
0.083373 
-0.224467 
0.019240 
0.006413 
0.044893 
0.064133 
0.083373 
-0.057720 
0.006413 
0.032067 
-0.019240 
-0.076960 
0.000000 
-0.000000 
-0.019240 
0.006413 
0.064133 
0.006413 
-0.051307 
-0.000000 
0.051307 
-0.109027 
-0.076960 
-0.044893 
0.134680 
0.032067 
0.083373 
0.064133 
0.019240 
-0.083373 
-0.038480 
0.006413 
-0.057720 
0.012827 
0.006413 
-0.012827 
-0.064133 
0.006413 
-0.044893 
0.064133 
0.000000 
0.038480 
-0.025653 
-0.083373 
-0.019240 
-0.019240 
0.000000 
0.025653 
0.006413 
-0.051307 
-0.083373 
-0.038480 
0.198813 
-0.000000 
-0.000000 
-0.070547 
-0.006413 
0.109027 
0.083373 
0.012827 
0.000000 
-0.000000 
0.057720 
0.006413 
-0.025653 
0.185987 
0.012827 
-0.115440 
0.076960 
-0.089787 
-0.006413 
-0.025653 
-0.012827 
0.070547 
-0.057720 
0.051307 
-0.025653 
0.051307 
0.038480 
-0.025653 
0.012827 
0.064133 
-0.025653 
0.006413 
0.128267 
-0.019240 
0.057720 
-0.019240 
0.153920 
-0.032067 
-0.044893 
-0.006413 
-0.025653 
-0.019240 
-0.025653 
0.012827 
-0.044893 
-0.032067 
-0.006413 
-0.038480 
-0.032067 
0.012827 
-0.051307 
0.006413 
0.006413 
0.019240 
-0.044893 
-0.025653 
0.000000 
0.025653 
-0.006413 
-0.044893 
0.019240 
0.032067 
0.032067 
-0.032067 
-0.038480 
-0.083373 
-0.012827 
0.096200 
0.173160 
-0.006413 
-0.051307 
0.083373 
-0.044893 
-0.025653 
-0.064133 
-0.064133 
-0.000000 
0.032067 
-0.198813 
0.057720 
0.109027 
-0.070547 
-0.057720 
-0.025653 
0.012827 
0.025653 
-0.000000 
-0.000000 
0.006413 
-0.038480 
-0.019240 
-0.051307 
0.044893 
0.044893 
0.012827 
-0.012827 
0.019240 
-0.000000 
-0.019240 
0.012827 
-0.012827 
-0.006413 
0.102613 
-0.025653 
-0.019240 
0.006413 
0.038480 
-0.032067 
0.044893 
0.000000 
-0.089787 
-0.076960 
0.102613 
-0.051307 
-0.102613 
0.051307 
0.012827 
0.006413 
0.038480 
-0.064133 
-0.192400 
0.057720 
-0.006413 
-0.032067 
0.012827 
-0.006413 
-0.057720 
-0.006413 
-0.019240 
-0.096200 
-0.057720 
-0.076960 
-0.019240 
-0.006413 
0.019240 
-0.038480 
-0.192400 
0.019240 
0.057720 
-0.038480 
0.012827 
0.019240 
-0.006413 
-0.044893 
-0.025653 
0.115440 
0.006413 
-0.173160 
-0.019240 
0.019240 
-0.038480 
-0.012827 
0.006413 
-0.057720 
-0.000000 
-0.038480 
0.070547 
-0.019240 
-0.057720 
-0.025653 
0.096200 
0.032067 
0.019240 
-0.006413 
-0.025653 
-0.064133 
-0.070547 
-0.025653 
-0.025653 
-0.032067 
-0.102613 
0.121853 
-0.025653 
-0.038480 
-0.025653 
0.109027 
0.012827 
0.032067 
0.038480 
0.070547 
0.012827 
0.012827 
-0.006413 
0.051307 
-0.141093 
-0.012827 
0.057720 
-0.115440 
0.012827 
-0.051307 
-0.064133 
-0.025653 
0.025653 
0.179573 
0.051307 
0.038480 
-0.038480 
0.012827 
0.057720 
0.044893 
0.006413 
-0.044893 
0.006413 
0.051307 
0.070547 
-0.044893 
-0.134680 
0.179573 
0.109027 
-0.000000 
-0.032067 
-0.076960 
-0.025653 
-0.076960 
0.057720 
-0.032067 
-0.006413 
-0.006413 
-0.025653 
-0.044893 
0.057720 
0.000000 
-0.012827 
0.044893 
0.083373 
0.038480 
-0.019240 
0.006413 
-0.128267 
0.076960 
0.051307 
0.051307 
-0.025653 
0.025653 
-0.102613 
-0.032067 
-0.211640 
-0.012827 
-0.083373 
-0.134680 
0.006413 
0.006413 
0.070547 
0.000000 
-0.057720 
0.038480 
-0.128267 
-0.006413 
-0.153920 
-0.032067 
0.019240 
0.070547 
0.044893 
-0.006413 
-0.006413 
0.051307 
0.083373 
0.025653 
0.076960 
0.044893 
-0.044893 
0.019240 
0.044893 
0.000000 
-0.025653 
-0.006413 
-0.089787 
0.173160 
-0.064133 
0.006413 
0.000000 
0.025653 
0.025653 
-0.025653 
-0.032067 
0.019240 
0.019240 
-0.070547 
0.000000 
-0.012827 
-0.006413 
0.038480 
0.089787 
-0.019240 
-0.044893 
0.000000 
-0.019240 
-0.019240 
-0.019240 
-0.012827 
0.044893 
0.057720 
0.012827 
0.012827 
0.038480 
0.128267 
-0.012827 
0.019240 
-0.012827 
-0.064133 
-0.064133 
0.000000 
0.147507 
0.032067 
-0.019240 
0.012827 
0.051307 
-0.025653 
0.064133 
-0.019240 
0.019240 
0.044893 
-0.147507 
0.012827 
-0.057720 
-0.012827 
0.019240 
-0.044893 
-0.070547 
0.025653 
-0.006413 
0.038480 
-0.032067 
-0.038480 
-0.006413 
-0.070547 
0.006413 
0.032067 
-0.153920 
-0.109027 
-0.057720 
0.064133 
0.012827 
-0.012827 
-0.019240 
0.025653 
-0.044893 
-0.000000 
0.012827 
-0.000000 
0.025653 
-0.121853 
0.057720 
0.038480 
0.025653 
-0.025653 
0.032067 
0.012827 
-0.025653 
0.038480 
-0.006413 
-0.070547 
0.076960 
-0.006413 
0.134680 
-0.025653 
-0.089787 
0.012827 
-0.044893 
0.006413 
0.000000 
-0.032067 
0.012827 
-0.000000 
0.006413 
-0.019240 
0.006413 
0.000000 
-0.044893 
-0.089787 
-0.025653 
-0.044893 
-0.032067 
-0.057720 
0.006413 
0.070547 
-0.000000 
0.000000 
-0.044893 
-0.006413 
-0.051307 
0.089787 
-0.070547 
-0.038480 
0.083373 
-0.121853 
-0.089787 
-0.044893 
0.025653 
-0.012827 
0.044893 
-0.038480 
0.032067 
0.019240 
0.153920 
-0.044893 
0.006413 
-0.038480 
-0.057720 
0.025653 
0.012827 
0.044893 
0.025653 
0.044893 
0.006413 
0.019240 
0.025653 
-0.019240 
-0.038480 
-0.000000 
0.083373 
0.025653 
-0.064133 
0.044893 
-0.083373 
-0.019240 
-0.006413 
-0.006413 
0.006413 
-0.025653 
-0.185987 
-0.012827 
0.032067 
0.044893 
0.076960 
0.025653 
0.044893 
0.038480 
-0.006413 
-0.006413 
-0.224467 
0.019240 
-0.006413 
0.006413 
0.096200 
-0.000000 
0.057720 
-0.070547 
-0.070547 
0.019240 
-0.044893 
-0.051307 
-0.064133 
0.006413 
-0.012827 
0.044893 
-0.019240 
-0.051307 
0.044893 
0.019240 
-0.012827 
-0.019240 
-0.044893 
0.019240 
0.000000 
-0.121853 
0.070547 
0.006413 
0.019240 
0.038480 
0.076960 
-0.006413 
-0.044893 
-0.025653 
0.019240 
-0.025653 
0.044893 
0.057720 
0.102613 
0.057720 
0.019240 
0.096200 
0.000000 
-0.032067 
-0.038480 
-0.044893 
-0.051307 
0.083373 
0.012827 
-0.019240 
0.032067 
0.019240 
-0.121853 
0.012827 
0.025653 
-0.038480 
0.006413 
-0.070547 
0.064133 
0.025653 
0.006413 
-0.038480 
-0.198813 
-0.006413 
-0.000000 
0.012827 
0.083373 
0.044893 
-0.051307 
-0.064133 
-0.083373 
0.012827 
0.006413 
0.032067 
-0.006413 
-0.051307 
0.076960 
-0.019240 
-0.044893 
-0.012827 
-0.006413 
-0.019240 
-0.096200 
-0.038480 
-0.070547 
-0.000000 
0.115440 
-0.019240 
-0.006413 
0.070547 
-0.019240 
-0.012827 
-0.044893 
-0.044893 
-0.038480 
-0.025653 
-0.064133 
-0.006413 
-0.051307 
0.051307 
0.064133 
-0.044893 
0.096200 
-0.044893 
0.057720 
-0.012827 
-0.044893 
-0.057720 
0.064133 
-0.032067 
-0.000000 
-0.096200 
-0.006413 
0.109027 
0.006413 
0.070547 
-0.038480 
-0.038480 
0.019240 
0.006413 
0.019240 
-0.096200 
-0.064133 
-0.057720 
0.019240 
-0.012827 
0.025653 
-0.044893 
-0.012827 
-0.019240 
0.064133 
0.096200 
0.025653 
-0.032067 
0.019240 
-0.096200 
-0.102613 
0.044893 
-0.141093 
-0.019240 
-0.044893 
-0.006413 
-0.070547 
-0.000000 
-0.012827 
-0.038480 
-0.102613 
0.019240 
0.032067 
-0.089787 
0.076960 
0.115440 
-0.006413 
0.012827 
-0.032067 
-0.006413 
0.012827 
-0.025653 
-0.006413 
-0.019240 
-0.025653 
-0.012827 
-0.115440 
0.019240 
-0.032067 
-0.012827 
-0.032067 
-0.012827 
0.102613 
-0.256533 
-0.032067 
-0.038480 
-0.019240 
0.019240 
0.141093 
-0.025653 
0.012827 
-0.051307 
0.025653 
0.038480 
0.012827 
0.160333 
0.109027 
-0.038480 
-0.044893 
-0.070547 
0.064133 
-0.083373 
0.076960 
-0.006413 
-0.012827 
0.076960 
-0.025653 
0.038480 
0.019240 
0.012827 
-0.025653 
-0.128267 
0.044893 
0.038480 
-0.064133 
-0.006413 
-0.044893 
0.025653 
-0.121853 
-0.032067 
0.044893 
0.044893 
0.006413 
0.044893 
0.057720 
-0.070547 
-0.006413 
-0.019240 
0.076960 
-0.083373 
0.250120 
0.070547 
-0.006413 
0.064133 
0.012827 
0.160333 
0.025653 
-0.057720 
-0.019240 
0.012827 
-0.064133 
-0.025653 
-0.006413 
-0.057720 
-0.006413 
0.134680 
0.006413 
-0.083373 
-0.070547 
0.019240 
0.070547 
-0.038480 
0.038480 
-0.121853 
0.096200 
-0.019240 
-0.025653 
0.032067 
0.012827 
0.025653 
-0.051307 
-0.012827 
-0.038480 
-0.032067 
-0.025653 
0.032067 
0.051307 
-0.000000 
0.269360 
-0.012827 
-0.019240 
0.057720 
0.006413 
0.064133 
0.038480 
-0.012827 
-0.044893 
0.070547 
0.102613 
0.083373 
-0.064133 
-0.032067 
-0.000000 
0.006413 
0.019240 
-0.070547 
0.012827 
-0.089787 
0.032067 
-0.006413 
0.012827 
-0.076960 
-0.006413 
0.025653 
-0.032067 
0.025653 
0.064133 
0.006413 
0.006413 
0.032067 
0.032067 
-0.019240 
0.070547 
0.006413 
-0.025653 
0.044893 
0.089787 
0.019240 
0.025653 
-0.019240 
0.044893 
-0.025653 
0.019240 
-0.025653 
-0.006413 
0.051307 
-0.006413 
0.128267 
0.051307 
0.025653 
-0.044893 
0.032067 
0.044893 
0.006413 
-0.295014 
0.038480 
-0.057720 
0.019240 
-0.019240 
0.012827 
-0.019240 
-0.044893 
0.025653 
-0.044893 
-0.083373 
0.070547 
-0.032067 
0.076960 
0.038480 
-0.038480 
0.006413 
-0.038480 
0.012827 
-0.038480 
0.038480 
-0.038480 
-0.096200 
-0.038480 
0.044893 
0.032067 
0.038480 
-0.019240 
0.012827 
-0.006413 
-0.121853 
0.012827 
-0.019240 
0.025653 
0.000000 
-0.089787 
0.025653 
-0.012827 
-0.012827 
0.012827 
0.025653 
0.025653 
-0.012827 
-0.012827 
0.019240 
0.006413 
0.012827 
0.083373 
0.044893 
0.076960 
-0.032067 
0.012827 
-0.019240 
-0.051307 
-0.032067 
-0.006413 
0.038480 
-0.044893 
0.032067 
0.051307 
-0.051307 
-0.019240 
0.051307 
0.051307 
0.044893 
0.044893 
0.006413 
0.006413 
-0.044893 
0.032067 
-0.032067 
0.012827 
0.025653 
-0.044893 
-0.051307 
-0.025653 
-0.044893 
-0.019240 
0.012827 
0.070547 
-0.019240 
0.012827 
-0.019240 
-0.057720 
0.051307 
0.025653 
-0.012827 
0.044893 
0.006413 
0.019240 
0.019240 
0.012827 
-0.038480 
0.019240 
0.025653 
0.006413 
-0.032067 
-0.032067 
-0.019240 
0.006413 
-0.019240 
0.025653 
0.006413 
-0.006413 
0.000000 
-0.051307 
0.044893 
-0.006413 
0.012827 
-0.019240 
-0.019240 
0.000000 
-0.006413 
-0.070547 
0.096200 
-0.038480 
-0.096200 
0.038480 
0.019240 
0.044893 
0.121853 
0.012827 
0.006413 
-0.064133 
-0.006413 
-0.038480 
-0.051307 
0.038480 
-0.012827 
-0.012827 
0.019240 
-0.025653 
-0.070547 
0.019240 
0.006413 
-0.019240 
-0.076960 
-0.012827 
-0.025653 
-0.000000 
-0.006413 
0.006413 
-0.019240 
-0.012827 
0.000000 
-0.019240 
-0.019240 
0.000000 
0.032067 
-0.051307 
-0.006413 
-0.038480 
0.057720 
0.025653 
-0.057720 
0.012827 
-0.012827 
0.032067 
-0.019240 
0.038480 
-0.019240 
-0.019240 
0.012827 
-0.025653 
-0.025653 
0.025653 
-0.032067 
-0.070547 
0.019240 
0.032067 
-0.038480 
-0.038480 
-0.019240 
0.025653 
0.012827 
-0.032067 
-0.070547 
-0.000000 
0.089787 
-0.006413 
-0.000000 
-0.025653 
-0.032067 
-0.019240 
-0.006413 
-0.000000 
0.032067 
-0.019240 
-0.006413 
0.012827 
0.025653 
0.032067 
0.006413 
0.006413 
-0.044893 
-0.025653 
-0.025653 
0.012827 
-0.057720 
-0.064133 
0.012827 
0.057720 
0.064133 
0.064133 
0.000000 
0.032067 
-0.038480 
-0.038480 
0.012827 
-0.025653 
-0.032067 
-0.019240 
-0.032067 
0.025653 
0.064133 
0.025653 
-0.000000 
-0.012827 
0.032067 
-0.032067 
-0.012827 
0.019240 
0.064133 
-0.025653 
0.038480 
0.012827 
0.032067 
-0.025653 
0.019240 
-0.038480 
0.051307 
-0.044893 
0.025653 
-0.032067 
0.032067 
0.019240 
0.019240 
0.012827 
0.025653 
0.032067 
-0.044893 
-0.006413 
0.012827 
0.057720 
0.012827 
-0.006413 
0.012827 
-0.038480 
-0.025653 
0.051307 
0.025653 
-0.032067 
0.012827 
-0.025653 
-0.012827 
-0.012827 
0.038480 
-0.032067 
0.070547 
-0.000000 
-0.006413 
-0.038480 
0.044893 
-0.044893 
0.025653 
-0.012827 
0.032067 
0.019240 
-0.006413 
-0.044893 
0.006413 
0.038480 
0.012827 
-0.044893 
0.032067 
-0.025653 
-0.006413 
0.012827 
-0.064133 
-0.012827 
-0.032067 
-0.057720 
-0.012827 
0.070547 
0.032067 
-0.038480 
0.076960 
0.032067 
0.057720 
-0.006413 
0.089787 
-0.044893 
0.051307 
0.012827 
0.032067 
0.064133 
-0.000000 
0.006413 
0.019240 
-0.051307 
-0.032067 
-0.083373 
0.019240 
-0.006413 
0.032067 
-0.012827 
-0.064133 
0.012827 
0.044893 
-0.025653 
0.025653 
-0.038480 
-0.019240 
0.096200 
-0.032067 
0.019240 
-0.032067 
-0.006413 
-0.000000 
-0.019240 
0.051307 
0.006413 
0.032067 
-0.070547 
-0.012827 
0.012827 
-0.000000 
-0.006413 
0.006413 
-0.032067 
-0.038480 
-0.051307 
0.025653 
0.019240 
-0.070547 
-0.051307 
-0.032067 
-0.038480 
-0.070547 
0.044893 
-0.057720 
-0.032067 
0.044893 
-0.038480 
-0.006413 
0.032067 
-0.012827 
-0.019240 
0.025653 
0.128267 
-0.038480 
0.102613 
0.064133 
0.083373 
-0.070547 
0.019240 
0.032067 
-0.025653 
0.032067 
0.006413 
-0.044893 
-0.032067 
-0.057720 
0.025653 
0.006413 
-0.051307 
0.019240 
0.044893 
0.025653 
-0.089787 
-0.019240 
-0.070547 
-0.019240 
0.057720 
-0.051307 
-0.032067 
-0.057720 
0.025653 
-0.019240 
0.012827 
0.019240 
-0.006413 
-0.038480 
0.064133 
-0.000000 
-0.012827 
-0.057720 
-0.006413 
-0.012827 
-0.044893 
-0.006413 
-0.038480 
-0.019240 
0.012827 
-0.032067 
-0.000000 
0.006413 
-0.012827 
-0.096200 
-0.032067 
-0.057720 
0.051307 
0.032067 
0.012827 
-0.006413 
0.006413 
-0.012827 
-0.025653 
-0.070547 
-0.012827 
0.025653 
-0.057720 
-0.012827 
-0.019240 
-0.044893 
-0.019240 
0.025653 
0.044893 
-0.000000 
0.006413 
-0.000000 
-0.025653 
0.025653 
-0.032067 
-0.044893 
0.051307 
-0.044893 
-0.038480 
-0.019240 
0.006413 
-0.025653 
-0.012827 
0.000000 
-0.000000 
-0.032067 
-0.044893 
-0.012827 
-0.032067 
-0.076960 
0.006413 
-0.012827 
0.051307 
-0.064133 
0.025653 
0.019240 
0.012827 
0.057720 
0.006413 
0.006413 
0.032067 
-0.032067 
-0.019240 
0.044893 
-0.025653 
0.070547 
-0.025653 
0.044893 
-0.012827 
-0.032067 
0.044893 
-0.000000 
-0.006413 
-0.032067 
-0.038480 
0.025653 
-0.019240 
0.044893 
0.051307 
-0.032067 
-0.000000 
0.096200 
-0.025653 
-0.019240 
-0.083373 
0.032067 
-0.032067 
0.012827 
-0.019240 
0.012827 
-0.025653 
0.019240 
-0.006413 
-0.032067 
0.012827 
0.057720 
-0.032067 
0.012827 
-0.032067 
0.000000 
-0.064133 
-0.006413 
-0.044893 
0.006413 
-0.012827 
-0.038480 
-0.038480 
0.032067 
0.019240 
0.012827 
0.032067 
-0.083373 
-0.025653 
-0.038480 
-0.038480 
0.012827 
0.038480 
0.012827 
-0.051307 
-0.032067 
-0.006413 
0.032067 
0.064133 
-0.044893 
-0.019240 
-0.006413 
-0.044893 
0.044893 
-0.019240 
0.006413 
-0.064133 
0.006413 
-0.032067 
0.032067 
-0.070547 
-0.019240 
-0.012827 
0.006413 
-0.064133 
-0.025653 
0.160333 
-0.006413 
0.032067 
0.070547 
0.006413 
-0.006413 
0.006413 
-0.051307 
-0.044893 
0.115440 
0.038480 
-0.000000 
0.044893 
0.032067 
-0.025653 
-0.019240 
0.019240 
-0.051307 
0.000000 
0.012827 
0.038480 
0.057720 
0.064133 
0.019240 
0.006413 
-0.032067 
0.032067 
-0.051307 
0.006413 
0.019240 
0.025653 
0.012827 
0.000000 
-0.032067 
0.012827 
-0.012827 
-0.019240 
-0.006413 
-0.012827 
0.044893 
-0.032067 
-0.006413 
-0.038480 
0.032067 
0.057720 
-0.044893 
-0.012827 
-0.012827 
-0.038480 
0.044893 
-0.012827 
-0.019240 
0.012827 
0.019240 
0.000000 
-0.019240 
0.038480 
-0.006413 
-0.012827 
-0.000000 
-0.102613 
-0.051307 
0.044893 
0.044893 
-0.006413 
-0.038480 
-0.019240 
0.012827 
-0.032067 
0.000000 
-0.044893 
0.019240 
0.025653 
-0.019240 
0.019240 
0.025653 
0.102613 
-0.019240 
0.006413 
0.044893 
-0.051307 
-0.032067 
-0.000000 
-0.012827 
-0.044893 
0.038480 
0.012827 
0.025653 
-0.038480 
0.038480 
0.006413 
0.051307 
0.006413 
0.006413 
-0.025653 
0.038480 
-0.025653 
-0.057720 
-0.038480 
-0.012827 
-0.064133 
0.051307 
-0.006413 
-0.038480 
0.019240 
-0.044893 
-0.019240 
-0.038480 
-0.051307 
-0.025653 
0.025653 
0.006413 
-0.006413 
0.064133 
-0.044893 
0.012827 
0.012827 
0.019240 
0.025653 
-0.006413 
-0.000000 
-0.032067 
0.006413 
-0.012827 
0.025653 
0.032067 
-0.019240 
0.000000 
-0.006413 
-0.051307 
-0.044893 
-0.032067 
0.006413 
0.000000 
0.044893 
-0.064133 
0.006413 
-0.051307 
0.012827 
0.038480 
0.038480 
-0.044893 
0.000000 
0.064133 
-0.083373 
0.044893 
-0.044893 
0.019240 
-0.006413 
-0.025653 
-0.025653 
-0.038480 
-0.032067 
0.019240 
0.006413 
-0.006413 
-0.012827 
-0.057720 
-0.019240 
-0.044893 
-0.019240 
0.000000 
-0.025653 
-0.019240 
0.012827 
0.192400 
-0.070547 
0.019240 
-0.044893 
0.044893 
-0.064133 
-0.057720 
-0.051307 
0.019240 
-0.064133 
-0.019240 
-0.012827 
-0.038480 
-0.019240 
0.057720 
0.025653 
0.025653 
-0.006413 
0.025653 
0.025653 
-0.032067 
-0.006413 
-0.044893 
0.064133 
-0.025653 
-0.032067 
-0.006413 
-0.070547 
0.032067 
-0.006413 
0.115440 
0.006413 
0.006413 
0.044893 
-0.076960 
-0.025653 
-0.044893 
-0.064133 
0.019240 
-0.012827 
-0.012827 
-0.032067 
-0.032067 
0.019240 
0.006413 
0.032067 
-0.057720 
-0.057720 
0.006413 
0.012827 
0.006413 
0.044893 
-0.044893 
-0.025653 
-0.083373 
0.064133 
-0.025653 
-0.032067 
0.000000 
0.006413 
-0.019240 
0.012827 
-0.057720 
-0.025653 
-0.044893 
-0.032067 
0.012827 
0.051307 
-0.012827 
0.064133 
0.019240 
0.025653 
-0.019240 
-0.070547 
0.057720 
-0.006413 
-0.019240 
-0.032067 
0.057720 
-0.044893 
0.025653 
-0.076960 
-0.000000 
-0.038480 
-0.019240 
0.012827 
0.025653 
0.019240 
0.012827 
0.051307 
0.051307 
-0.019240 
-0.032067 
0.000000 
-0.012827 
0.019240 
0.153920 
0.044893 
0.006413 
-0.000000 
0.038480 
-0.057720 
0.019240 
-0.032067 
-0.038480 
0.096200 
0.064133 
0.019240 
-0.083373 
0.025653 
0.025653 
0.032067 
0.006413 
0.012827 
0.025653 
0.025653 
0.038480 
0.019240 
-0.038480 
-0.051307 
0.032067 
-0.006413 
-0.000000 
-0.109027 
0.006413 
0.019240 
-0.012827 
-0.032067 
-0.006413 
-0.070547 
-0.057720 
0.000000 
0.006413 
0.006413 
0.089787 
0.000000 
0.051307 
-0.057720 
0.019240 
-0.044893 
-0.012827 
0.012827 
-0.038480 
0.025653 
-0.025653 
0.044893 
0.012827 
0.064133 
-0.019240 
-0.012827 
-0.012827 
-0.012827 
-0.038480 
-0.032067 
0.044893 
-0.000000 
0.019240 
0.038480 
-0.025653 
0.019240 
-0.000000 
-0.089787 
-0.012827 
0.019240 
-0.025653 
0.070547 
-0.032067 
-0.025653 
-0.019240 
0.057720 
0.044893 
0.038480 
0.051307 
0.044893 
0.032067 
0.006413 
0.006413 
-0.006413 
0.019240 
0.025653 
-0.012827 
0.141093 
-0.025653 
-0.032067 
0.006413 
-0.019240 
-0.070547 
0.044893 
-0.006413 
0.025653 
-0.076960 
0.083373 
-0.038480 
-0.064133 
-0.000000 
-0.019240 
0.006413 
0.012827 
0.006413 
-0.000000 
0.019240 
-0.057720 
0.025653 
-0.025653 
-0.057720 
-0.019240 
-0.006413 
0.019240 
-0.006413 
-0.025653 
-0.089787 
-0.012827 
0.064133 
0.006413 
-0.019240 
0.057720 
0.019240 
-0.064133 
0.032067 
-0.019240 
0.070547 
0.051307 
0.115440 
-0.083373 
0.006413 
0.012827 
-0.000000 
-0.032067 
-0.012827 
-0.012827 
-0.051307 
-0.051307 
-0.025653 
-0.032067 
0.012827 
-0.012827 
-0.057720 
0.051307 
0.000000 
-0.006413 
-0.025653 
-0.019240 
-0.000000 
0.057720 
0.012827 
-0.064133 
0.076960 
0.006413 
0.025653 
0.006413 
-0.038480 
0.000000 
-0.006413 
-0.025653 
-0.064133 
-0.000000 
0.038480 
0.057720 
0.025653 
-0.019240 
0.051307 
0.012827 
-0.006413 
0.019240 
-0.070547 
-0.032067 
-0.057720 
0.012827 
-0.032067 
-0.076960 
0.032067 
-0.012827 
-0.057720 
0.006413 
0.057720 
-0.000000 
0.102613 
0.025653 
0.012827 
0.000000 
-0.012827 
-0.006413 
0.051307 
0.012827 
-0.019240 
0.012827 
0.006413 
0.032067 
0.006413 
0.006413 
-0.025653 
0.019240 
-0.006413 
-0.057720 
-0.006413 
0.000000 
0.051307 
-0.019240 
-0.025653 
-0.038480 
0.019240 
0.051307 
0.051307 
0.032067 
-0.000000 
0.006413 
0.064133 
0.012827 
0.019240 
-0.032067 
-0.032067 
0.038480 
-0.038480 
-0.032067 
-0.038480 
-0.006413 
0.006413 
0.025653 
-0.006413 
-0.006413 
0.012827 
-0.012827 
-0.038480 
0.057720 
-0.019240 
-0.012827 
-0.012827 
-0.019240 
-0.032067 
-0.038480 
-0.006413 
0.070547 
-0.057720 
-0.038480 
-0.012827 
-0.000000 
-0.089787 
-0.044893 
0.032067 
0.019240 
0.051307 
0.019240 
0.025653 
-0.012827 
-0.000000 
0.025653 
0.006413 
0.083373 
-0.006413 
-0.032067 
0.019240 
-0.032067 
-0.000000 
-0.012827 
-0.006413 
-0.051307 
0.019240 
0.012827 
0.000000 
0.089787 
-0.070547 
0.006413 
0.000000 
-0.038480 
0.064133 
-0.057720 
-0.038480 
0.000000 
-0.025653 
0.038480 
-0.006413 
0.006413 
0.019240 
0.044893 
0.025653 
0.064133 
-0.012827 
-0.000000 
0.051307 
-0.019240 
-0.012827 
-0.000000 
-0.019240 
-0.044893 
-0.032067 
-0.025653 
0.000000 
0.006413 
0.057720 
0.006413 
0.012827 
0.019240 
-0.076960 
-0.057720 
-0.044893 
0.057720 
0.000000 
0.012827 
0.038480 
-0.006413 
0.038480 
0.044893 
0.012827 
-0.083373 
-0.012827 
0.057720 
0.025653 
-0.064133 
0.083373 
-0.044893 
0.076960 
-0.012827 
-0.006413 
0.006413 
-0.000000 
-0.025653 
0.038480 
-0.006413 
0.012827 
-0.032067 
-0.006413 
-0.057720 
0.057720 
0.000000 
0.000000 
0.044893 
-0.012827 
0.000000 
-0.006413 
0.076960 
0.025653 
0.083373 
0.096200 
-0.019240 
-0.000000 
0.070547 
-0.057720 
-0.057720 
-0.000000 
-0.000000 
0.064133 
0.025653 
-0.057720 
-0.038480 
0.012827 
0.038480 
0.057720 
0.025653 
0.064133 
-0.006413 
-0.019240 
0.006413 
-0.032067 
-0.025653 
0.038480 
-0.000000 
0.006413 
-0.076960 
-0.000000 
-0.000000 
-0.019240 
0.025653 
0.019240 
-0.038480 
0.083373 
0.012827 
-0.006413 
0.038480 
0.070547 
-0.038480 
-0.019240 
-0.051307 
0.064133 
-0.019240 
-0.019240 
-0.038480 
0.006413 
0.012827 
-0.121853 
-0.032067 
-0.025653 
0.064133 
-0.006413 
-0.019240 
-0.012827 
-0.006413 
0.025653 
-0.000000 
0.057720 
-0.019240 
-0.089787 
-0.044893 
-0.083373 
0.032067 
-0.064133 
-0.044893 
0.025653 
-0.012827 
0.051307 
-0.051307 
-0.044893 
0.006413 
0.038480 
-0.038480 
0.044893 
-0.019240 
-0.012827 
0.051307 
-0.006413 
0.076960 
0.019240 
-0.051307 
-0.006413 
0.044893 
0.012827 
0.006413 
-0.057720 
0.006413 
0.025653 
-0.006413 
0.025653 
-0.012827 
0.032067 
0.000000 
0.044893 
-0.102613 
-0.012827 
-0.000000 
-0.044893 
0.032067 
0.025653 
-0.032067 
-0.019240 
0.038480 
-0.044893 
-0.038480 
-0.038480 
0.057720 
-0.025653 
-0.076960 
-0.057720 
0.038480 
0.038480 
-0.057720 
-0.032067 
-0.000000 
-0.012827 
-0.032067 
0.038480 
-0.019240 
0.000000 
-0.032067 
-0.051307 
-0.025653 
-0.044893 
0.012827 
-0.019240 
-0.064133 
0.019240 
0.057720 
0.019240 
-0.032067 
-0.032067 
-0.025653 
0.051307 
0.032067 
0.000000 
0.057720 
-0.051307 
-0.070547 
-0.025653 
-0.032067 
0.070547 
-0.044893 
0.006413 
-0.006413 
0.006413 
0.006413 
-0.012827 
0.006413 
0.012827 
-0.032067 
0.012827 
-0.025653 
0.000000 
-0.006413 
-0.012827 
-0.051307 
-0.000000 
-0.012827 
-0.038480 
0.006413 
0.019240 
-0.032067 
0.000000 
-0.019240 
-0.025653 
0.012827 
-0.032067 
-0.051307 
0.051307 
-0.076960 
0.032067 
0.083373 
-0.012827 
-0.102613 
0.025653 
-0.012827 
0.006413 
0.096200 
-0.032067 
-0.025653 
-0.032067 
0.006413 
-0.051307 
-0.025653 
-0.057720 
-0.025653 
-0.000000 
-0.057720 
0.076960 
-0.006413 
-0.019240 
0.038480 
-0.006413 
-0.057720 
-0.064133 
-0.006413 
-0.006413 
-0.057720 
-0.012827 
0.032067 
-0.076960 
-0.038480 
0.032067 
-0.019240 
-0.006413 
-0.012827 
-0.019240 
-0.025653 
-0.032067 
-0.019240 
0.006413 
-0.064133 
-0.000000 
-0.000000 
-0.032067 
-0.012827 
0.083373 
-0.019240 
-0.083373 
0.019240 
-0.019240 
-0.038480 
-0.000000 
-0.000000 
-0.032067 
-0.032067 
-0.064133 
0.044893 
0.025653 
0.019240 
-0.006413 
-0.038480 
-0.006413 
0.025653 
-0.057720 
0.012827 
-0.038480 
-0.025653 
0.134680 
0.025653 
-0.019240 
0.057720 
0.012827 
-0.000000 
-0.051307 
0.012827 
-0.019240 
0.070547 
-0.012827 
-0.019240 
0.083373 
0.064133 
-0.051307 
0.025653 
0.083373 
0.057720 
0.115440 
-0.012827 
-0.019240 
0.025653 
-0.025653 
-0.000000 
0.019240 
-0.006413 
-0.000000 
0.025653 
-0.000000 
-0.019240 
0.000000 
0.012827 
0.038480 
0.012827 
-0.025653 
-0.044893 
-0.038480 
-0.025653 
0.012827 
0.025653 
0.044893 
0.032067 
-0.025653 
-0.083373 
0.038480 
0.006413 
0.032067 
-0.032067 
0.012827 
0.038480 
-0.025653 
0.006413 
0.044893 
-0.012827 
0.019240 
-0.006413 
0.032067 
-0.006413 
0.019240 
0.000000 
-0.044893 
-0.006413 
0.083373 
-0.025653 
-0.012827 
-0.012827 
-0.000000 
-0.076960 
0.025653 
-0.019240 
0.044893 
-0.006413 
0.044893 
-0.057720 
-0.057720 
0.083373 
0.044893 
0.044893 
0.025653 
0.006413 
-0.000000 
-0.019240 
0.000000 
-0.012827 
-0.044893 
0.038480 
-0.064133 
0.019240 
0.006413 
0.141093 
-0.070547 
-0.051307 
0.032067 
0.019240 
0.044893 
-0.109027 
-0.044893 
-0.044893 
-0.006413 
-0.032067 
-0.012827 
0.019240 
0.019240 
-0.038480 
0.006413 
0.019240 
0.000000 
0.051307 
-0.057720 
0.038480 
0.019240 
-0.051307 
0.019240 
-0.038480 
0.012827 
0.025653 
-0.064133 
0.064133 
0.006413 
0.006413 
0.057720 
-0.012827 
0.025653 
-0.089787 
0.019240 
-0.025653 
-0.076960 
0.019240 
0.012827 
-0.038480 
-0.025653 
0.019240 
-0.025653 
-0.012827 
-0.109027 
-0.012827 
-0.012827 
0.025653 
0.083373 
0.019240 
-0.064133 
0.006413 
-0.012827 
-0.019240 
-0.025653 
0.070547 
0.019240 
-0.006413 
-0.064133 
0.000000 
0.006413 
-0.057720 
0.012827 
0.044893 
0.006413 
-0.006413 
0.044893 
-0.025653 
-0.076960 
-0.057720 
-0.019240 
0.038480 
-0.070547 
-0.057720 
-0.025653 
-0.032067 
0.038480 
-0.006413 
-0.044893 
0.019240 
-0.019240 
0.025653 
-0.012827 
0.012827 
0.012827 
-0.044893 
0.064133 
0.025653 
0.109027 
0.012827 
-0.051307 
0.012827 
0.012827 
-0.051307 
-0.032067 
0.025653 
0.006413 
-0.012827 
-0.057720 
-0.083373 
-0.019240 
0.038480 
0.051307 
0.000000 
0.025653 
-0.000000 
0.038480 
0.038480 
0.019240 
-0.012827 
0.089787 
0.076960 
0.006413 
0.032067 
-0.006413 
-0.070547 
0.051307 
0.019240 
0.083373 
-0.019240 
0.051307 
-0.051307 
-0.012827 
0.019240 
0.012827 
0.051307 
-0.006413 
-0.006413 
-0.012827 
-0.051307 
0.006413 
0.044893 
0.032067 
-0.032067 
0.051307 
0.025653 
-0.006413 
-0.025653 
0.019240 
-0.019240 
0.070547 
-0.051307 
0.032067 
-0.006413 
-0.044893 
0.057720 
0.019240 
-0.038480 
-0.025653 
0.064133 
-0.038480 
-0.012827 
0.025653 
-0.006413 
-0.051307 
0.006413 
0.025653 
0.051307 
0.064133 
-0.006413 
-0.070547 
0.051307 
0.128267 
-0.044893 
-0.044893 
-0.012827 
-0.038480 
-0.032067 
-0.012827 
-0.012827 
0.019240 
-0.025653 
0.070547 
0.051307 
-0.006413 
0.096200 
-0.025653 
-0.019240 
-0.019240 
-0.032067 
-0.019240 
0.044893 
0.032067 
-0.070547 
0.012827 
-0.038480 
0.032067 
0.006413 
-0.083373 
-0.057720 
0.000000 
-0.000000 
0.025653 
-0.044893 
-0.089787 
-0.051307 
-0.019240 
-0.006413 
-0.025653 
0.044893 
-0.032067 
-0.006413 
-0.051307 
-0.006413 
0.032067 
-0.006413 
-0.044893 
0.160333 
-0.019240 
-0.038480 
0.006413 
-0.044893 
0.000000 
0.051307 
0.012827 
-0.019240 
-0.064133 
-0.096200 
-0.038480 
0.076960 
0.012827 
-0.051307 
0.038480 
-0.057720 
-0.051307 
0.044893 
-0.000000 
-0.070547 
0.038480 
-0.064133 
0.025653 
-0.025653 
-0.006413 
0.019240 
-0.025653 
0.025653 
0.064133 
-0.006413 
0.038480 
-0.012827 
0.006413 
-0.025653 
0.019240 
0.006413 
0.012827 
0.012827 
-0.070547 
-0.044893 
0.025653 
0.019240 
-0.057720 
0.019240 
-0.051307 
-0.000000 
-0.051307 
-0.102613 
-0.025653 
-0.083373 
-0.025653 
-0.019240 
0.025653 
0.006413 
-0.019240 
0.012827 
-0.044893 
-0.025653 
0.025653 
-0.083373 
0.064133 
-0.025653 
0.012827 
0.006413 
0.044893 
0.070547 
0.044893 
-0.012827 
0.000000 
0.064133 
-0.000000 
0.000000 
0.012827 
0.006413 
-0.006413 
-0.102613 
0.019240 
0.038480 
0.038480 
0.025653 
-0.032067 
0.038480 
0.051307 
-0.012827 
-0.076960 
0.044893 
0.019240 
-0.006413 
-0.076960 
0.057720 
0.032067 
-0.006413 
-0.057720 
-0.070547 
-0.032067 
-0.012827 
-0.025653 
-0.051307 
-0.000000 
0.019240 
0.000000 
0.019240 
0.051307 
0.012827 
0.019240 
0.051307 
-0.032067 
-0.012827 
-0.019240 
0.025653 
-0.038480 
0.032067 
0.070547 
-0.019240 
0.057720 
-0.038480 
0.025653 
-0.076960 
-0.012827 
0.064133 
-0.044893 
0.006413 
-0.051307 
-0.038480 
-0.019240 
0.012827 
-0.044893 
0.076960 
0.044893 
-0.019240 
-0.025653 
-0.057720 
-0.000000 
0.006413 
-0.044893 
-0.032067 
0.051307 
-0.006413 
0.000000 
-0.096200 
0.057720 
0.070547 
-0.019240 
0.006413 
-0.006413 
0.064133 
-0.083373 
0.025653 
-0.019240 
-0.032067 
0.006413 
-0.038480 
-0.057720 
0.038480 
-0.006413 
-0.076960 
-0.044893 
0.006413 
-0.070547 
0.012827 
-0.000000 
0.083373 
0.019240 
-0.012827 
-0.064133 
0.006413 
-0.038480 
-0.025653 
-0.012827 
0.070547 
0.012827 
0.012827 
-0.032067 
-0.038480 
-0.000000 
-0.006413 
0.019240 
-0.070547 
-0.025653 
0.102613 
0.038480 
0.000000 
-0.006413 
-0.064133 
0.012827 
-0.102613 
-0.057720 
-0.019240 
0.102613 
0.064133 
-0.006413 
-0.019240 
0.044893 
-0.012827 
-0.025653 
0.153920 
-0.051307 
-0.038480 
-0.019240 
0.019240 
-0.006413 
-0.000000 
-0.032067 
-0.025653 
-0.006413 
-0.006413 
0.032067 
-0.109027 
-0.032067 
-0.006413 
-0.032067 
0.064133 
0.012827 
0.083373 
0.019240 
0.006413 
0.012827 
0.019240 
-0.000000 
-0.032067 
-0.012827 
-0.038480 
0.038480 
0.083373 
-0.051307 
-0.006413 
-0.051307 
0.076960 
0.019240 
0.051307 
-0.006413 
-0.000000 
-0.032067 
0.025653 
-0.044893 
-0.083373 
0.032067 
-0.057720 
0.134680 
0.089787 
-0.000000 
0.012827 
-0.025653 
-0.000000 
-0.032067 
-0.025653 
0.025653 
0.025653 
0.025653 
0.012827 
0.044893 
0.044893 
0.000000 
-0.064133 
0.038480 
-0.000000 
-0.025653 
0.038480 
-0.051307 
0.000000 
-0.032067 
-0.012827 
0.032067 
0.102613 
-0.025653 
-0.019240 
0.019240 
-0.012827 
0.038480 
-0.012827 
-0.032067 
0.064133 
-0.064133 
0.000000 
-0.038480 
0.019240 
0.032067 
-0.032067 
0.166747 
0.051307 
-0.006413 
-0.025653 
-0.076960 
0.038480 
-0.006413 
-0.025653 
0.038480 
-0.032067 
0.057720 
-0.025653 
-0.006413 
0.038480 
0.019240 
0.012827 
-0.025653 
-0.038480 
-0.051307 
0.025653 
0.006413 
-0.006413 
0.038480 
-0.051307 
0.038480 
-0.000000 
0.070547 
-0.051307 
-0.025653 
0.173160 
-0.038480 
0.038480 
-0.006413 
0.032067 
-0.025653 
0.064133 
0.012827 
0.076960 
0.006413 
-0.012827 
0.006413 
0.064133 
-0.006413 
-0.006413 
0.070547 
0.051307 
-0.038480 
0.038480 
0.032067 
-0.038480 
-0.012827 
-0.032067 
-0.025653 
0.038480 
0.006413 
0.000000 
0.006413 
0.044893 
-0.083373 
0.012827 
-0.038480 
-0.051307 
-0.032067 
0.019240 
-0.019240 
0.000000 
-0.051307 
-0.044893 
-0.025653 
-0.000000 
0.102613 
-0.019240 
0.038480 
0.012827 
-0.006413 
0.012827 
-0.012827 
0.000000 
0.064133 
0.012827 
0.064133 
-0.083373 
-0.006413 
-0.025653 
0.038480 
-0.006413 
-0.070547 
-0.019240 
0.083373 
-0.019240 
0.032067 
-0.051307 
0.032067 
0.019240 
0.102613 
0.032067 
-0.057720 
0.109027 
0.038480 
-0.032067 
-0.019240 
0.064133 
0.012827 
-0.000000 
0.006413 
0.012827 
0.000000 
-0.000000 
-0.006413 
-0.051307 
-0.032067 
-0.006413 
-0.096200 
-0.012827 
-0.019240 
-0.012827 
0.057720 
-0.019240 
0.025653 
-0.025653 
-0.006413 
-0.006413 
-0.032067 
-0.032067 
-0.019240 
0.012827 
-0.076960 
-0.038480 
-0.025653 
0.006413 
0.038480 
0.038480 
-0.115440 
0.064133 
-0.019240 
-0.044893 
-0.051307 
-0.019240 
-0.051307 
-0.012827 
-0.012827 
0.089787 
0.089787 
-0.089787 
0.089787 
-0.019240 
-0.019240 
0.032067 
0.025653 
-0.006413 
0.032067 
-0.076960 
0.006413 
-0.032067 
-0.019240 
0.006413 
0.032067 
0.006413 
0.051307 
-0.025653 
0.070547 
-0.057720 
0.019240 
-0.006413 
0.121853 
0.019240 
-0.012827 
-0.012827 
-0.057720 
0.064133 
-0.019240 
-0.076960 
0.057720 
-0.057720 
-0.006413 
-0.006413 
-0.032067 
-0.051307 
0.064133 
-0.051307 
0.064133 
0.038480 
-0.012827 
0.006413 
0.012827 
0.083373 
-0.019240 
0.006413 
-0.006413 
-0.038480 
0.019240 
-0.076960 
0.070547 
-0.044893 
-0.044893 
-0.000000 
-0.038480 
-0.038480 
-0.000000 
-0.057720 
0.044893 
0.038480 
0.006413 
0.109027 
0.057720 
0.032067 
-0.006413 
-0.051307 
-0.019240 
0.006413 
0.057720 
-0.032067 
-0.000000 
-0.128267 
0.025653 
-0.000000 
-0.032067 
-0.006413 
-0.012827 
0.006413 
-0.006413 
-0.019240 
0.025653 
-0.032067 
-0.044893 
0.070547 
0.012827 
0.006413 
0.064133 
0.025653 
-0.012827 
-0.012827 
-0.006413 
-0.000000 
-0.044893 
0.000000 
0.006413 
0.064133 
-0.032067 
0.044893 
-0.025653 
-0.025653 
0.038480 
0.019240 
0.051307 
-0.006413 
0.038480 
-0.025653 
-0.019240 
0.006413 
-0.051307 
0.019240 
0.032067 
0.038480 
-0.051307 
-0.006413 
-0.064133 
-0.032067 
-0.006413 
-0.000000 
-0.025653 
-0.019240 
-0.051307 
-0.032067 
-0.025653 
-0.025653 
0.025653 
0.057720 
-0.070547 
-0.038480 
0.019240 
-0.044893 
0.038480 
-0.038480 
-0.096200 
-0.019240 
0.019240 
-0.044893 
-0.064133 
-0.000000 
-0.038480 
-0.025653 
-0.032067 
0.038480 
-0.019240 
0.012827 
-0.070547 
0.012827 
0.044893 
0.051307 
0.044893 
-0.070547 
-0.057720 
-0.032067 
0.115440 
-0.057720 
-0.000000 
-0.038480 
-0.025653 
-0.044893 
0.044893 
0.038480 
0.012827 
-0.025653 
-0.044893 
-0.025653 
0.006413 
-0.044893 
0.019240 
-0.025653 
0.038480 
-0.032067 
-0.012827 
-0.019240 
0.025653 
0.012827 
0.025653 
-0.051307 
0.038480 
-0.044893 
-0.019240 
-0.025653 
-0.038480 
0.012827 
-0.096200 
-0.057720 
0.083373 
-0.057720 
-0.012827 
0.019240 
0.038480 
0.012827 
0.057720 
-0.038480 
0.083373 
0.115440 
-0.064133 
0.102613 
0.064133 
-0.012827 
0.044893 
-0.115440 
0.032067 
-0.025653 
0.032067 
0.012827 
0.019240 
-0.044893 
-0.000000 
-0.025653 
-0.006413 
-0.057720 
0.006413 
-0.032067 
-0.032067 
0.000000 
-0.006413 
-0.064133 
-0.019240 
0.012827 
-0.051307 
0.044893 
-0.000000 
0.025653 
0.012827 
0.019240 
0.032067 
-0.019240 
-0.025653 
-0.038480 
0.019240 
-0.076960 
-0.089787 
-0.057720 
-0.006413 
0.012827 
0.089787 
0.006413 
0.025653 
-0.051307 
-0.019240 
-0.032067 
0.012827 
0.006413 
0.038480 
-0.019240 
-0.012827 
0.012827 
0.019240 
-0.064133 
-0.032067 
-0.032067 
-0.057720 
0.025653 
-0.019240 
-0.038480 
-0.006413 
0.064133 
0.032067 
-0.076960 
0.019240 
0.025653 
-0.038480 
-0.064133 
-0.025653 
-0.006413 
0.000000 
-0.076960 
0.006413 
-0.038480 
0.006413 
-0.019240 
-0.025653 
0.006413 
0.032067 
0.025653 
-0.012827 
-0.000000 
0.006413 
-0.025653 
-0.032067 
0.025653 
0.012827 
0.006413 
-0.025653 
-0.096200 
-0.000000 
-0.089787 
-0.057720 
0.012827 
0.012827 
0.019240 
0.038480 
-0.032067 
0.006413 
0.012827 
0.006413 
-0.012827 
0.012827 
0.012827 
0.057720 
-0.044893 
0.019240 
-0.012827 
-0.019240 
0.025653 
0.006413 
0.000000 
-0.012827 
-0.019240 
-0.038480 
-0.057720 
0.012827 
0.006413 
-0.064133 
-0.025653 
-0.006413 
0.006413 
-0.083373 
0.096200 
0.083373 
-0.064133 
0.038480 
0.044893 
-0.006413 
-0.038480 
-0.032067 
-0.019240 
0.000000 
-0.025653 
-0.025653 
0.019240 
-0.025653 
0.012827 
0.012827 
-0.051307 
-0.012827 
0.051307 
0.006413 
-0.012827 
0.006413 
0.006413 
-0.051307 
-0.032067 
-0.051307 
0.038480 
-0.006413 
0.064133 
0.000000 
-0.038480 
-0.012827 
-0.032067 
-0.038480 
-0.025653 
0.109027 
-0.012827 
-0.006413 
-0.096200 
0.064133 
-0.012827 
-0.006413 
0.032067 
0.000000 
0.006413 
0.083373 
-0.044893 
-0.044893 
-0.000000 
0.057720 
-0.070547 
0.179573 
-0.064133 
-0.038480 
0.019240 
0.006413 
-0.064133 
-0.006413 
0.025653 
-0.019240 
-0.096200 
-0.032067 
-0.032067 
-0.064133 
-0.012827 
-0.051307 
-0.006413 
0.019240 
0.025653 
0.032067 
0.006413 
0.025653 
-0.006413 
-0.000000 
-0.070547 
0.006413 
0.006413 
-0.032067 
0.051307 
0.000000 
-0.019240 
0.025653 
0.032067 
0.006413 
0.025653 
0.032067 
0.000000 
0.295014 
-0.057720 
0.019240 
0.025653 
-0.038480 
-0.006413 
0.134680 
-0.025653 
0.038480 
-0.012827 
0.012827 
-0.089787 
-0.057720 
0.006413 
-0.083373 
-0.038480 
-0.006413 
-0.000000 
-0.006413 
-0.218053 
-0.012827 
0.032067 
0.006413 
-0.032067 
0.006413 
0.000000 
0.038480 
-0.057720 
-0.032067 
0.006413 
-0.006413 
0.012827 
-0.025653 
-0.006413 
-0.000000 
-0.000000 
-0.025653 
-0.006413 
-0.025653 
0.044893 
0.025653 
-0.025653 
0.051307 
0.032067 
0.019240 
-0.025653 
0.012827 
0.000000 
-0.019240 
-0.006413 
-0.006413 
-0.089787 
0.006413 
0.044893 
0.012827 
-0.006413 
-0.051307 
-0.019240 
-0.076960 
0.032067 
0.032067 
0.012827 
-0.006413 
-0.051307 
0.012827 
-0.115440 
-0.025653 
0.032067 
0.012827 
0.025653 
0.006413 
-0.012827 
0.019240 
0.038480 
0.012827 
0.089787 
0.044893 
-0.025653 
-0.064133 
-0.012827 
-0.019240 
-0.006413 
-0.038480 
0.006413 
-0.057720 
-0.025653 
0.012827 
-0.000000 
0.038480 
0.012827 
-0.057720 
-0.032067 
-0.057720 
-0.051307 
0.025653 
0.012827 
-0.057720 
0.051307 
0.025653 
-0.025653 
-0.025653 
0.032067 
0.076960 
-0.006413 
0.044893 
-0.006413 
-0.025653 
0.019240 
-0.025653 
0.025653 
0.044893 
-0.032067 
-0.115440 
0.115440 
0.038480 
-0.025653 
-0.012827 
0.032067 
0.070547 
0.064133 
0.006413 
-0.019240 
0.032067 
0.032067 
0.012827 
-0.019240 
0.000000 
0.038480 
0.044893 
-0.025653 
0.006413 
-0.025653 
-0.000000 
-0.025653 
-0.044893 
0.006413 
-0.032067 
0.012827 
-0.019240 
-0.000000 
0.012827 
0.032067 
0.000000 
-0.006413 
0.032067 
-0.025653 
0.012827 
0.025653 
0.070547 
0.025653 
-0.051307 
0.006413 
-0.038480 
-0.032067 
0.038480 
-0.025653 
0.019240 
-0.006413 
-0.019240 
-0.019240 
-0.019240 
0.000000 
0.006413 
-0.044893 
-0.006413 
0.032067 
-0.019240 
0.025653 
-0.012827 
-0.032067 
-0.000000 
-0.006413 
0.057720 
0.006413 
0.044893 
0.000000 
-0.032067 
-0.019240 
0.006413 
-0.006413 
-0.032067 
0.006413 
0.006413 
-0.051307 
-0.044893 
0.006413 
0.006413 
-0.012827 
0.006413 
0.051307 
0.070547 
0.019240 
-0.006413 
0.076960 
-0.057720 
0.044893 
-0.044893 
-0.038480 
-0.032067 
-0.012827 
0.012827 
0.064133 
0.012827 
0.006413 
-0.038480 
-0.006413 
0.025653 
-0.025653 
0.006413 
-0.032067 
0.038480 
-0.032067 
-0.038480 
0.019240 
0.025653 
-0.102613 
-0.032067 
0.051307 
0.025653 
-0.044893 
0.025653 
-0.012827 
0.006413 
0.038480 
0.006413 
0.025653 
-0.012827 
0.006413 
-0.044893 
0.006413 
0.032067 
0.019240 
-0.057720 
-0.044893 
-0.025653 
0.032067 
0.019240 
-0.038480 
-0.051307 
-0.012827 
0.019240 
0.006413 
0.025653 
-0.012827 
0.044893 
-0.019240 
-0.000000 
-0.000000 
0.006413 
0.025653 
0.044893 
-0.032067 
0.006413 
-0.025653 
-0.006413 
0.038480 
0.032067 
0.044893 
-0.076960 
0.057720 
-0.032067 
-0.006413 
0.012827 
0.012827 
0.012827 
0.038480 
0.019240 
0.006413 
0.006413 
-0.019240 
-0.012827 
-0.006413 
0.000000 
0.012827 
-0.019240 
-0.147507 
0.006413 
-0.109027 
-0.038480 
0.012827 
-0.000000 
-0.025653 
0.038480 
-0.076960 
-0.032067 
-0.025653 
-0.064133 
0.089787 
0.032067 
0.070547 
-0.038480 
-0.000000 
-0.032067 
0.115440 
0.006413 
-0.012827 
0.006413 
-0.044893 
0.006413 
0.070547 
0.025653 
-0.044893 
-0.044893 
-0.000000 
0.032067 
0.076960 
-0.038480 
0.044893 
0.019240 
-0.038480 
0.012827 
0.051307 
0.032067 
0.051307 
-0.012827 
-0.032067 
0.012827 
0.051307 
0.006413 
0.044893 
-0.019240 
-0.000000 
-0.032067 
-0.096200 
0.019240 
0.006413 
-0.012827 
0.025653 
0.019240 
-0.006413 
-0.006413 
-0.006413 
-0.044893 
-0.173160 
0.064133 
0.019240 
-0.006413 
-0.032067 
-0.019240 
-0.051307 
0.032067 
-0.051307 
0.076960 
0.025653 
-0.019240 
0.032067 
-0.019240 
-0.000000 
0.012827 
0.006413 
-0.044893 
-0.038480 
0.070547 
-0.044893 
-0.032067 
-0.000000 
0.012827 
-0.096200 
-0.051307 
-0.006413 
-0.019240 
0.057720 
0.012827 
-0.051307 
0.019240 
-0.083373 
-0.025653 
-0.044893 
-0.019240 
-0.038480 
0.012827 
0.006413 
-0.025653 
-0.006413 
-0.051307 
-0.038480 
0.032067 
-0.044893 
0.096200 
0.044893 
0.006413 
-0.012827 
0.070547 
0.038480 
0.025653 
-0.019240 
-0.070547 
-0.032067 
0.025653 
0.057720 
-0.038480 
0.025653 
0.006413 
0.032067 
-0.051307 
0.076960 
0.025653 
-0.032067 
-0.025653 
-0.032067 
0.044893 
-0.032067 
-0.032067 
-0.006413 
-0.044893 
0.032067 
0.051307 
0.115440 
-0.032067 
-0.096200 
0.038480 
-0.032067 
-0.025653 
-0.019240 
0.012827 
0.038480 
0.006413 
0.006413 
-0.000000 
-0.012827 
-0.012827 
-0.012827 
-0.019240 
0.038480 
0.019240 
-0.147507 
0.166747 
0.102613 
-0.012827 
0.019240 
-0.019240 
-0.076960 
0.025653 
-0.044893 
-0.025653 
-0.019240 
0.012827 
-0.064133 
0.019240 
0.064133 
-0.019240 
0.051307 
0.006413 
0.038480 
0.032067 
-0.044893 
-0.012827 
0.070547 
-0.064133 
-0.032067 
-0.057720 
0.051307 
-0.096200 
-0.064133 
-0.006413 
0.025653 
0.012827 
0.076960 
0.064133 
-0.038480 
-0.032067 
0.000000 
0.000000 
-0.000000 
0.038480 
0.019240 
-0.006413 
0.000000 
0.051307 
-0.006413 
0.006413 
-0.032067 
-0.019240 
-0.070547 
0.019240 
-0.032067 
-0.032067 
0.000000 
-0.019240 
0.109027 
-0.012827 
-0.141093 
-0.083373 
0.051307 
0.012827 
-0.000000 
0.057720 
-0.019240 
0.006413 
0.038480 
-0.019240 
0.012827 
0.057720 
0.070547 
-0.012827 
0.038480 
0.057720 
0.057720 
0.025653 
-0.032067 
-0.051307 
-0.038480 
0.076960 
-0.025653 
-0.006413 
-0.019240 
0.038480 
0.038480 
-0.070547 
-0.038480 
0.006413 
0.038480 
-0.000000 
0.070547 
-0.000000 
-0.012827 
0.044893 
-0.057720 
-0.025653 
0.025653 
0.000000 
-0.038480 
0.000000 
-0.057720 
-0.000000 
-0.000000 
0.000000 
-0.006413 
0.006413 
0.006413 
0.006413 
0.038480 
-0.019240 
0.032067 
-0.012827 
0.038480 
0.025653 
-0.012827 
0.006413 
0.000000 
-0.032067 
0.032067 
0.006413 
-0.032067 
0.032067 
0.000000 
-0.025653 
0.025653 
0.012827 
-0.038480 
-0.012827 
0.019240 
0.051307 
-0.000000 
-0.019240 
0.012827 
0.012827 
-0.012827 
0.006413 
0.134680 
-0.044893 
0.006413 
-0.000000 
-0.032067 
0.025653 
0.000000 
0.006413 
-0.089787 
-0.051307 
0.044893 
-0.012827 
-0.012827 
-0.000000 
0.083373 
-0.025653 
0.000000 
0.032067 
-0.076960 
0.025653 
0.096200 
0.057720 
0.038480 
0.012827 
0.012827 
0.019240 
-0.044893 
-0.025653 
0.012827 
-0.006413 
0.083373 
-0.153920 
-0.019240 
0.070547 
-0.019240 
0.064133 
-0.000000 
-0.064133 
0.038480 
0.057720 
-0.006413 
-0.038480 
-0.019240 
-0.019240 
0.025653 
0.025653 
-0.006413 
-0.044893 
-0.019240 
0.000000 
-0.000000 
-0.044893 
0.070547 
0.134680 
-0.019240 
0.000000 
-0.025653 
-0.038480 
0.038480 
-0.025653 
-0.051307 
0.064133 
-0.019240 
0.083373 
-0.025653 
0.012827 
0.070547 
0.025653 
0.038480 
0.025653 
0.000000 
-0.000000 
-0.019240 
0.025653 
0.032067 
-0.032067 
0.032067 
0.012827 
0.006413 
-0.076960 
-0.012827 
-0.038480 
0.006413 
0.032067 
-0.032067 
0.000000 
0.025653 
-0.070547 
-0.000000 
0.044893 
0.032067 
-0.089787 
0.044893 
-0.038480 
-0.025653 
-0.025653 
-0.006413 
-0.096200 
-0.032067 
0.012827 
-0.012827 
-0.012827 
0.012827 
0.000000 
-0.012827 
0.025653 
-0.025653 
-0.044893 
-0.064133 
-0.032067 
-0.038480 
-0.032067 
-0.012827 
0.012827 
-0.038480 
-0.025653 
0.032067 
0.076960 
0.051307 
-0.000000 
-0.019240 
-0.038480 
-0.044893 
-0.000000 
-0.057720 
0.025653 
-0.006413 
-0.076960 
-0.006413 
-0.089787 
-0.006413 
0.025653 
-0.121853 
-0.006413 
-0.051307 
0.044893 
0.057720 
0.076960 
0.012827 
-0.012827 
0.089787 
-0.051307 
-0.032067 
-0.109027 
-0.012827 
-0.038480 
0.237293 
-0.070547 
0.019240 
0.019240 
0.032067 
-0.025653 
0.032067 
-0.057720 
0.019240 
0.006413 
0.051307 
-0.032067 
0.012827 
-0.038480 
0.064133 
-0.044893 
0.006413 
-0.070547 
-0.057720 
0.012827 
0.025653 
0.044893 
-0.025653 
-0.109027 
0.012827 
-0.032067 
-0.025653 
-0.012827 
0.044893 
-0.006413 
0.032067 
-0.006413 
-0.044893 
0.006413 
-0.044893 
-0.038480 
-0.096200 
0.019240 
-0.025653 
-0.089787 
0.038480 
-0.006413 
-0.012827 
-0.109027 
-0.025653 
-0.089787 
-0.025653 
-0.044893 
-0.019240 
-0.025653 
-0.012827 
0.012827 
-0.032067 
0.057720 
-0.032067 
-0.057720 
-0.019240 
-0.032067 
-0.000000 
0.006413 
-0.032067 
0.051307 
0.121853 
-0.051307 
-0.012827 
0.012827 
-0.096200 
0.057720 
-0.012827 
-0.019240 
-0.006413 
-0.044893 
-0.019240 
0.000000 
-0.025653 
0.025653 
-0.019240 
-0.006413 
-0.044893 
-0.025653 
-0.012827 
-0.044893 
0.038480 
0.012827 
-0.089787 
0.000000 
-0.038480 
0.185987 
-0.057720 
-0.019240 
0.006413 
-0.025653 
-0.032067 
0.057720 
-0.025653 
0.019240 
0.051307 
-0.057720 
-0.070547 
-0.019240 
-0.025653 
-0.025653 
0.025653 
0.109027 
-0.006413 
0.019240 
0.076960 
-0.102613 
0.000000 
0.044893 
0.019240 
-0.025653 
-0.019240 
-0.025653 
-0.025653 
0.057720 
0.051307 
0.096200 
-0.006413 
0.083373 
-0.076960 
-0.019240 
-0.032067 
-0.019240 
-0.006413 
0.025653 
-0.019240 
0.076960 
-0.019240 
0.025653 
0.025653 
-0.025653 
-0.006413 
0.038480 
-0.006413 
-0.057720 
0.025653 
0.012827 
-0.012827 
0.070547 
0.000000 
0.070547 
-0.076960 
-0.019240 
-0.006413 
-0.076960 
-0.000000 
0.044893 
0.012827 
-0.096200 
0.019240 
0.012827 
0.102613 
-0.038480 
0.006413 
0.051307 
0.070547 
-0.076960 
-0.025653 
0.038480 
-0.076960 
-0.000000 
-0.012827 
-0.019240 
-0.064133 
-0.000000 
0.019240 
-0.070547 
-0.076960 
-0.070547 
-0.025653 
0.012827 
0.006413 
0.064133 
0.044893 
0.019240 
0.012827 
0.012827 
0.057720 
-0.025653 
-0.000000 
0.102613 
0.032067 
0.006413 
-0.064133 
0.032067 
0.012827 
0.089787 
0.019240 
-0.051307 
0.012827 
0.000000 
0.012827 
-0.070547 
0.006413 
-0.038480 
-0.057720 
0.032067 
0.006413 
-0.096200 
0.025653 
0.057720 
-0.006413 
-0.038480 
0.006413 
-0.057720 
-0.089787 
-0.019240 
0.038480 
0.006413 
0.019240 
0.096200 
-0.012827 
-0.019240 
0.032067 
-0.064133 
-0.012827 
-0.012827 
-0.006413 
0.032067 
0.019240 
-0.032067 
0.038480 
-0.012827 
-0.019240 
-0.096200 
0.025653 
0.025653 
0.025653 
-0.032067 
-0.044893 
-0.012827 
-0.070547 
-0.019240 
-0.025653 
0.051307 
0.006413 
0.038480 
-0.089787 
-0.083373 
0.012827 
0.019240 
-0.051307 
0.000000 
-0.019240 
0.019240 
0.012827 
0.012827 
-0.012827 
-0.044893 
0.064133 
0.032067 
-0.038480 
0.012827 
-0.064133 
-0.038480 
0.019240 
-0.019240 
-0.019240 
-0.038480 
-0.000000 
-0.012827 
0.012827 
-0.000000 
0.083373 
-0.064133 
-0.000000 
0.051307 
-0.012827 
-0.064133 
0.044893 
-0.025653 
-0.025653 
0.044893 
0.006413 
0.019240 
-0.019240 
-0.032067 
0.044893 
-0.006413 
-0.000000 
-0.006413 
0.006413 
-0.089787 
0.000000 
-0.025653 
-0.038480 
0.038480 
-0.057720 
-0.025653 
0.025653 
0.006413 
-0.025653 
0.038480 
-0.006413 
-0.006413 
0.032067 
-0.006413 
-0.012827 
0.019240 
0.000000 
0.032067 
0.019240 
0.051307 
-0.070547 
-0.012827 
-0.038480 
-0.000000 
-0.006413 
-0.006413 
-0.115440 
0.025653 
0.019240 
-0.012827 
0.032067 
-0.102613 
-0.032067 
0.025653 
0.025653 
-0.012827 
0.012827 
0.038480 
0.019240 
-0.044893 
-0.019240 
-0.070547 
0.019240 
0.012827 
0.012827 
0.102613 
-0.051307 
0.006413 
-0.019240 
0.012827 
-0.076960 
0.006413 
-0.012827 
-0.000000 
-0.012827 
0.000000 
0.057720 
-0.012827 
0.006413 
-0.025653 
0.032067 
0.019240 
-0.057720 
0.012827 
0.019240 
-0.025653 
-0.121853 
0.070547 
-0.006413 
-0.064133 
-0.051307 
-0.012827 
-0.006413 
-0.012827 
-0.083373 
0.006413 
0.006413 
-0.019240 
0.006413 
-0.012827 
0.012827 
0.006413 
-0.051307 
-0.006413 
0.006413 
0.012827 
-0.000000 
-0.070547 
-0.019240 
0.019240 
0.000000 
0.032067 
-0.038480 
-0.044893 
-0.000000 
0.025653 
-0.064133 
0.000000 
-0.032067 
-0.038480 
-0.025653 
-0.051307 
-0.096200 
-0.038480 
-0.012827 
-0.076960 
-0.019240 
-0.025653 
-0.025653 
0.006413 
-0.012827 
0.025653 
0.044893 
-0.051307 
0.019240 
-0.025653 
-0.019240 
0.012827 
0.032067 
-0.006413 
-0.102613 
-0.032067 
-0.025653 
0.070547 
-0.064133 
0.012827 
-0.012827 
-0.044893 
0.032067 
0.012827 
0.076960 
-0.025653 
-0.006413 
-0.006413 
-0.032067 
0.083373 
0.051307 
-0.038480 
-0.057720 
-0.057720 
0.076960 
-0.051307 
-0.012827 
-0.012827 
-0.012827 
-0.051307 
-0.019240 
-0.019240 
-0.051307 
-0.102613 
0.006413 
0.000000 
0.051307 
0.044893 
-0.012827 
0.012827 
0.012827 
-0.006413 
-0.000000 
-0.012827 
0.057720 
-0.064133 
0.070547 
-0.025653 
-0.044893 
0.070547 
-0.006413 
-0.019240 
0.064133 
-0.025653 
-0.006413 
0.025653 
0.057720 
-0.057720 
-0.019240 
0.019240 
-0.109027 
-0.012827 
0.019240 
0.025653 
-0.038480 
-0.038480 
0.070547 
-0.025653 
0.000000 
-0.019240 
-0.032067 
0.019240 
0.038480 
0.012827 
0.025653 
0.051307 
0.044893 
0.102613 
0.044893 
0.038480 
-0.032067 
-0.000000 
-0.000000 
-0.012827 
0.006413 
0.044893 
-0.038480 
-0.064133 
-0.006413 
-0.006413 
-0.025653 
-0.006413 
0.012827 
-0.012827 
-0.000000 
-0.057720 
0.057720 
0.141093 
0.012827 
0.032067 
0.019240 
0.006413 
0.012827 
-0.057720 
0.038480 
-0.038480 
-0.025653 
0.044893 
0.019240 
-0.032067 
-0.032067 
0.006413 
-0.038480 
-0.051307 
0.038480 
-0.051307 
-0.038480 
0.012827 
0.032067 
-0.038480 
-0.025653 
0.012827 
-0.115440 
-0.064133 
-0.038480 
-0.109027 
0.166747 
0.076960 
0.006413 
-0.025653 
-0.051307 
-0.006413 
-0.012827 
-0.051307 
-0.019240 
0.038480 
-0.006413 
0.019240 
-0.006413 
0.076960 
0.038480 
-0.070547 
-0.038480 
-0.070547 
-0.006413 
-0.025653 
0.109027 
-0.096200 
-0.006413 
-0.057720 
-0.000000 
-0.076960 
0.038480 
0.000000 
-0.070547 
0.025653 
0.076960 
0.032067 
0.012827 
-0.032067 
-0.012827 
0.000000 
-0.019240 
-0.006413 
0.012827 
-0.019240 
0.025653 
-0.006413 
-0.019240 
0.025653 
0.032067 
0.038480 
-0.083373 
-0.025653 
-0.012827 
-0.000000 
0.102613 
0.057720 
-0.038480 
-0.032067 
0.012827 
0.000000 
-0.070547 
0.044893 
-0.064133 
-0.032067 
0.025653 
0.044893 
-0.064133 
-0.032067 
-0.025653 
-0.019240 
0.025653 
0.012827 
-0.070547 
0.044893 
-0.006413 
-0.051307 
0.019240 
-0.000000 
-0.051307 
0.044893 
0.032067 
-0.070547 
-0.064133 
-0.051307 
-0.006413 
0.025653 
-0.044893 
-0.038480 
-0.025653 
0.019240 
-0.006413 
-0.032067 
-0.064133 
0.000000 
-0.032067 
-0.019240 
-0.044893 
-0.006413 
-0.057720 
-0.000000 
-0.038480 
-0.044893 
-0.096200 
-0.044893 
0.012827 
-0.012827 
0.012827 
0.275773 
-0.038480 
0.006413 
0.012827 
-0.038480 
0.019240 
-0.057720 
0.115440 
-0.012827 
-0.038480 
0.000000 
-0.096200 
-0.019240 
-0.044893 
0.128267 
0.064133 
0.057720 
-0.012827 
-0.057720 
-0.038480 
-0.012827 
-0.019240 
-0.025653 
0.000000 
0.198813 
-0.000000 
0.083373 
-0.032067 
0.025653 
-0.025653 
-0.025653 
-0.025653 
-0.012827 
0.012827 
0.019240 
0.012827 
-0.012827 
0.051307 
-0.051307 
-0.032067 
-0.089787 
-0.006413 
0.109027 
-0.006413 
-0.006413 
-0.019240 
0.121853 
-0.019240 
-0.044893 
0.012827 
-0.115440 
-0.038480 
0.102613 
-0.006413 
-0.064133 
0.109027 
-0.000000 
0.019240 
0.000000 
-0.128267 
-0.006413 
0.038480 
-0.064133 
-0.006413 
0.044893 
0.019240 
-0.032067 
-0.019240 
0.032067 
-0.025653 
0.083373 
-0.038480 
-0.038480 
0.032067 
-0.000000 
0.147507 
-0.057720 
-0.057720 
-0.006413 
0.115440 
-0.025653 
-0.000000 
0.083373 
-0.032067 
0.057720 
0.000000 
-0.070547 
0.006413 
-0.012827 
-0.006413 
-0.089787 
0.025653 
-0.006413 
-0.012827 
-0.032067 
-0.025653 
-0.019240 
0.070547 
-0.032067 
0.025653 
0.070547 
-0.019240 
-0.012827 
-0.147507 
0.025653 
0.121853 
0.057720 
0.038480 
-0.044893 
-0.006413 
-0.006413 
0.025653 
-0.070547 
-0.006413 
-0.032067 
0.044893 
0.019240 
-0.044893 
0.025653 
-0.019240 
0.006413 
-0.012827 
0.000000 
0.019240 
-0.032067 
-0.006413 
-0.006413 
-0.000000 
0.192400 
-0.025653 
-0.032067 
-0.025653 
0.000000 
0.019240 
-0.012827 
-0.019240 
0.012827 
0.032067 
-0.019240 
0.012827 
0.025653 
-0.051307 
0.102613 
0.057720 
-0.032067 
0.000000 
0.051307 
0.185987 
0.025653 
-0.000000 
0.019240 
-0.057720 
-0.115440 
0.198813 
0.128267 
0.012827 
-0.044893 
-0.019240 
-0.064133 
0.102613 
0.250120 
0.019240 
-0.012827 
0.019240 
0.012827 
0.025653 
0.057720 
-0.019240 
-0.096200 
0.089787 
-0.096200 
0.006413 
0.025653 
-0.006413 
-0.006413 
0.051307 
-0.070547 
-0.012827 
0.006413 
-0.057720 
0.051307 
0.006413 
0.025653 
0.185987 
0.000000 
-0.032067 
0.102613 
0.006413 
-0.038480 
-0.096200 
0.032067 
-0.044893 
0.019240 
-0.064133 
-0.012827 
-0.038480 
0.070547 
-0.044893 
0.012827 
0.012827 
-0.012827 
-0.038480 
-0.012827 
-0.006413 
-0.064133 
0.051307 
0.012827 
0.012827 
-0.000000 
-0.000000 
-0.025653 
0.076960 
-0.025653 
-0.051307 
-0.057720 
0.044893 
-0.057720 
-0.032067 
-0.019240 
-0.032067 
0.070547 
-0.006413 
-0.025653 
0.025653 
0.012827 
0.038480 
-0.012827 
-0.051307 
0.070547 
0.044893 
-0.064133 
-0.044893 
-0.057720 
0.000000 
-0.089787 
0.076960 
-0.032067 
-0.057720 
0.019240 
-0.044893 
0.019240 
0.006413 
-0.044893 
-0.044893 
-0.025653 
0.032067 
-0.000000 
0.128267 
0.057720 
-0.044893 
-0.038480 
0.025653 
0.032067 
0.025653 
-0.012827 
0.044893 
-0.032067 
0.012827 
-0.000000 
0.044893 
-0.038480 
-0.064133 
-0.089787 
-0.070547 
0.006413 
-0.044893 
-0.019240 
0.012827 
0.044893 
-0.006413 
-0.006413 
0.006413 
0.025653 
0.000000 
0.025653 
0.025653 
-0.019240 
-0.019240 
0.025653 
0.057720 
-0.057720 
0.012827 
-0.012827 
-0.000000 
0.057720 
0.000000 
-0.025653 
0.032067 
-0.032067 
0.064133 
-0.025653 
0.096200 
0.032067 
0.044893 
0.089787 
0.076960 
0.000000 
-0.006413 
0.019240 
0.019240 
-0.044893 
0.025653 
0.096200 
0.006413 
-0.089787 
0.012827 
0.038480 
-0.057720 
0.038480 
0.025653 
0.000000 
-0.032067 
-0.006413 
0.012827 
-0.044893 
0.051307 
0.019240 
-0.006413 
-0.083373 
-0.032067 
0.019240 
0.051307 
-0.051307 
-0.000000 
-0.057720 
-0.057720 
0.006413 
-0.057720 
-0.070547 
-0.025653 
-0.057720 
-0.025653 
-0.025653 
-0.057720 
-0.038480 
0.038480 
-0.044893 
-0.019240 
-0.044893 
0.006413 
-0.083373 
0.038480 
0.000000 
0.057720 
-0.000000 
-0.083373 
0.019240 
0.064133 
-0.032067 
-0.096200 
-0.070547 
0.096200 
-0.064133 
-0.006413 
-0.083373 
0.025653 
-0.076960 
-0.076960 
0.115440 
-0.019240 
0.000000 
0.128267 
0.025653 
-0.012827 
0.044893 
-0.032067 
0.025653 
-0.012827 
0.019240 
-0.044893 
-0.051307 
0.006413 
-0.012827 
-0.025653 
0.051307 
0.044893 
-0.089787 
-0.057720 
-0.006413 
-0.019240 
0.025653 
-0.025653 
0.012827 
0.044893 
-0.025653 
-0.025653 
-0.032067 
-0.012827 
-0.025653 
-0.006413 
-0.064133 
-0.025653 
0.070547 
0.025653 
-0.006413 
0.089787 
0.019240 
0.064133 
-0.064133 
-0.012827 
-0.006413 
0.012827 
-0.006413 
-0.038480 
-0.006413 
-0.025653 
0.019240 
-0.025653 
0.025653 
0.032067 
-0.019240 
0.012827 
-0.070547 
-0.044893 
0.057720 
-0.032067 
0.012827 
-0.006413 
-0.051307 
-0.006413 
-0.025653 
0.019240 
0.012827 
0.006413 
-0.032067 
-0.006413 
-0.012827 
-0.083373 
-0.083373 
0.339907 
-0.025653 
-0.057720 
-0.012827 
0.032067 
-0.044893 
-0.051307 
-0.019240 
0.032067 
0.070547 
0.044893 
-0.064133 
-0.051307 
0.038480 
-0.115440 
0.025653 
0.128267 
-0.057720 
-0.064133 
0.006413 
-0.012827 
0.025653 
0.006413 
0.006413 
-0.006413 
-0.000000 
-0.006413 
0.038480 
-0.064133 
-0.051307 
-0.012827 
-0.032067 
-0.012827 
0.102613 
0.012827 
0.012827 
-0.019240 
-0.019240 
0.012827 
0.057720 
0.006413 
-0.025653 
-0.057720 
-0.000000 
-0.038480 
-0.012827 
-0.038480 
-0.019240 
-0.012827 
-0.025653 
0.025653 
-0.032067 
0.012827 
0.076960 
-0.064133 
0.019240 
-0.012827 
0.019240 
0.012827 
-0.070547 
-0.032067 
0.032067 
0.044893 
0.019240 
0.076960 
0.012827 
-0.064133 
0.032067 
0.032067 
0.064133 
-0.019240 
-0.025653 
-0.025653 
0.121853 
0.038480 
-0.070547 
0.000000 
-0.032067 
-0.083373 
0.019240 
-0.006413 
-0.089787 
0.044893 
-0.076960 
0.012827 
0.038480 
0.019240 
0.012827 
-0.076960 
0.038480 
0.012827 
0.019240 
0.076960 
0.025653 
-0.019240 
0.057720 
-0.012827 
0.076960 
-0.006413 
-0.012827 
-0.044893 
-0.096200 
0.012827 
0.006413 
0.044893 
-0.012827 
-0.096200 
0.006413 
0.044893 
-0.064133 
0.006413 
-0.019240 
0.038480 
0.038480 
0.070547 
-0.012827 
0.012827 
-0.025653 
0.044893 
-0.012827 
0.218053 
-0.038480 
-0.019240 
-0.051307 
0.185987 
-0.012827 
-0.006413 
-0.038480 
-0.032067 
-0.025653 
0.019240 
-0.019240 
0.051307 
0.019240 
-0.019240 
0.083373 
0.000000 
-0.057720 
0.000000 
-0.032067 
0.044893 
-0.038480 
-0.057720 
0.032067 
0.051307 
0.006413 
0.006413 
0.102613 
-0.083373 
-0.000000 
0.019240 
0.044893 
0.032067 
-0.051307 
0.102613 
0.006413 
0.019240 
0.038480 
-0.064133 
-0.057720 
-0.057720 
-0.044893 
-0.057720 
0.038480 
-0.012827 
-0.025653 
-0.025653 
0.044893 
0.025653 
-0.019240 
-0.051307 
-0.032067 
0.025653 
-0.000000 
-0.019240 
0.038480 
-0.032067 
-0.032067 
-0.012827 
-0.019240 
0.006413 
0.083373 
-0.019240 
0.012827 
0.000000 
-0.102613 
0.025653 
-0.012827 
0.044893 
-0.032067 
-0.051307 
-0.038480 
-0.006413 
-0.064133 
0.051307 
0.019240 
0.089787 
0.006413 
-0.012827 
0.051307 
-0.083373 
-0.076960 
0.044893 
-0.076960 
-0.019240 
-0.025653 
0.019240 
-0.057720 
-0.044893 
0.083373 
-0.006413 
0.083373 
0.032067 
-0.025653 
0.019240 
-0.070547 
0.051307 
-0.012827 
0.000000 
0.006413 
-0.083373 
0.044893 
-0.006413 
-0.012827 
-0.006413 
0.032067 
-0.032067 
0.070547 
0.070547 
-0.044893 
-0.012827 
-0.057720 
-0.064133 
0.000000 
0.019240 
0.025653 
-0.006413 
0.000000 
-0.064133 
-0.070547 
0.109027 
-0.044893 
-0.012827 
-0.012827 
-0.006413 
-0.038480 
-0.038480 
-0.032067 
-0.000000 
0.134680 
-0.038480 
-0.012827 
0.012827 
-0.032067 
-0.044893 
0.051307 
-0.006413 
-0.083373 
-0.012827 
-0.012827 
0.038480 
0.019240 
0.012827 
0.000000 
0.076960 
0.012827 
-0.032067 
0.019240 
0.000000 
0.057720 
-0.012827 
0.025653 
0.070547 
-0.064133 
-0.051307 
-0.051307 
-0.012827 
-0.064133 
0.076960 
-0.012827 
-0.076960 
-0.134680 
0.051307 
0.000000 
-0.032067 
-0.006413 
0.109027 
0.115440 
0.070547 
-0.083373 
0.006413 
-0.032067 
0.089787 
-0.038480 
0.006413 
-0.051307 
-0.064133 
-0.025653 
-0.032067 
-0.006413 
-0.012827 
-0.096200 
0.006413 
0.076960 
0.044893 
-0.012827 
0.012827 
-0.032067 
-0.051307 
0.019240 
-0.032067 
0.012827 
-0.057720 
0.051307 
0.012827 
-0.089787 
-0.044893 
-0.025653 
-0.064133 
-0.083373 
0.025653 
-0.006413 
0.025653 
-0.044893 
0.051307 
-0.044893 
-0.025653 
0.179573 
0.000000 
-0.032067 
-0.076960 
-0.012827 
-0.057720 
0.051307 
0.032067 
-0.096200 
-0.032067 
-0.044893 
-0.006413 
0.012827 
-0.038480 
-0.038480 
-0.051307 
-0.038480 
-0.000000 
-0.025653 
0.147507 
-0.000000 
0.006413 
0.038480 
0.025653 
0.038480 
0.044893 
-0.083373 
-0.044893 
-0.019240 
0.025653 
-0.019240 
-0.038480 
-0.019240 
-0.038480 
0.044893 
0.006413 
-0.006413 
0.012827 
-0.051307 
-0.019240 
0.012827 
-0.006413 
0.070547 
0.000000 
0.115440 
0.038480 
-0.038480 
-0.038480 
0.019240 
-0.012827 
-0.006413 
0.057720 
0.032067 
0.019240 
-0.089787 
0.038480 
-0.006413 
-0.064133 
-0.012827 
-0.006413 
0.076960 
-0.006413 
0.012827 
-0.032067 
-0.019240 
-0.025653 
-0.019240 
0.006413 
-0.012827 
-0.051307 
0.012827 
-0.025653 
0.032067 
-0.025653 
0.006413 
0.019240 
-0.083373 
-0.044893 
-0.044893 
-0.032067 
0.025653 
-0.057720 
-0.025653 
-0.064133 
0.032067 
0.012827 
-0.019240 
-0.000000 
0.032067 
0.000000 
0.000000 
-0.019240 
0.109027 
0.000000 
-0.025653 
0.025653 
-0.057720 
-0.012827 
0.019240 
0.096200 
0.025653 
-0.019240 
0.038480 
-0.006413 
-0.012827 
-0.012827 
0.025653 
-0.012827 
-0.038480 
-0.076960 
0.032067 
0.064133 
-0.044893 
0.012827 
-0.083373 
0.019240 
0.006413 
-0.006413 
-0.012827 
0.038480 
0.064133 
0.153920 
0.166747 
-0.006413 
-0.006413 
0.012827 
-0.064133 
-0.019240 
-0.025653 
0.012827 
0.019240 
-0.057720 
-0.012827 
0.012827 
0.038480 
0.076960 
0.102613 
-0.006413 
-0.019240 
0.076960 
0.006413 
0.019240 
0.012827 
-0.083373 
-0.006413 
0.006413 
0.032067 
0.038480 
0.006413 
-0.019240 
-0.038480 
-0.089787 
-0.012827 
0.025653 
-0.057720 
-0.012827 
-0.000000 
-0.083373 
-0.012827 
-0.064133 
0.025653 
-0.012827 
-0.051307 
-0.064133 
-0.006413 
0.012827 
-0.044893 
0.032067 
-0.012827 
0.057720 
-0.032067 
0.038480 
-0.038480 
-0.019240 
0.051307 
0.019240 
-0.019240 
-0.128267 
-0.064133 
0.012827 
-0.044893 
0.000000 
0.006413 
0.025653 
-0.038480 
-0.038480 
-0.044893 
0.000000 
-0.012827 
-0.012827 
-0.006413 
-0.121853 
0.025653 
0.006413 
0.025653 
0.006413 
-0.032067 
0.006413 
-0.012827 
-0.044893 
0.006413 
0.102613 
0.025653 
0.032067 
0.057720 
-0.019240 
-0.044893 
-0.083373 
-0.019240 
-0.006413 
0.044893 
0.000000 
0.019240 
-0.025653 
0.038480 
0.032067 
0.070547 
0.025653 
0.012827 
-0.089787 
0.032067 
-0.032067 
-0.019240 
-0.044893 
0.000000 
0.012827 
-0.044893 
-0.147507 
-0.006413 
0.032067 
-0.012827 
-0.019240 
0.051307 
-0.025653 
0.012827 
0.025653 
-0.038480 
0.032067 
0.006413 
-0.160333 
0.000000 
0.019240 
0.012827 
-0.012827 
0.006413 
0.006413 
-0.032067 
-0.000000 
0.006413 
-0.032067 
-0.064133 
-0.044893 
0.025653 
0.006413 
-0.012827 
0.044893 
-0.019240 
0.006413 
-0.032067 
0.083373 
-0.000000 
-0.032067 
-0.044893 
-0.019240 
-0.038480 
0.128267 
-0.038480 
-0.064133 
-0.038480 
-0.012827 
-0.057720 
-0.070547 
-0.012827 
-0.012827 
-0.032067 
-0.025653 
-0.006413 
0.000000 
0.057720 
0.019240 
0.006413 
0.012827 
0.006413 
0.044893 
-0.032067 
0.012827 
-0.006413 
-0.076960 
0.032067 
-0.057720 
-0.083373 
-0.051307 
-0.032067 
-0.057720 
-0.038480 
-0.032067 
-0.006413 
-0.038480 
-0.038480 
-0.044893 
0.019240 
-0.089787 
-0.019240 
0.051307 
-0.057720 
-0.057720 
-0.051307 
0.019240 
0.012827 
0.006413 
-0.032067 
-0.051307 
0.064133 
-0.064133 
-0.076960 
0.012827 
-0.044893 
-0.012827 
-0.025653 
0.115440 
0.000000 
-0.070547 
-0.044893 
0.102613 
0.019240 
-0.019240 
-0.076960 
0.205227 
-0.032067 
0.032067 
-0.096200 
-0.025653 
0.038480 
-0.012827 
0.032067 
0.000000 
-0.012827 
-0.019240 
0.076960 
-0.044893 
0.064133 
-0.012827 
-0.025653 
-0.051307 
0.019240 
0.012827 
-0.064133 
0.000000 
0.051307 
-0.012827 
-0.019240 
0.000000 
0.019240 
-0.044893 
-0.076960 
-0.006413 
-0.025653 
-0.019240 
-0.083373 
0.083373 
-0.012827 
-0.019240 
-0.019240 
-0.083373 
0.019240 
0.006413 
0.006413 
0.012827 
-0.057720 
-0.064133 
-0.025653 
0.019240 
0.019240 
-0.012827 
0.006413 
-0.025653 
-0.076960 
0.012827 
0.006413 
0.044893 
-0.000000 
-0.012827 
-0.057720 
-0.000000 
-0.012827 
0.006413 
0.102613 
0.051307 
-0.032067 
-0.038480 
-0.044893 
0.012827 
-0.032067 
-0.064133 
-0.102613 
0.038480 
-0.012827 
-0.064133 
-0.000000 
-0.038480 
0.032067 
-0.006413 
-0.000000 
-0.025653 
-0.044893 
-0.025653 
0.032067 
-0.044893 
0.012827 
0.012827 
0.083373 
-0.044893 
0.006413 
0.096200 
-0.038480 
0.076960 
0.038480 
-0.025653 
-0.051307 
-0.019240 
0.038480 
-0.038480 
-0.051307 
0.012827 
-0.057720 
-0.025653 
0.051307 
0.006413 
-0.032067 
0.051307 
-0.083373 
0.019240 
0.038480 
0.006413 
-0.032067 
-0.000000 
0.288600 
0.115440 
0.032067 
-0.038480 
-0.051307 
-0.006413 
-0.051307 
0.032067 
-0.057720 
-0.025653 
-0.070547 
-0.019240 
-0.038480 
0.032067 
0.051307 
0.218053 
-0.025653 
0.032067 
0.057720 
-0.012827 
0.025653 
0.070547 
-0.038480 
-0.025653 
-0.006413 
-0.032067 
-0.019240 
-0.038480 
0.064133 
0.089787 
-0.025653 
-0.019240 
-0.051307 
0.025653 
0.038480 
0.019240 
-0.141093 
0.000000 
0.012827 
0.102613 
-0.051307 
-0.032067 
0.032067 
0.064133 
-0.057720 
0.000000 
0.025653 
0.012827 
0.006413 
-0.057720 
0.025653 
-0.064133 
0.025653 
0.044893 
0.032067 
-0.057720 
-0.025653 
0.064133 
-0.044893 
-0.057720 
0.038480 
0.076960 
-0.006413 
0.025653 
-0.025653 
0.006413 
0.076960 
0.044893 
-0.006413 
-0.038480 
-0.070547 
-0.025653 
-0.012827 
0.025653 
-0.038480 
0.064133 
0.102613 
-0.076960 
0.012827 
0.096200 
-0.032067 
-0.000000 
0.032067 
0.012827 
0.000000 
-0.038480 
0.006413 
0.064133 
-0.006413 
-0.057720 
0.083373 
-0.083373 
-0.000000 
0.044893 
0.064133 
0.000000 
0.070547 
-0.000000 
-0.051307 
-0.102613 
-0.051307 
-0.044893 
0.006413 
-0.006413 
0.025653 
0.038480 
0.044893 
-0.057720 
0.006413 
-0.019240 
-0.000000 
0.025653 
0.000000 
-0.064133 
0.012827 
0.019240 
0.025653 
0.019240 
-0.032067 
0.064133 
-0.057720 
-0.044893 
-0.032067 
0.006413 
0.032067 
-0.012827 
-0.006413 
0.032067 
-0.057720 
-0.025653 
0.147507 
0.044893 
-0.032067 
-0.064133 
-0.044893 
0.019240 
-0.076960 
0.000000 
-0.000000 
0.025653 
-0.057720 
-0.083373 
0.032067 
-0.012827 
-0.038480 
-0.006413 
0.025653 
-0.032067 
-0.025653 
-0.025653 
-0.012827 
-0.102613 
-0.019240 
0.032067 
-0.044893 
-0.006413 
0.070547 
0.051307 
-0.006413 
-0.038480 
-0.109027 
0.012827 
-0.064133 
0.076960 
0.057720 
-0.057720 
-0.044893 
-0.019240 
-0.000000 
-0.038480 
-0.038480 
0.025653 
-0.032067 
0.019240 
-0.051307 
-0.019240 
0.025653 
-0.070547 
0.044893 
-0.025653 
0.051307 
-0.083373 
-0.038480 
-0.012827 
0.070547 
-0.044893 
-0.025653 
-0.006413 
0.012827 
0.012827 
0.006413 
-0.025653 
-0.109027 
0.012827 
-0.038480 
0.019240 
-0.019240 
-0.006413 
-0.064133 
0.057720 
-0.038480 
-0.019240 
0.012827 
-0.006413 
0.012827 
-0.051307 
-0.032067 
-0.012827 
0.051307 
-0.089787 
0.057720 
0.012827 
-0.006413 
-0.012827 
-0.070547 
-0.109027 
0.025653 
0.012827 
-0.032067 
0.006413 
0.044893 
-0.032067 
0.019240 
0.012827 
-0.019240 
0.032067 
-0.012827 
0.064133 
-0.019240 
-0.096200 
0.044893 
0.000000 
-0.012827 
0.019240 
0.019240 
0.019240 
0.006413 
-0.102613 
0.012827 
0.096200 
-0.044893 
0.006413 
-0.019240 
-0.083373 
-0.006413 
0.038480 
-0.044893 
-0.006413 
0.057720 
-0.019240 
-0.044893 
0.019240 
-0.044893 
0.019240 
0.019240 
-0.012827 
0.019240 
0.115440 
-0.006413 
-0.038480 
-0.012827 
-0.051307 
-0.025653 
0.057720 
-0.006413 
-0.038480 
-0.121853 
0.012827 
0.051307 
-0.012827 
0.057720 
0.083373 
0.019240 
0.019240 
0.006413 
-0.044893 
-0.006413 
-0.006413 
0.012827 
-0.032067 
-0.019240 
0.051307 
-0.000000 
0.000000 
0.044893 
0.000000 
0.006413 
-0.089787 
-0.076960 
-0.044893 
0.006413 
-0.044893 
-0.019240 
-0.012827 
0.076960 
-0.000000 
-0.019240 
0.012827 
-0.038480 
-0.019240 
0.044893 
-0.025653 
-0.044893 
0.032067 
-0.012827 
0.025653 
0.032067 
-0.006413 
-0.006413 
0.076960 
-0.000000 
-0.083373 
0.051307 
-0.070547 
-0.012827 
-0.083373 
-0.057720 
0.019240 
0.025653 
-0.070547 
-0.032067 
0.096200 
0.032067 
-0.051307 
0.006413 
-0.019240 
-0.019240 
0.115440 
-0.025653 
0.006413 
-0.006413 
-0.025653 
-0.000000 
-0.006413 
0.160333 
-0.044893 
0.019240 
0.038480 
0.038480 
-0.012827 
-0.051307 
-0.025653 
-0.032067 
0.000000 
-0.012827 
0.160333 
-0.057720 
-0.115440 
-0.019240 
-0.025653 
-0.032067 
0.000000 
-0.032067 
-0.076960 
-0.083373 
-0.019240 
-0.006413 
-0.032067 
-0.019240 
-0.025653 
0.006413 
0.006413 
-0.006413 
-0.012827 
-0.019240 
-0.000000 
-0.115440 
0.012827 
0.038480 
-0.032067 
-0.012827 
-0.006413 
0.038480 
-0.025653 
-0.006413 
-0.032067 
-0.019240 
-0.057720 
0.019240 
0.025653 
0.012827 
-0.019240 
-0.109027 
0.000000 
-0.038480 
0.025653 
0.006413 
-0.012827 
-0.032067 
0.038480 
0.057720 
-0.006413 
-0.019240 
-0.032067 
-0.025653 
-0.051307 
-0.089787 
0.051307 
0.032067 
-0.083373 
-0.102613 
-0.038480 
0.134680 
0.038480 
0.006413 
0.000000 
-0.057720 
0.012827 
0.051307 
-0.044893 
-0.019240 
-0.006413 
0.019240 
0.000000 
0.250120 
0.070547 
-0.025653 
-0.019240 
0.025653 
-0.019240 
0.057720 
0.057720 
-0.089787 
0.019240 
-0.057720 
0.128267 
-0.051307 
0.025653 
0.032067 
-0.006413 
0.070547 
-0.038480 
0.076960 
-0.006413 
-0.032067 
-0.006413 
-0.000000 
-0.012827 
-0.038480 
-0.025653 
-0.019240 
-0.025653 
-0.038480 
0.019240 
0.121853 
0.064133 
0.000000 
-0.025653 
0.025653 
-0.057720 
-0.025653 
0.115440 
-0.012827 
0.006413 
0.057720 
-0.032067 
0.019240 
-0.076960 
-0.019240 
0.044893 
-0.012827 
-0.032067 
0.064133 
-0.070547 
0.019240 
-0.032067 
-0.044893 
-0.032067 
-0.064133 
0.019240 
0.019240 
-0.057720 
-0.038480 
0.032067 
-0.012827 
-0.038480 
0.019240 
0.025653 
-0.051307 
-0.006413 
-0.025653 
-0.019240 
-0.006413 
-0.051307 
0.006413 
-0.032067 
0.006413 
0.179573 
-0.057720 
-0.038480 
-0.012827 
0.032067 
0.019240 
-0.012827 
-0.019240 
0.025653 
0.032067 
0.000000 
-0.064133 
-0.000000 
0.032067 
-0.032067 
0.012827 
0.019240 
-0.083373 
0.019240 
0.057720 
-0.083373 
0.038480 
0.000000 
-0.076960 
0.070547 
0.012827 
0.000000 
0.057720 
-0.025653 
0.044893 
0.032067 
-0.057720 
0.025653 
0.019240 
-0.000000 
0.089787 
0.038480 
-0.019240 
-0.025653 
-0.006413 
-0.019240 
-0.032067 
-0.000000 
0.000000 
0.044893 
0.057720 
-0.025653 
-0.057720 
-0.012827 
0.064133 
-0.025653 
0.147507 
-0.012827 
0.000000 
-0.025653 
0.044893 
0.032067 
0.032067 
-0.006413 
0.006413 
-0.012827 
0.012827 
0.032067 
0.019240 
-0.012827 
0.000000 
-0.044893 
0.012827 
0.012827 
0.038480 
-0.064133 
-0.166747 
0.070547 
-0.019240 
0.153920 
0.070547 
-0.051307 
0.000000 
-0.025653 
-0.006413 
0.006413 
-0.025653 
0.044893 
0.006413 
-0.070547 
-0.051307 
-0.038480 
-0.070547 
-0.012827 
-0.012827 
-0.012827 
0.089787 
-0.057720 
-0.025653 
-0.025653 
0.044893 
-0.051307 
-0.032067 
-0.115440 
-0.012827 
0.044893 
-0.000000 
-0.038480 
-0.012827 
0.064133 
0.025653 
-0.019240 
-0.012827 
0.012827 
-0.057720 
0.051307 
-0.044893 
-0.019240 
0.006413 
-0.032067 
0.070547 
-0.051307 
-0.109027 
-0.006413 
-0.044893 
-0.006413 
0.032067 
-0.025653 
-0.044893 
-0.044893 
-0.044893 
0.064133 
-0.006413 
-0.089787 
0.051307 
0.025653 
0.102613 
-0.032067 
0.032067 
0.025653 
-0.006413 
0.006413 
-0.025653 
-0.012827 
-0.006413 
-0.051307 
0.025653 
0.102613 
0.019240 
-0.025653 
-0.006413 
-0.006413 
-0.044893 
-0.038480 
-0.019240 
0.064133 
-0.012827 
-0.051307 
0.000000 
-0.000000 
-0.128267 
-0.006413 
-0.076960 
0.044893 
-0.038480 
-0.032067 
-0.070547 
-0.057720 
-0.012827 
0.019240 
-0.038480 
-0.006413 
-0.038480 
0.032067 
-0.025653 
-0.012827 
-0.019240 
-0.006413 
0.064133 
0.000000 
-0.006413 
-0.057720 
-0.019240 
-0.012827 
0.064133 
-0.051307 
-0.006413 
0.019240 
-0.025653 
-0.000000 
0.019240 
-0.070547 
0.032067 
-0.019240 
-0.006413 
-0.038480 
-0.076960 
-0.064133 
-0.019240 
-0.019240 
-0.025653 
-0.044893 
0.038480 
0.000000 
0.000000 
0.019240 
0.000000 
-0.057720 
0.012827 
0.083373 
-0.000000 
0.019240 
-0.012827 
-0.044893 
-0.019240 
-0.019240 
-0.025653 
0.000000 
-0.032067 
0.025653 
-0.025653 
-0.006413 
-0.070547 
-0.051307 
-0.070547 
0.006413 
-0.000000 
-0.025653 
-0.057720 
-0.019240 
-0.044893 
0.064133 
0.006413 
-0.006413 
-0.019240 
-0.000000 
0.012827 
0.064133 
0.032067 
-0.083373 
-0.076960 
-0.038480 
-0.032067 
0.057720 
-0.019240 
-0.032067 
-0.006413 
-0.006413 
0.006413 
0.000000 
0.025653 
0.000000 
-0.051307 
-0.064133 
-0.019240 
0.000000 
0.032067 
0.025653 
-0.012827 
0.038480 
0.051307 
0.134680 
0.051307 
-0.006413 
-0.025653 
-0.064133 
-0.044893 
-0.096200 
0.032067 
-0.064133 
-0.019240 
0.083373 
-0.051307 
-0.025653 
0.102613 
0.012827 
0.019240 
-0.019240 
-0.076960 
-0.025653 
0.038480 
-0.025653 
-0.064133 
0.051307 
-0.012827 
-0.012827 
-0.044893 
-0.032067 
0.064133 
-0.038480 
-0.044893 
-0.057720 
-0.083373 
-0.006413 
0.083373 
0.019240 
-0.076960 
0.038480 
0.006413 
-0.019240 
0.006413 
-0.083373 
0.000000 
-0.025653 
0.012827 
-0.038480 
0.019240 
-0.019240 
0.089787 
-0.032067 
0.006413 
-0.044893 
-0.019240 
0.000000 
-0.006413 
0.025653 
-0.012827 
0.019240 
-0.032067 
-0.000000 
-0.019240 
-0.038480 
0.057720 
0.076960 
-0.057720 
-0.000000 
-0.051307 
-0.076960 
-0.032067 
0.083373 
0.012827 
-0.025653 
-0.012827 
-0.000000 
-0.012827 
0.038480 
0.044893 
-0.057720 
0.019240 
0.000000 
-0.012827 
-0.000000 
0.006413 
-0.019240 
0.019240 
-0.006413 
0.051307 
0.006413 
-0.051307 
-0.089787 
0.070547 
-0.000000 
-0.044893 
-0.128267 
-0.051307 
-0.006413 
0.032067 
0.000000 
0.025653 
-0.076960 
-0.025653 
-0.019240 
-0.044893 
-0.006413 
0.064133 
0.044893 
-0.006413 
-0.006413 
0.032067 
-0.044893 
0.038480 
0.012827 
0.211640 
0.019240 
0.012827 
-0.019240 
0.038480 
0.019240 
-0.012827 
-0.012827 
0.006413 
-0.000000 
0.006413 
-0.006413 
0.012827 
0.006413 
-0.070547 
-0.057720 
-0.006413 
-0.076960 
0.019240 
-0.051307 
-0.025653 
-0.000000 
-0.000000 
-0.006413 
-0.006413 
-0.057720 
-0.051307 
-0.051307 
-0.032067 
0.057720 
0.000000 
0.019240 
-0.012827 
-0.070547 
0.012827 
-0.089787 
-0.044893 
0.012827 
0.051307 
-0.025653 
0.070547 
-0.019240 
-0.019240 
-0.012827 
-0.025653 
-0.044893 
-0.032067 
-0.064133 
0.102613 
0.032067 
-0.038480 
0.076960 
0.025653 
-0.012827 
0.076960 
-0.006413 
-0.000000 
0.070547 
0.051307 
-0.012827 
0.019240 
-0.083373 
0.019240 
-0.038480 
0.134680 
0.000000 
-0.019240 
0.019240 
0.006413 
0.012827 
-0.006413 
0.012827 
-0.012827 
-0.019240 
-0.051307 
-0.000000 
0.044893 
-0.064133 
-0.019240 
0.019240 
0.057720 
-0.057720 
-0.025653 
-0.019240 
-0.025653 
0.051307 
0.038480 
0.006413 
-0.076960 
0.064133 
0.006413 
0.070547 
-0.032067 
-0.025653 
-0.057720 
0.044893 
0.019240 
-0.025653 
0.019240 
-0.070547 
0.019240 
0.006413 
0.025653 
-0.019240 
-0.032067 
0.032067 
-0.012827 
0.019240 
-0.032067 
0.000000 
-0.006413 
-0.051307 
0.012827 
0.006413 
-0.064133 
-0.109027 
-0.000000 
-0.038480 
-0.019240 
0.012827 
-0.006413 
-0.019240 
0.012827 
-0.012827 
-0.038480 
-0.032067 
0.019240 
-0.012827 
0.025653 
-0.038480 
0.083373 
0.064133 
-0.006413 
0.038480 
-0.000000 
0.000000 
0.121853 
-0.057720 
0.012827 
0.025653 
0.032067 
-0.038480 
0.064133 
-0.057720 
0.070547 
0.025653 
0.006413 
0.115440 
-0.032067 
-0.038480 
-0.089787 
0.115440 
0.006413 
0.083373 
-0.057720 
0.057720 
0.044893 
-0.006413 
0.012827 
-0.044893 
-0.089787 
0.051307 
0.083373 
-0.051307 
-0.025653 
0.051307 
0.019240 
-0.006413 
-0.070547 
0.006413 
-0.019240 
-0.044893 
0.006413 
-0.057720 
-0.012827 
-0.019240 
0.044893 
-0.000000 
-0.044893 
0.025653 
-0.019240 
0.025653 
0.032067 
0.006413 
0.012827 
0.121853 
0.019240 
-0.012827 
0.006413 
0.006413 
-0.051307 
-0.121853 
0.019240 
0.000000 
-0.019240 
-0.038480 
-0.025653 
0.012827 
-0.000000 
-0.006413 
-0.051307 
-0.051307 
0.038480 
0.019240 
-0.019240 
0.012827 
0.012827 
-0.032067 
-0.012827 
0.038480 
-0.064133 
-0.019240 
-0.032067 
-0.051307 
0.032067 
-0.019240 
-0.006413 
0.000000 
-0.032067 
-0.000000 
-0.038480 
0.012827 
-0.032067 
-0.044893 
-0.032067 
-0.032067 
-0.096200 
0.044893 
-0.032067 
-0.051307 
-0.057720 
0.128267 
-0.019240 
0.006413 
0.070547 
-0.032067 
-0.057720 
0.083373 
0.025653 
-0.012827 
0.134680 
0.153920 
-0.019240 
0.032067 
-0.012827 
0.089787 
-0.070547 
-0.006413 
-0.096200 
0.019240 
0.051307 
0.038480 
0.012827 
-0.025653 
-0.044893 
0.012827 
-0.019240 
0.012827 
0.012827 
0.012827 
-0.070547 
0.019240 
0.038480 
-0.038480 
-0.025653 
0.000000 
-0.019240 
-0.057720 
0.012827 
-0.089787 
0.012827 
-0.032067 
0.032067 
-0.019240 
0.179573 
-0.051307 
-0.038480 
0.000000 
-0.006413 
0.012827 
0.044893 
-0.096200 
-0.032067 
-0.057720 
0.038480 
0.012827 
-0.044893 
-0.044893 
-0.032067 
-0.012827 
-0.064133 
0.019240 
0.006413 
0.025653 
0.012827 
-0.032067 
-0.109027 
0.012827 
0.032067 
0.032067 
-0.006413 
-0.044893 
-0.051307 
0.006413 
0.044893 
-0.089787 
0.012827 
0.076960 
-0.006413 
-0.051307 
0.019240 
-0.012827 
0.006413 
0.019240 
-0.012827 
0.012827 
-0.064133 
0.019240 
0.006413 
-0.025653 
-0.038480 
0.019240 
0.057720 
-0.025653 
0.096200 
-0.006413 
0.012827 
-0.057720 
0.038480 
-0.070547 
0.019240 
-0.019240 
0.006413 
0.269360 
0.032067 
-0.083373 
0.019240 
-0.006413 
0.006413 
-0.006413 
0.064133 
0.006413 
0.025653 
-0.076960 
0.000000 
0.025653 
0.012827 
0.057720 
0.057720 
-0.044893 
0.064133 
0.019240 
-0.070547 
-0.038480 
-0.006413 
0.198813 
-0.038480 
-0.057720 
-0.032067 
-0.141093 
-0.051307 
-0.019240 
-0.064133 
-0.089787 
-0.032067 
-0.064133 
-0.012827 
-0.006413 
0.025653 
-0.012827 
-0.051307 
-0.109027 
0.006413 
-0.064133 
-0.019240 
-0.057720 
0.019240 
0.032067 
0.057720 
0.121853 
-0.012827 
-0.070547 
-0.025653 
-0.006413 
-0.000000 
-0.044893 
0.006413 
-0.000000 
0.057720 
0.019240 
-0.032067 
0.064133 
0.134680 
-0.128267 
0.051307 
0.044893 
-0.012827 
-0.044893 
0.141093 
0.096200 
-0.096200 
0.012827 
-0.070547 
0.012827 
-0.044893 
0.109027 
0.019240 
-0.032067 
0.006413 
-0.012827 
-0.051307 
-0.096200 
0.121853 
-0.070547 
-0.076960 
-0.064133 
-0.006413 
-0.019240 
0.057720 
0.089787 
-0.038480 
-0.064133 
-0.012827 
-0.057720 
-0.044893 
-0.064133 
-0.083373 
0.025653 
-0.000000 
0.025653 
-0.025653 
0.115440 
-0.032067 
-0.044893 
0.006413 
0.051307 
0.006413 
-0.076960 
-0.038480 
0.057720 
-0.032067 
0.051307 
0.070547 
-0.057720 
0.019240 
-0.051307 
-0.044893 
0.044893 
0.006413 
-0.057720 
-0.006413 
0.070547 
-0.012827 
-0.083373 
0.057720 
0.025653 
-0.025653 
0.070547 
0.032067 
-0.000000 
-0.012827 
-0.083373 
0.051307 
-0.096200 
0.006413 
0.032067 
-0.019240 
-0.012827 
-0.051307 
0.057720 
-0.051307 
-0.057720 
0.051307 
0.000000 
-0.006413 
-0.038480 
-0.038480 
0.006413 
-0.012827 
-0.051307 
-0.006413 
-0.141093 
-0.096200 
0.000000 
0.076960 
-0.025653 
0.006413 
-0.057720 
-0.006413 
0.006413 
-0.044893 
0.012827 
0.032067 
-0.032067 
0.025653 
-0.012827 
0.057720 
-0.051307 
0.051307 
-0.019240 
-0.070547 
0.032067 
-0.019240 
0.012827 
0.192400 
0.102613 
-0.051307 
-0.070547 
0.070547 
-0.109027 
0.038480 
-0.025653 
0.089787 
0.012827 
0.064133 
0.185987 
0.025653 
-0.044893 
-0.006413 
-0.076960 
0.000000 
-0.025653 
-0.044893 
0.025653 
-0.051307 
-0.083373 
0.064133 
0.070547 
-0.006413 
-0.006413 
0.006413 
-0.006413 
-0.038480 
0.019240 
-0.006413 
-0.044893 
0.044893 
0.064133 
0.038480 
-0.025653 
-0.032067 
-0.012827 
-0.089787 
0.083373 
0.044893 
0.083373 
-0.044893 
-0.076960 
-0.012827 
-0.121853 
0.019240 
0.166747 
-0.166747 
0.012827 
-0.006413 
0.006413 
0.019240 
0.076960 
0.006413 
-0.019240 
-0.096200 
-0.012827 
-0.051307 
-0.032067 
-0.044893 
0.051307 
0.006413 
-0.032067 
0.025653 
-0.102613 
0.051307 
0.000000 
-0.076960 
-0.102613 
-0.032067 
-0.012827 
-0.051307 
0.032067 
0.019240 
0.006413 
-0.064133 
-0.012827 
0.051307 
0.006413 
0.057720 
0.134680 
-0.019240 
0.019240 
0.012827 
-0.044893 
0.051307 
-0.076960 
-0.070547 
0.032067 
0.006413 
-0.089787 
-0.044893 
-0.044893 
0.070547 
-0.051307 
-0.057720 
-0.006413 
-0.115440 
0.064133 
-0.102613 
-0.006413 
0.012827 
-0.096200 
-0.019240 
-0.057720 
-0.032067 
0.012827 
-0.025653 
-0.025653 
-0.032067 
-0.019240 
-0.064133 
-0.083373 
0.012827 
0.070547 
0.115440 
-0.012827 
0.076960 
0.057720 
0.051307 
0.006413 
-0.019240 
-0.025653 
-0.109027 
-0.012827 
-0.019240 
0.128267 
-0.019240 
0.051307 
-0.089787 
0.006413 
0.006413 
0.006413 
-0.006413 
-0.051307 
0.000000 
0.044893 
-0.019240 
0.089787 
-0.076960 
0.044893 
0.000000 
-0.051307 
-0.064133 
-0.064133 
0.070547 
0.089787 
0.025653 
-0.070547 
-0.051307 
0.000000 
0.070547 
-0.012827 
0.000000 
-0.057720 
0.076960 
0.141093 
0.025653 
-0.076960 
-0.025653 
-0.076960 
0.012827 
-0.032067 
-0.006413 
0.064133 
-0.032067 
0.038480 
0.032067 
0.032067 
-0.019240 
-0.019240 
-0.128267 
0.057720 
-0.032067 
0.185987 
0.012827 
-0.044893 
-0.115440 
0.064133 
-0.109027 
0.006413 
-0.025653 
0.147507 
-0.038480 
-0.025653 
0.076960 
0.032067 
-0.044893 
-0.006413 
0.012827 
0.025653 
-0.032067 
-0.064133 
-0.025653 
-0.076960 
-0.057720 
-0.000000 
-0.000000 
0.089787 
0.109027 
-0.006413 
-0.057720 
-0.006413 
-0.032067 
-0.051307 
0.051307 
0.006413 
-0.006413 
-0.038480 
0.012827 
-0.064133 
-0.057720 
-0.025653 
0.218053 
0.076960 
-0.044893 
0.006413 
0.044893 
0.083373 
-0.019240 
-0.070547 
-0.012827 
0.128267 
-0.019240 
0.051307 
0.070547 
-0.038480 
-0.012827 
0.000000 
0.032067 
-0.025653 
0.051307 
-0.000000 
-0.006413 
-0.006413 
-0.019240 
-0.096200 
0.044893 
-0.006413 
-0.012827 
0.025653 
-0.057720 
0.000000 
0.038480 
-0.044893 
-0.025653 
-0.006413 
0.019240 
-0.051307 
0.006413 
0.000000 
0.070547 
0.000000 
-0.096200 
-0.025653 
-0.038480 
0.102613 
-0.096200 
-0.083373 
-0.006413 
-0.025653 
0.179573 
0.064133 
-0.153920 
0.025653 
-0.012827 
-0.044893 
-0.083373 
0.076960 
0.044893 
-0.025653 
0.192400 
0.012827 
-0.025653 
0.051307 
-0.057720 
0.038480 
0.032067 
-0.083373 
-0.006413 
-0.038480 
0.076960 
0.051307 
0.051307 
0.089787 
-0.070547 
-0.038480 
0.012827 
0.006413 
0.025653 
-0.070547 
0.019240 
-0.019240 
-0.038480 
0.025653 
-0.070547 
-0.057720 
-0.134680 
0.025653 
0.038480 
0.205227 
0.006413 
0.109027 
-0.019240 
0.019240 
0.096200 
0.019240 
0.076960 
0.057720 
0.000000 
0.166747 
-0.012827 
0.025653 
0.038480 
0.038480 
-0.025653 
0.044893 
-0.128267 
0.006413 
-0.006413 
0.012827 
-0.064133 
-0.044893 
-0.064133 
0.000000 
-0.044893 
-0.025653 
0.019240 
-0.044893 
0.032067 
-0.038480 
-0.141093 
-0.012827 
0.006413 
-0.019240 
0.019240 
-0.012827 
-0.012827 
0.064133 
-0.070547 
0.032067 
0.051307 
0.044893 
0.019240 
-0.006413 
0.019240 
0.012827 
0.064133 
0.064133 
-0.012827 
-0.012827 
0.012827 
-0.012827 
0.012827 
0.057720 
0.019240 
0.012827 
-0.064133 
0.064133 
-0.032067 
0.019240 
0.019240 
0.012827 
-0.044893 
0.038480 
-0.012827 
-0.012827 
0.102613 
0.038480 
-0.012827 
-0.012827 
-0.025653 
-0.012827 
-0.025653 
0.000000 
0.115440 
-0.032067 
0.044893 
0.211640 
0.025653 
-0.044893 
-0.006413 
-0.038480 
0.044893 
0.070547 
-0.032067 
-0.102613 
0.032067 
0.019240 
-0.032067 
-0.006413 
0.012827 
0.006413 
0.025653 
-0.032067 
0.051307 
-0.057720 
0.083373 
-0.006413 
0.102613 
-0.012827 
-0.109027 
-0.083373 
-0.012827 
-0.019240 
0.038480 
0.051307 
0.044893 
-0.076960 
-0.044893 
0.006413 
0.051307 
-0.038480 
-0.032067 
0.006413 
-0.025653 
0.006413 
-0.064133 
0.076960 
-0.038480 
0.019240 
0.102613 
-0.025653 
-0.064133 
-0.057720 
-0.070547 
-0.025653 
0.000000 
-0.038480 
-0.032067 
0.064133 
-0.019240 
0.070547 
-0.019240 
0.032067 
0.019240 
-0.012827 
-0.019240 
0.025653 
-0.025653 
-0.012827 
-0.025653 
-0.025653 
0.012827 
-0.070547 
0.032067 
-0.096200 
-0.025653 
0.083373 
-0.012827 
-0.006413 
0.006413 
-0.032067 
-0.109027 
0.006413 
-0.044893 
0.160333 
0.012827 
-0.038480 
-0.032067 
-0.000000 
-0.012827 
0.109027 
0.012827 
0.006413 
0.019240 
0.192400 
-0.070547 
0.032067 
0.089787 
0.038480 
0.025653 
-0.038480 
0.012827 
-0.044893 
-0.064133 
0.044893 
0.032067 
-0.006413 
-0.064133 
0.044893 
-0.044893 
0.012827 
-0.006413 
-0.044893 
0.019240 
-0.038480 
0.006413 
0.012827 
-0.102613 
0.160333 
0.032067 
0.070547 
0.064133 
-0.019240 
-0.076960 
-0.032067 
0.038480 
-0.032067 
-0.006413 
0.000000 
-0.019240 
0.044893 
0.032067 
0.006413 
0.012827 
-0.160333 
-0.051307 
0.064133 
-0.032067 
0.012827 
-0.019240 
-0.057720 
-0.012827 
-0.057720 
-0.096200 
-0.070547 
-0.006413 
0.012827 
-0.064133 
0.012827 
0.230880 
-0.019240 
-0.012827 
-0.128267 
-0.051307 
0.141093 
-0.012827 
0.057720 
-0.064133 
-0.051307 
-0.076960 
-0.025653 
-0.025653 
-0.044893 
0.044893 
0.032067 
0.064133 
0.019240 
-0.012827 
-0.019240 
0.019240 
-0.070547 
-0.012827 
-0.051307 
-0.019240 
-0.012827 
0.038480 
-0.000000 
-0.032067 
-0.076960 
-0.006413 
-0.044893 
0.019240 
-0.044893 
0.025653 
0.044893 
-0.019240 
-0.000000 
0.109027 
0.089787 
-0.032067 
-0.019240 
-0.044893 
-0.057720 
0.044893 
-0.006413 
0.038480 
-0.070547 
-0.096200 
0.070547 
0.019240 
0.012827 
0.070547 
-0.006413 
-0.038480 
0.032067 
-0.064133 
-0.012827 
-0.032067 
0.006413 
-0.064133 
0.032067 
-0.006413 
-0.032067 
-0.025653 
-0.076960 
-0.012827 
-0.051307 
0.121853 
-0.070547 
-0.019240 
-0.019240 
-0.025653 
-0.025653 
-0.109027 
0.147507 
-0.006413 
-0.032067 
-0.057720 
0.102613 
-0.038480 
-0.057720 
-0.032067 
-0.019240 
0.076960 
0.025653 
-0.032067 
-0.012827 
-0.032067 
-0.038480 
0.019240 
0.032067 
-0.006413 
0.025653 
-0.070547 
0.019240 
-0.006413 
0.115440 
-0.051307 
0.083373 
0.006413 
-0.089787 
-0.032067 
-0.025653 
0.025653 
-0.051307 
0.083373 
-0.000000 
-0.012827 
-0.051307 
-0.057720 
-0.025653 
-0.051307 
-0.012827 
-0.166747 
0.006413 
0.038480 
-0.006413 
-0.012827 
0.057720 
-0.057720 
-0.044893 
-0.000000 
0.038480 
0.019240 
0.032067 
-0.051307 
0.076960 
-0.147507 
0.057720 
-0.012827 
-0.006413 
-0.012827 
0.051307 
-0.102613 
0.006413 
-0.032067 
0.019240 
0.032067 
-0.057720 
0.057720 
0.012827 
0.038480 
-0.038480 
-0.012827 
-0.102613 
-0.012827 
-0.032067 
0.044893 
0.006413 
0.032067 
-0.019240 
0.012827 
-0.032067 
-0.076960 
0.000000 
-0.032067 
0.019240 
-0.070547 
0.076960 
0.096200 
0.057720 
0.025653 
-0.038480 
-0.019240 
0.025653 
-0.096200 
-0.006413 
0.019240 
-0.076960 
-0.019240 
-0.038480 
-0.019240 
-0.019240 
0.012827 
-0.025653 
-0.032067 
-0.025653 
0.012827 
-0.064133 
0.141093 
-0.102613 
-0.006413 
-0.083373 
0.012827 
-0.083373 
0.019240 
0.006413 
-0.051307 
-0.006413 
0.000000 
-0.012827 
0.038480 
-0.109027 
0.032067 
0.038480 
0.012827 
0.256533 
-0.019240 
-0.006413 
-0.134680 
-0.006413 
-0.006413 
-0.012827 
0.006413 
-0.012827 
-0.064133 
0.057720 
-0.057720 
-0.006413 
0.038480 
-0.032067 
-0.006413 
0.038480 
-0.019240 
-0.083373 
-0.006413 
0.064133 
0.012827 
-0.070547 
-0.019240 
-0.019240 
-0.012827 
-0.012827 
-0.019240 
-0.102613 
-0.012827 
0.032067 
-0.006413 
-0.038480 
-0.019240 
-0.012827 
-0.064133 
0.000000 
-0.019240 
0.102613 
0.006413 
-0.064133 
-0.012827 
0.000000 
-0.032067 
-0.038480 
0.076960 
-0.051307 
-0.064133 
-0.038480 
0.038480 
0.153920 
0.006413 
-0.198813 
-0.025653 
-0.019240 
-0.038480 
-0.025653 
-0.025653 
-0.032067 
-0.083373 
0.038480 
0.096200 
0.115440 
0.019240 
0.025653 
-0.044893 
0.012827 
-0.115440 
0.089787 
-0.000000 
0.025653 
-0.044893 
0.006413 
0.012827 
0.070547 
0.083373 
0.044893 
0.044893 
-0.083373 
0.006413 
0.096200 
0.044893 
0.064133 
-0.102613 
-0.006413 
0.025653 
0.012827 
0.038480 
0.025653 
-0.044893 
-0.032067 
0.070547 
0.243707 
0.019240 
0.006413 
-0.012827 
0.032067 
0.147507 
0.012827 
-0.019240 
0.006413 
-0.044893 
-0.006413 
0.000000 
0.019240 
0.044893 
0.089787 
-0.000000 
-0.025653 
-0.044893 
-0.044893 
-0.044893 
0.000000 
0.006413 
0.025653 
-0.025653 
0.038480 
-0.121853 
-0.012827 
0.025653 
-0.006413 
-0.019240 
-0.019240 
0.089787 
-0.006413 
-0.006413 
-0.019240 
-0.012827 
0.012827 
-0.057720 
-0.096200 
-0.115440 
-0.044893 
-0.025653 
0.083373 
0.012827 
-0.032067 
0.000000 
0.025653 
0.057720 
-0.051307 
0.032067 
-0.012827 
-0.051307 
0.032067 
0.012827 
0.115440 
-0.019240 
0.070547 
-0.012827 
0.000000 
-0.096200 
-0.038480 
0.012827 
-0.025653 
-0.019240 
-0.076960 
-0.051307 
0.012827 
0.038480 
0.064133 
-0.044893 
-0.038480 
-0.032067 
-0.051307 
-0.000000 
0.000000 
-0.032067 
0.076960 
0.019240 
-0.038480 
-0.076960 
-0.038480 
0.012827 
0.019240 
-0.019240 
-0.032067 
0.012827 
0.025653 
0.070547 
-0.064133 
0.044893 
0.057720 
0.006413 
0.012827 
0.032067 
-0.038480 
0.044893 
-0.019240 
0.044893 
-0.019240 
-0.000000 
-0.012827 
-0.012827 
-0.057720 
0.019240 
0.064133 
0.012827 
0.109027 
-0.096200 
-0.076960 
-0.032067 
0.153920 
0.012827 
-0.057720 
-0.051307 
0.025653 
-0.032067 
0.057720 
0.012827 
0.006413 
-0.025653 
-0.064133 
-0.064133 
-0.012827 
-0.012827 
-0.076960 
-0.089787 
-0.019240 
-0.006413 
0.025653 
-0.006413 
-0.012827 
0.006413 
-0.006413 
-0.012827 
0.000000 
-0.076960 
-0.019240 
0.057720 
-0.083373 
-0.019240 
-0.070547 
-0.006413 
-0.032067 
0.006413 
0.064133 
-0.038480 
0.000000 
0.006413 
0.032067 
-0.025653 
0.025653 
0.070547 
-0.038480 
-0.057720 
0.032067 
0.076960 
0.006413 
0.044893 
-0.032067 
-0.025653 
0.115440 
-0.076960 
-0.019240 
-0.019240 
-0.019240 
-0.019240 
-0.064133 
-0.000000 
-0.032067 
-0.012827 
-0.019240 
-0.032067 
-0.032067 
0.160333 
0.038480 
0.032067 
-0.032067 
-0.006413 
0.012827 
0.198813 
0.102613 
0.070547 
0.006413 
-0.044893 
-0.044893 
0.006413 
-0.083373 
-0.044893 
-0.019240 
0.006413 
-0.044893 
-0.032067 
-0.044893 
-0.032067 
-0.025653 
0.044893 
0.019240 
-0.006413 
0.006413 
-0.025653 
-0.051307 
0.032067 
-0.044893 
0.109027 
-0.044893 
-0.032067 
0.076960 
0.064133 
-0.025653 
-0.012827 
-0.051307 
-0.019240 
0.000000 
-0.070547 
-0.019240 
-0.006413 
-0.006413 
0.038480 
-0.083373 
0.019240 
0.019240 
0.064133 
0.012827 
-0.012827 
0.012827 
0.089787 
-0.057720 
-0.051307 
0.064133 
-0.019240 
0.051307 
0.057720 
0.006413 
-0.032067 
-0.044893 
-0.044893 
0.057720 
-0.012827 
-0.025653 
-0.019240 
-0.012827 
-0.070547 
-0.012827 
-0.032067 
0.012827 
0.012827 
0.019240 
-0.025653 
-0.025653 
0.019240 
0.025653 
0.115440 
-0.025653 
0.089787 
0.038480 
-0.025653 
-0.070547 
0.019240 
0.096200 
-0.006413 
-0.051307 
0.032067 
0.019240 
-0.076960 
-0.070547 
0.038480 
-0.057720 
0.000000 
-0.006413 
0.089787 
0.019240 
0.109027 
-0.051307 
-0.032067 
0.051307 
-0.019240 
-0.025653 
-0.076960 
0.134680 
0.025653 
0.019240 
0.089787 
0.153920 
-0.006413 
0.012827 
-0.051307 
-0.006413 
0.044893 
-0.057720 
-0.025653 
-0.083373 
-0.032067 
-0.025653 
-0.044893 
0.019240 
-0.006413 
-0.019240 
0.109027 
-0.032067 
0.044893 
-0.006413 
0.096200 
0.025653 
0.173160 
-0.032067 
0.025653 
0.109027 
0.044893 
-0.025653 
-0.019240 
-0.076960 
0.019240 
-0.057720 
-0.064133 
-0.070547 
0.025653 
-0.044893 
0.141093 
-0.044893 
-0.012827 
-0.006413 
-0.064133 
-0.051307 
0.006413 
0.044893 
0.025653 
-0.000000 
0.038480 
0.025653 
-0.012827 
0.019240 
0.032067 
0.019240 
0.000000 
-0.012827 
0.012827 
-0.051307 
0.096200 
-0.025653 
0.019240 
0.012827 
-0.012827 
0.000000 
0.038480 
-0.006413 
0.109027 
-0.006413 
-0.025653 
0.012827 
-0.019240 
-0.012827 
0.032067 
0.000000 
-0.025653 
-0.057720 
-0.000000 
0.038480 
0.012827 
-0.032067 
-0.064133 
0.070547 
-0.019240 
-0.051307 
-0.025653 
-0.019240 
0.019240 
0.109027 
0.032067 
0.038480 
0.070547 
0.012827 
0.089787 
0.012827 
-0.064133 
-0.038480 
-0.025653 
-0.012827 
0.032067 
-0.038480 
0.019240 
0.019240 
0.083373 
-0.019240 
-0.032067 
-0.038480 
-0.025653 
0.032067 
0.044893 
-0.012827 
-0.032067 
0.038480 
0.019240 
0.019240 
-0.044893 
0.012827 
-0.057720 
0.134680 
0.051307 
-0.012827 
0.032067 
-0.012827 
-0.012827 
-0.012827 
-0.044893 
-0.038480 
-0.019240 
-0.006413 
0.000000 
0.012827 
0.025653 
-0.057720 
0.000000 
-0.032067 
-0.096200 
-0.064133 
-0.032067 
-0.083373 
0.109027 
-0.044893 
-0.019240 
0.076960 
-0.064133 
0.025653 
0.038480 
0.025653 
0.006413 
-0.025653 
-0.051307 
0.044893 
-0.032067 
-0.006413 
0.012827 
0.096200 
0.025653 
0.006413 
-0.032067 
-0.019240 
-0.038480 
0.025653 
-0.000000 
0.025653 
0.044893 
0.006413 
-0.032067 
0.012827 
-0.032067 
0.070547 
-0.019240 
0.019240 
-0.012827 
0.064133 
-0.012827 
-0.057720 
-0.109027 
0.019240 
0.038480 
-0.012827 
-0.032067 
-0.012827 
-0.012827 
-0.006413 
0.012827 
0.025653 
0.000000 
0.019240 
-0.051307 
-0.019240 
-0.012827 
-0.025653 
-0.044893 
-0.000000 
0.076960 
-0.019240 
-0.012827 
-0.012827 
0.025653 
-0.006413 
0.025653 
-0.012827 
0.019240 
-0.032067 
-0.006413 
-0.083373 
-0.083373 
0.064133 
0.032067 
-0.038480 
0.025653 
0.025653 
-0.038480 
0.012827 
-0.064133 
0.076960 
-0.006413 
-0.089787 
0.076960 
0.019240 
0.064133 
0.012827 
0.044893 
-0.057720 
0.032067 
0.006413 
0.012827 
0.019240 
-0.006413 
0.000000 
0.012827 
-0.019240 
-0.012827 
0.044893 
0.006413 
-0.000000 
-0.051307 
-0.076960 
-0.006413 
0.243707 
-0.012827 
0.000000 
-0.006413 
-0.019240 
-0.057720 
0.012827 
0.032067 
-0.051307 
0.038480 
0.019240 
-0.025653 
0.070547 
-0.057720 
-0.102613 
-0.006413 
-0.064133 
-0.019240 
-0.044893 
-0.032067 
-0.006413 
-0.038480 
0.019240 
-0.038480 
-0.051307 
-0.019240 
0.057720 
0.051307 
-0.044893 
-0.012827 
0.038480 
-0.038480 
-0.012827 
-0.019240 
-0.064133 
-0.044893 
-0.032067 
-0.038480 
-0.000000 
0.019240 
0.019240 
-0.064133 
-0.057720 
-0.038480 
-0.083373 
0.064133 
-0.109027 
0.019240 
-0.032067 
-0.032067 
0.051307 
0.019240 
0.044893 
0.044893 
0.000000 
-0.032067 
0.064133 
0.012827 
0.000000 
0.012827 
0.012827 
0.038480 
0.051307 
-0.038480 
0.025653 
0.044893 
0.000000 
-0.006413 
-0.025653 
-0.012827 
-0.000000 
0.019240 
-0.057720 
-0.044893 
0.025653 
0.000000 
-0.089787 
0.019240 
-0.006413 
-0.089787 
-0.115440 
-0.012827 
-0.012827 
-0.025653 
-0.076960 
0.019240 
-0.032067 
0.032067 
0.109027 
0.032067 
-0.096200 
-0.019240 
0.019240 
0.173160 
0.006413 
-0.006413 
0.000000 
-0.019240 
-0.076960 
-0.044893 
-0.076960 
-0.006413 
-0.064133 
-0.070547 
-0.000000 
-0.032067 
-0.083373 
-0.051307 
-0.006413 
-0.006413 
-0.032067 
0.012827 
-0.076960 
0.076960 
-0.102613 
0.096200 
-0.032067 
0.012827 
-0.012827 
0.012827 
-0.109027 
0.064133 
0.044893 
-0.102613 
0.012827 
0.006413 
-0.025653 
0.064133 
-0.051307 
-0.012827 
0.083373 
-0.019240 
-0.012827 
0.032067 
-0.032067 
-0.070547 
0.025653 
-0.012827 
0.006413 
-0.019240 
-0.012827 
-0.051307 
0.032067 
0.006413 
-0.102613 
0.019240 
-0.051307 
0.006413 
0.038480 
-0.006413 
-0.025653 
-0.012827 
0.051307 
-0.115440 
0.051307 
-0.032067 
0.006413 
-0.012827 
0.006413 
0.032067 
-0.012827 
-0.025653 
-0.000000 
0.006413 
-0.102613 
0.121853 
0.025653 
0.147507 
0.025653 
-0.025653 
-0.032067 
-0.019240 
-0.000000 
-0.019240 
-0.051307 
-0.012827 
0.006413 
0.032067 
0.051307 
0.083373 
0.006413 
-0.051307 
-0.064133 
-0.006413 
0.044893 
0.038480 
0.012827 
0.038480 
0.038480 
-0.019240 
0.012827 
-0.012827 
-0.012827 
-0.006413 
0.076960 
-0.057720 
-0.038480 
-0.019240 
-0.096200 
-0.025653 
0.070547 
-0.006413 
0.089787 
-0.000000 
0.096200 
0.006413 
-0.019240 
-0.064133 
-0.076960 
-0.025653 
-0.044893 
-0.025653 
-0.000000 
-0.000000 
0.019240 
0.038480 
0.070547 
-0.038480 
-0.051307 
-0.089787 
0.012827 
-0.057720 
0.025653 
-0.006413 
-0.006413 
-0.012827 
0.006413 
0.006413 
-0.032067 
0.006413 
-0.064133 
-0.083373 
0.000000 
-0.025653 
0.012827 
0.044893 
-0.006413 
-0.057720 
-0.012827 
0.012827 
0.032067 
-0.038480 
0.025653 
0.000000 
0.000000 
0.006413 
0.070547 
-0.012827 
-0.006413 
0.032067 
0.019240 
0.057720 
-0.044893 
-0.057720 
0.038480 
0.006413 
-0.000000 
0.038480 
0.019240 
0.051307 
0.019240 
-0.038480 
0.051307 
0.000000 
0.044893 
-0.025653 
-0.070547 
0.019240 
0.064133 
0.064133 
0.006413 
0.121853 
0.019240 
-0.019240 
0.051307 
0.044893 
0.012827 
-0.032067 
-0.019240 
-0.019240 
-0.051307 
0.083373 
-0.006413 
-0.032067 
0.012827 
-0.012827 
0.012827 
-0.038480 
-0.006413 
0.102613 
0.038480 
0.032067 
0.076960 
-0.044893 
-0.057720 
0.032067 
-0.032067 
0.000000 
0.025653 
-0.019240 
-0.019240 
-0.070547 
0.000000 
0.032067 
-0.076960 
-0.012827 
-0.044893 
-0.006413 
0.012827 
0.025653 
-0.012827 
-0.064133 
-0.019240 
-0.019240 
0.032067 
-0.006413 
-0.102613 
0.230880 
0.019240 
0.102613 
-0.019240 
0.006413 
-0.051307 
-0.044893 
-0.006413 
-0.019240 
-0.032067 
-0.038480 
0.006413 
-0.051307 
-0.051307 
0.057720 
-0.019240 
-0.051307 
-0.057720 
0.032067 
-0.083373 
-0.057720 
0.019240 
-0.012827 
0.006413 
0.012827 
-0.044893 
-0.038480 
0.032067 
-0.000000 
0.006413 
0.012827 
-0.064133 
-0.006413 
-0.057720 
-0.019240 
0.006413 
-0.044893 
0.051307 
-0.070547 
-0.019240 
0.038480 
-0.032067 
0.051307 
-0.038480 
0.205227 
0.128267 
-0.012827 
-0.070547 
-0.044893 
0.044893 
0.019240 
0.089787 
-0.115440 
0.057720 
-0.064133 
0.006413 
-0.057720 
0.012827 
0.000000 
0.051307 
-0.012827 
0.025653 
0.083373 
0.192400 
0.006413 
-0.025653 
-0.076960 
0.006413 
-0.064133 
-0.025653 
-0.044893 
0.006413 
0.032067 
-0.032067 
0.006413 
-0.006413 
0.032067 
-0.012827 
-0.064133 
-0.000000 
0.019240 
-0.019240 
0.057720 
-0.012827 
0.006413 
-0.089787 
0.064133 
0.000000 
0.083373 
0.032067 
-0.032067 
-0.006413 
-0.044893 
0.064133 
-0.000000 
-0.000000 
0.012827 
0.025653 
-0.044893 
-0.000000 
-0.051307 
0.012827 
-0.025653 
0.044893 
0.051307 
-0.044893 
-0.038480 
-0.025653 
-0.051307 
0.109027 
0.044893 
0.012827 
0.006413 
-0.019240 
-0.057720 
0.012827 
-0.038480 
-0.032067 
0.006413 
-0.044893 
0.025653 
-0.012827 
0.038480 
0.051307 
0.019240 
-0.019240 
-0.070547 
-0.032067 
-0.044893 
-0.038480 
-0.025653 
-0.173160 
-0.044893 
0.076960 
-0.006413 
-0.000000 
-0.076960 
-0.083373 
0.006413 
-0.006413 
0.051307 
0.141093 
-0.032067 
-0.064133 
-0.019240 
0.012827 
-0.012827 
-0.070547 
0.070547 
-0.044893 
0.089787 
-0.051307 
-0.044893 
-0.032067 
-0.051307 
0.307840 
0.076960 
-0.057720 
0.006413 
0.006413 
-0.070547 
0.000000 
0.038480 
-0.070547 
-0.051307 
-0.012827 
-0.064133 
-0.083373 
-0.057720 
-0.076960 
0.019240 
0.038480 
-0.057720 
0.038480 
0.032067 
0.025653 
0.057720 
-0.134680 
0.032067 
0.019240 
-0.032067 
-0.076960 
-0.025653 
0.019240 
-0.012827 
-0.057720 
0.025653 
-0.064133 
-0.019240 
-0.064133 
-0.070547 
-0.109027 
-0.019240 
-0.000000 
0.019240 
-0.019240 
-0.109027 
-0.032067 
-0.032067 
0.006413 
-0.025653 
-0.070547 
0.006413 
-0.012827 
0.019240 
-0.044893 
-0.102613 
-0.000000 
0.006413 
-0.012827 
0.044893 
-0.006413 
0.051307 
-0.006413 
0.012827 
0.019240 
-0.064133 
0.012827 
-0.032067 
-0.032067 
0.160333 
-0.038480 
-0.038480 
-0.012827 
0.032067 
-0.038480 
-0.038480 
-0.051307 
0.012827 
-0.134680 
-0.019240 
-0.032067 
-0.032067 
0.089787 
-0.019240 
-0.038480 
-0.019240 
-0.057720 
0.012827 
-0.025653 
-0.012827 
-0.096200 
0.000000 
-0.038480 
0.012827 
-0.057720 
0.057720 
0.032067 
0.070547 
-0.012827 
0.051307 
-0.019240 
-0.051307 
0.006413 
-0.019240 
0.064133 
0.089787 
-0.038480 
0.025653 
0.070547 
0.006413 
-0.012827 
0.006413 
0.012827 
-0.025653 
-0.019240 
0.000000 
-0.000000 
0.006413 
-0.057720 
-0.019240 
-0.012827 
0.057720 
-0.070547 
-0.032067 
-0.019240 
-0.012827 
0.012827 
-0.038480 
0.006413 
-0.051307 
-0.006413 
-0.000000 
-0.044893 
-0.006413 
0.019240 
-0.032067 
-0.006413 
0.057720 
-0.012827 
-0.012827 
-0.012827 
-0.012827 
-0.044893 
-0.032067 
-0.006413 
-0.038480 
0.012827 
0.000000 
0.019240 
-0.044893 
-0.032067 
0.019240 
-0.006413 
-0.064133 
0.057720 
0.019240 
-0.006413 
-0.025653 
-0.006413 
0.057720 
0.051307 
-0.012827 
-0.019240 
0.000000 
0.006413 
-0.006413 
0.025653 
0.064133 
0.038480 
0.025653 
-0.038480 
-0.057720 
-0.006413 
0.012827 
-0.012827 
-0.019240 
-0.012827 
0.000000 
-0.070547 
-0.025653 
0.051307 
-0.012827 
-0.070547 
0.000000 
0.025653 
0.057720 
-0.032067 
-0.019240 
0.025653 
-0.044893 
-0.025653 
0.044893 
-0.019240 
-0.038480 
-0.000000 
-0.032067 
0.032067 
0.012827 
-0.051307 
0.064133 
0.025653 
0.032067 
-0.038480 
-0.012827 
0.000000 
-0.025653 
0.025653 
0.006413 
0.128267 
-0.012827 
0.012827 
-0.038480 
0.006413 
0.115440 
-0.032067 
-0.019240 
-0.051307 
0.019240 
-0.032067 
-0.000000 
0.025653 
0.006413 
0.025653 
-0.025653 
-0.012827 
-0.006413 
-0.025653 
0.032067 
0.019240 
-0.038480 
0.038480 
-0.006413 
-0.051307 
-0.006413 
-0.032067 
-0.032067 
0.012827 
-0.006413 
-0.012827 
0.025653 
-0.000000 
-0.006413 
-0.044893 
0.044893 
0.025653 
0.032067 
0.006413 
0.019240 
-0.012827 
0.044893 
-0.019240 
-0.057720 
-0.006413 
0.051307 
-0.006413 
0.051307 
0.032067 
-0.032067 
-0.012827 
0.012827 
-0.012827 
0.032067 
0.006413 
-0.044893 
0.044893 
-0.044893 
0.006413 
-0.057720 
-0.006413 
0.000000 
-0.025653 
0.019240 
-0.051307 
0.006413 
-0.032067 
0.032067 
-0.025653 
-0.083373 
-0.044893 
-0.012827 
-0.038480 
-0.006413 
-0.038480 
-0.006413 
-0.025653 
-0.012827 
-0.044893 
0.057720 
-0.064133 
0.044893 
0.006413 
0.012827 
0.006413 
-0.012827 
0.006413 
-0.032067 
-0.070547 
0.083373 
0.044893 
0.019240 
-0.044893 
-0.032067 
-0.076960 
0.025653 
0.012827 
-0.038480 
-0.044893 
-0.006413 
-0.019240 
-0.038480 
-0.044893 
0.000000 
-0.012827 
0.006413 
-0.025653 
0.019240 
0.019240 
-0.006413 
0.032067 
0.012827 
0.038480 
0.006413 
0.025653 
-0.000000 
0.032067 
0.025653 
-0.006413 
0.083373 
0.064133 
0.051307 
0.000000 
0.038480 
-0.051307 
0.044893 
-0.012827 
-0.038480 
-0.044893 
-0.038480 
0.038480 
0.006413 
0.006413 
0.044893 
-0.057720 
0.000000 
-0.006413 
0.006413 
-0.025653 
0.044893 
0.019240 
0.019240 
-0.057720 
0.032067 
-0.012827 
-0.019240 
0.000000 
-0.044893 
-0.019240 
0.070547 
-0.006413 
0.000000 
0.012827 
-0.076960 
-0.102613 
-0.147507 
